solver_type L1R_LR
nr_class 10
label 1 3 7 2 6 5 4 9 0 8
nr_feature 780
bias 10
w
0 0 0 0 0 0 0 0 0 0 
0 0 0 0 0 0 0 0 0 0 
0 0 0 0 0 0 0 0 0 0 
0 0 0 0 0 0 0 0 0 0 
0 0 0 0 0 0 0 0 0 0 
0 0 0 0 0 0 0 0 0 0 
0 0 0 0 0 0 0 0 0 0 
0 0 0 0 0 0 0 0 0 0 
0 0 0 0 0 0 0 0 0 0 
0 0 0 0 0 0 0 0 0 0 
0 0 0 0 0 0 0 0 0 0 
0 0 0 0 0 0 0 0 0 0 
0 0 0 0 0 0 0 0 0 0 
0 0 0 0 0 0 0 0 0 0 
0 0 0 0 0 0 0 0 0 0 
0 0 0 0 0 0 0 0 0 0 
0 0 0 0 0 0 0 0 0 0 
0 0 0 0 0 0 0 0 0 0 
0 0 0 0 0 0 0 0 0 0 
0 0 0 0 0 0 0 0 0 0 
0 0 0 0 0 0 0 0 0 0 
0 0 0 0 0 0 0 0 0 0 
0 0 0 0 0 0 0 0 0 0 
0 0 0 0 0 0 0 0 0 0 
0 0 0 0 0 0 0 0 0 0 
0 0 0 0 0 0 0 0 0 0 
0 0 0 0 0 0 0 0 0 0 
0 0 0 0 0 0 0 0 0 0 
0 0 0 0 0 0 0 0 0 0 
0 0 0 0 0 0 0 0 0 0 
0 0 0 0 0 0 0 0 0 0 
0 0 0 0 0 0 0 0 0 0 
0 0 0 0 0 0 0 0 0 0 
0 0 0 0 0 0 0 0 0 0 
0 0 0 0 0 0 0 0 0 0 
0 0 0 0 0 0 0 0 0 0 
0 0 0 0 0 0 0 0 0 0 
0 0 0 0 0 0 0 0 0 0 
0 0 0 0 0 0 0 0 0 0 
0 0 0 0 0 0 0 0 0 0 
0 0 0 -0.1689062610964704 0 0 0 0 0 0 
0 0 0 -0.2628284090689865 0 0 0 0 0 0 
0 0 0 0 -0.3707307665283311 0 0 0 0 0 
0 0 0 0 0 0 0 0 0 0 
0 0 0 0 -0.2148862618530935 0 -1.064474471768156 0 0 0 
0 0 0 0 0 0 0 0 0 0 
0 0 0 0 0 0 0 0 0 0 
0 0 0 0 0 0 0 0 0 0 
0 0 0 0 0 0 0 0 0 0 
0 0 0 0 0 0 0 0 0 0 
0 0 0 0 0 0 0 0 0 0 
0 0 0 0 0 0 0 0 0 0 
0 0 0 0 0 0 0 0 0 0 
0 0 0 0 0 0 0 0 0 0 
0 0 0 0 0 0 0 0 0 0 
0 0 0 0 0 0 0 0 0 0 
0 0 0 0 0 0 0 0 0 0 
0 0 0 0 0 0 0 0 0 0 
0 0 0 0 0 0 0 0 0 0 
0 0 0 0 0 0 0 0 0 0 
0 0 0 0 0 0 0 0 0 0 
0 0 0 0 0 0 0 0 0 0 
0 0 0 0 0 0 0 0 0 0 
0 0 0 0 0 0 -5.208996749233026 0 0 0 
0 0 0 0 0 0 0 0 0 0 
0 0 0 0 0 0 0 0 0 0 
0 0 0 -1.522777678918301 0.9808659779054388 0 -2.811034980852798 0 0 0 
0 0 0 -0.429896165234373 0 -0.07682129315369639 -0.2258177736047201 0 0 0 
0 0 0 0 0.5728425702008172 -0.8132239662697378 -4.156522704522152 0 -0.5701516900116792 0 
0 0 0 -0.9371267628135462 0.7697718600821062 -0.8405617306370988 -0.1999447360526121 0 0 0 
0 0 0 -0.5992459454706417 -0.0435626409410087 -1.877056442238495 -0.02273387632624364 0 -1.418990620712551 -0.4505578755421347 
0.1396834508557782 -0.3674814340500231 0 -0.3788994558638946 0 -1.131185178498474 -1.628286012340744 0 -0.9504438601747701 -0.3596096788426867 
0 0 0 -0.1696688373689792 0.4907580160536391 -0.007231144402112838 -1.106514036968383 0 -0.8062663241256428 -1.194538316688986 
0 0 0 -0.903982738141256 0.1308581008403685 -0.4447243908508583 -2.080968714969347 0 -1.582732665921019 -0.7205882233726184 
0 0 0 -0.4945159410016285 1.073998082364291 -1.107143103698298 -1.275224755193054 0 -0.5544955770323386 0 
0 0 0 -1.387774504496886 0 0 -0.4054094933199641 0 -0.8882470733144275 -0.3154754922775659 
0 0 0 -0.7092566488048713 0.6388890719689547 -0.5250690845112299 -1.325839162638088 0 -0.1425013875412252 0 
0 0 0 0 1.866474755179359 -0.09540258666831852 0 0 0 0 
0 0 0 0 0.6593179533178561 0 -2.21974533175249 0 0 0 
0 0 0 0 1.040624210487977 0 0 0 0 0 
0 0 0 0 0 0 0 0 0 0 
0 0 0 0 0 0 0 0 0 0 
0 0 0 0 0 0 0 0 0 0 
0 0 0 0 0 0 0 0 0 0 
0 0 0 0 0 0 0 0 0 0 
0 0 0 0 0 0 0 0 0 0 
0 0 0 0 0 0 0 0 0 0 
0 0 0 0 0 0 0 0 0 0 
0 0 0 0 0 0 0 0 0 0 
0 0.7326214744166264 0 0 0 0 0 0 0 0 
0 0 0 0 0 0 -0.6982775522362945 0 0 0 
0 0 0 0 0 0 -0.04924677895313365 0 0 0 
0 0 0 -0.29939360094407 1.014354301797289 0 -2.115376706469769 0 -0.6478484153486498 0 
0 -0.4297960257428852 0 0.6695348003147136 0 -1.737157008579382 -4.631123518410615 0 -1.284104843695301 0 
-0.9160857076359284 -0.2723217958344002 0 0.1038729589469085 -0.02010501275201787 -0.04348364371143504 -1.133269658828103 0 -1.848454201734043 -0.07921529767101076 
-1.971301663776227 0 0 0.015511219285039 -0.0968521563251773 -0.9489744967127818 -1.133349667750104 0 -0.2410887704803953 -0.8535589501106915 
-0.5314548174423882 0.3542634451850901 -0.1853970154802555 0.1176600858914673 -0.6629571050592006 -0.02009868520205909 -1.439677815446071 -1.429405840288021 -1.067578863992027 -0.8396685718782674 
-0.1934578191615404 -0.3039541054284636 -0.2354178844319113 0.225831320417651 0.3472069457570173 -0.1312905428559382 -5.020742884633577 -0.2524567433289778 -0.07026944864057569 -0.2143144920483171 
-0.4257143212263033 0.6095460197138739 0 -0.2060013315852821 -0.2458357521816643 -0.6205069573615133 -0.5285596507854777 -1.135557211350808 -0.5537878235775804 -1.676998049619542 
-0.3723517961663282 0.119266365059222 0 -0.1391006513538325 0.04946966314759639 -0.5084134786081216 -1.611794765612608 -1.070765912098028 -0.3334942623213125 -0.04268091196007578 
0 -0.008189531074633508 0 -0.07089564751388212 0 -0.3498058651330936 -1.110567529370112 -0.1183845066028124 -0.7661176039210281 -0.4837600650463615 
-0.2150640418123877 0.3322205314786633 0 -0.1856772732284558 -0.01441906839838302 -0.5743812643253332 -0.6563242764535491 -0.7428155791101674 0 -0.9781078065585974 
-1.118288628478184 0.04836121984260102 0 -0.3949236568373012 0.04857004245475714 -0.2793842588659869 -2.298608199852868 -0.6169139082354218 -1.303197063426269 -0.3532941432150802 
0 0.09119252454934537 0 -0.2482200948158156 0.2328069712961565 -0.37827032033115 -0.1856942886411395 -0.05057050077139869 -0.338029183351628 -0.6989955337608155 
-0.9866320473910132 0.7251909353135383 0 0 0 -0.06163096525025308 0 0 -0.223599270577892 -0.4911561654017436 
-0.1255141422428427 -0.1783932286015486 0 -0.4257258342698331 0 -0.02620940376922007 -0.7948920377911377 0 -1.265271334088246 0 
0 -1.105697044495254 0 0 0 -0.1231048957828037 -0.3131928207897669 0 -0.8462458846723848 0 
0 0 0 0 0.5184536213518068 -0.9632815031080407 -0.2904634317171982 0 0 0 
0 0 0 0 0 -0.1357031019996969 -0.7370073855153105 0 0 0 
0 0 0 0 -0.2719114445612409 0 0 0 0 0 
0 0 0 0 0 0 0 0 0 0 
0 0 0 0 0 0 0 0 0 0 
0 0 0 0 0 0 0 0 0 0 
0 0 0 0 0 0 0 0 0 0 
0 0 0 0 0 0 0 0 0 0 
0 0 0 0 0 0 0 0 0 0 
0 0 0 0 0 0 0 0 0 0 
0 0.2092994806413291 0 0 0 -1.775288119659371 0 0 0 0 
0 0 0 0 0 0 -0.9364892684242909 0 0 0 
0 0 0 0.3753073545371763 -1.011681354915579 0 0 0 -1.107621742574467 -1.365128501514586 
0 0.2613844352873543 -0.8054733949746617 0.1417502218097396 0.3162461163300346 -1.215022583898741 0 0 -0.1348531891874329 0 
-0.4461065260420039 0.01597195819885559 -0.5496631988387972 0.3762123766363617 -0.9112202741432534 0 0 -0.3628621085210176 0 0.07475386121656089 
0 0.2663803189810378 -1.373326841285691 0.08907267108790623 0.4059300413986695 -0.2392985137683927 -1.116397993726522 -0.1872619735288794 0.2460900294523378 0.2745011708584419 
-0.556443251806419 0.113215238753305 -0.6132028144630652 0.04111593284953868 -0.530162839901574 -0.1930611587609516 -0.7522294709479068 -1.153202496404774 0.2127858525285224 0.03405409357083505 
-0.2695842424174581 0.08747887795406634 -0.4697209238399996 0.09531793989238961 -0.395459375860238 -0.1609861611862568 0 -0.9457823030060613 -0.3996938353282453 -0.1105449334879674 
0 -5.834089699409353e-05 -1.196863875168359 0.3475692655593232 -0.5567817953325487 -0.3940293457713016 0.2605446004567346 -0.6313854495859571 0 -0.04559317648260434 
-0.05059678153192713 0.02912912782179718 -0.6994409894454292 0.08450787554313373 -0.0532876886299098 -0.06273797005487294 -0.8443835281310443 -1.141273741911706 -0.3426028730858584 0.1279625892717462 
-0.1323155548563238 0.05775515252139725 -0.4034595122749636 -0.01436762838641896 -0.4057944846066809 0.2836885754861345 -0.6159745733894537 -1.053139548871307 -0.0953273254443074 0.0007556017074062428 
-0.3973868792741307 0.07151261042028959 -1.05985302675875 0.1181784821928418 -0.3173376127362923 -0.5806862138486536 0 -1.5361922509238 -0.1170010556336614 0 
-0.04109207275119908 -0.1742996927530422 -1.004142299171089 -0.06343909374994416 -0.02105405711867991 0.3316656394595815 -0.07395216744186568 -1.218177698974676 0.02649973101606791 -0.306057232908003 
-0.3142365047924713 0.02236531682579733 -0.5283764785193299 -0.4334350285691959 -0.03154520362358793 -0.02132868604694914 -0.8215806523326479 -0.4549623884222269 -0.07195151544770537 -0.08215767831204657 
0.08252837889852851 0 -0.07118384411834963 0 0.01717893989699781 -0.2070974869517782 0 -1.496682999095362 -0.2134771367806887 -0.07161414733273433 
0.01845926147429323 -0.292501437422467 0 -0.7120332178927274 0.1968384155918807 -0.2740292700006812 0.1761647938707538 -0.4309289686257813 0 -0.0171439037858795 
0 -0.2636762630247851 0 -0.4420235009587048 0 0.4399533894767415 0.1035487512832395 -1.573610468810557 0 -0.1460773462419014 
0 0 0 -0.9652857057903765 0 0.08180298410154573 0.4753734041606305 0 -0.1078136532012596 -0.2875922758505765 
0 -2.240190283488285 0 -1.399883149597843 0.586758401933717 0.3983101602085915 0.08279150246738533 0 -0.05319554705918905 -0.4430419937269124 
-2.667145649858838 0 0 0 -0.6932093711157816 0.8456713005579962 1.423832746520342 0 -0.5759786499500447 0 
0 0 0 0 0 0 0 0 0 0.6410778501476676 
0 0 0 0 0 0 0 0 0 0 
0 0 0 0 0 0 0 0 0 0 
0 0 0 0 0 0 0 0 0 0 
0 0 0 0 0 0 0 0 0 0 
0 0 0 0 0 0 0 0 0 0 
0 0 0 0 0 0 0 0 0 0 
0 0 0 0 0 -2.3040135785806 0 0 0 0 
0.5687371390536957 0.6512002208371046 0.07110728675611938 -0.1125215085328524 0 0 0 0 -1.230211579462237 -0.02944307923881926 
0 0.4434020771265635 0 -0.3170710369150345 -0.09198011317604385 -0.2775772911085962 -0.08840879763653131 -0.5544952572488808 0 0 
0 0.382916530378267 -0.2212760636900813 0 -0.5879214841573237 -0.2578919522229737 -0.1246284172414959 0 -0.6080780407159234 0 
-0.2182139495855349 0.197687568496279 -0.01924492881223344 0.01985730472849343 0.1425728772924889 -0.4209925305801998 -0.3196225039026556 -0.1398676183745075 0 -0.2704144103598622 
-1.310887185332776 0.06657018320856922 -0.04133338356576571 -0.005549549738944797 -0.4187998282256706 -0.03429836255507758 0 -1.138315155120685 0.006931654068585417 -0.009401501807750229 
-0.6272314786486581 0.1730231614925722 -0.583379407162476 -0.01227927578041984 -0.06963949322601484 0 0 -0.5171644499371828 0.05509705802352916 -0.3518699134349028 
-0.8749801019799368 0.08739245189394795 -0.1338254709637343 0.1872350722990302 -0.4983641303640814 -0.07147810862444978 -0.3099078426468178 0.209851358278624 0.03467126666940678 0.1283174796211694 
-0.6900963652667539 0.04918827079368948 -0.3429536173559042 0.2589217343263068 -0.1219422983285775 -0.2540303782416186 -0.1370027525157403 -0.1923512750472093 -0.1017277433777283 0.097857158264371 
-0.2723388189711075 0.06802033746535766 0.07628651917868902 0.09213708175854318 -0.3955468378849715 -0.1211975226419225 -0.3542997908580955 0 0.03579297404478071 0.1125775516193666 
-0.3337517052683538 0.02018175634676182 -0.8196592466820042 0.1302085611711339 -0.2547212286603358 -0.2155380329667948 0 -0.5808663179396015 0.009096770821542418 0.09587169704300376 
0 0.1948003050418395 -0.518898119620689 0.05959653561084616 -0.2474202453621104 -0.2499168194361808 0.195438579782751 -0.2392868486767009 0.03518679770587353 0.0830130828400077 
-0.4064085455043746 0.04298070260662318 -0.304340743219904 0.2216789082243141 -0.2560290441434963 0.1248651113036123 0.1471222458015608 -1.114651654023251 0.1932128928893477 0.1567098136396859 
-0.458857527276252 -0.2537715514204726 -1.305988140752497 0.1907328853311562 -0.2170058362755367 -0.01824659012099283 0.1607479650130126 -0.5345848183689702 -0.001291324664495538 0.217208415641536 
-0.3056379066613711 -0.1547785929799693 -0.9846458057104678 0.2986299846377442 0.0722643890883465 0 0.3491397366210732 -0.9158695932620216 0.1059645793697448 0.0002061503593246128 
-0.2475635654274222 0.06836849780955759 -1.416267419918613 -0.1990254136826773 -0.1882725358067944 0.04716382125137777 0 -1.004545522845581 -0.2847852693472102 -0.05665402747065228 
-0.09488423274378736 -0.2284961885554853 -1.121430492336704 -0.01304974300350404 0.106563529563905 0.2989464695263582 0 -0.1524194695010604 -0.03590218911067079 -0.1344468454688619 
0.0938085524124901 -0.3603345994825727 -1.861806078400019 -0.08079842011266168 0.2485235295279677 0.2137144523669132 0.1908606970094107 -1.269981310523555 -0.282651927909533 0.05558345431375924 
0.1947726109243639 -0.6558048202087059 -0.7327665845133502 0.1703635414802842 -0.6206698146818106 0.06269240279447055 0 -1.067072894440013 0 -0.2209573835358578 
0.560568695680869 -0.04950515593491085 -0.09079386835969816 0 0.2067779958963349 0.4951040985477548 0.08240158469131463 -2.359030885633567 -0.4647962431456599 -0.4667155915526349 
0 -0.8757150051581052 0 -1.568069932800682 0 0.1199628438306178 -0.01319494692086428 0 -1.317862845800182 -0.386571572851915 
-1.705288624536082 0 0 0 -1.07654730230479 0 -0.7221142268302519 0 0 0 
0 0 0 0 0 0 0 0 0 0 
0 0 0 0 0 0 0 0 0 0 
0 0 0 0 0 0 0 0 0 0 
0 0 0 0 0 0 0 0 0 0 
0 0 0 0 0 0 0 0 0 0 
0 0.05627079218012709 1.25001528409671 0 0 0 0 0 0 0 
0 0 0 0 0 0 0 0 0 -1.562638655283477 
0 -0.08794328893133758 0 -0.1036090189644079 -0.01667082056016103 0 0 -3.176103607735301 -0.4077987142546899 0 
0 0.205372032388447 0.7425550405349942 0 -0.6386142725630867 -0.2893300163677012 0 0 -0.1384400512301219 0 
-0.4919113898761003 -0.213617160565591 0.1378496885600229 0.1682555836885649 0 -0.2130925657678195 -0.003038114950952164 -1.75401509822329 0 -0.6311397719621707 
0 -0.1779078453904503 0.3080765636091164 0 -0.01958507357511554 -0.134102610007578 -0.1127926876689764 -0.5811237117522672 0 -0.10265849847309 
-0.1544766265166981 0.2756522474067504 0 0.1883189415329584 -0.1401467328612502 0.03318734785044647 0 0 -1.817875093178918 -0.3289682554084012 
-0.08699840122130358 0.2725740998122823 0.4243187251054542 0.03705853114047549 -0.1570212341604457 0 -0.3131557405279194 -0.330290176942115 0 -0.1363131540466461 
-0.08003759459744714 0.07911843479553149 0.1452038733470459 0.02839185681245824 0.09645236998034071 -0.02847738060569302 -0.5793820052248562 0.08120797992311159 -0.187598240089309 0.03167220927123125 
-0.5245109034440867 0.3210684856242819 0.2975636883747871 -0.020316742407361 -0.1972289176703009 -0.1172985781671029 -0.2276987593207796 0.3117275111255766 -0.01058430456613024 0.1805109276783784 
-0.225810601798644 0.1690056767831829 -0.09831220098294294 0.1985772406720981 -0.3874037553437173 -0.06531404357076573 -0.7109507715800181 0.3961622274376522 0.1339991385324723 0.139614880644155 
-0.2792958138103532 -0.0229386602178389 0.03660745780432247 0.01648869044347425 -0.2256171172947832 0.05643280767832726 -0.5028882226970161 0.5261723510607049 0.1046486405581534 -0.1594678088071037 
-0.4445900911734242 0.07727923968979572 -0.07381116112549782 0.1792480695269111 -0.5048534781556588 -0.0466567724201553 -0.9273666178021791 0.3892207873093324 0.1142617254774699 0.4395596604159395 
-0.4050993132760672 0.1929873842027868 -0.008989066868640191 0.3486928396776358 -0.2442323233725123 -0.3148313068220877 -0.6894871693875083 0.5134062367532086 -0.1727416689727188 0.106335133825219 
-0.4130117966151511 -0.03445760984462586 0.05185609193057572 -0.3059996057473671 -0.2946399715305945 0 -0.3078201597442527 0.3791357355308674 0.1021175678773548 0.1464800893236565 
0 0.1455114001649893 0.04705066031642716 -0.01364009670984532 -0.293305759095578 -0.01914650635159265 -0.7093250994839341 0.3198061805564752 0.1950803490030081 -0.2201511996768108 
-0.1833579009306117 -0.1388432849932192 -0.2287463136101569 -0.08640711346362748 -0.05383399831375784 0.1458806564633013 0 0.1017297003589052 -0.02412522275669954 0.2666137212046532 
-0.05190816660838306 -0.03005764425550887 0 -0.140005710255683 -0.1622122880495196 0.2557166882699308 -0.1758912635376708 0.2288410853716159 0.1568128486176954 -0.09265163098331565 
0 -0.04409973259614551 0.008343455563265479 -0.002384446006851254 -0.1133480242754591 -0.2614891242661643 0.01791873237198829 -0.1458598296345818 0.0536917137814085 0.02440585580402573 
-0.03921578962250898 0 0.0259755397932688 -0.0191216862310048 0.02588609257482487 0.830587166086898 0.1426543495010173 -0.6401596018731899 0.2637089737330633 -0.2030273683576338 
0 -0.4909914975126242 -1.549886592075271 -0.9495893425988597 -0.0353183792478783 0.04299347228344575 0.7769557551349713 -0.7643734001749505 0.09043813788699846 0.05528976503792498 
-0.7049882260787548 -0.4302132046301092 0 -0.3153452232566397 -0.1653190918363536 1.06507205302963 -0.6133403929550891 -1.19921086394341 -1.58916325788054 -0.5543068764718946 
-0.6395813052563155 -0.01294894549691085 0 0 -0.08658144302137954 0.09016790515755048 0 0 -3.647371879826948 0.2585708896845829 
0 0 0 0 0 0 0 0 0 0 
0 0 0 0 0 0 0 0 0 0 
0 0 0 0 0 0 0 0 0 0 
0 0 0 0 0 0 0 0 0 0 
0 0 0 0 0 0 0 0 0 0 
0 0 0.09685616905028899 0 -0.1563035509291946 0 0 0 0 0 
0 0.03246936426773364 0 0 0 -1.637650320255396 0 -0.0612047672523623 0 -1.201250811066176 
-1.979257105204881 0.6236567550797872 -0.06862471723014882 0.05905306789591758 0 -0.1384620552732021 1.178037779522301 -1.143608990592148 0 0 
-0.1535961556969475 -0.04631841812339801 -0.2982861513421493 0.1486380727259424 -0.7356840741884142 -0.04939368945535543 0.0655022679731924 -0.6512220578324551 0 -0.3582353722271044 
0 0.1507960297804156 0.4070002003954802 -0.1856630132857446 -0.002920992303946199 -0.1457213309329757 0.1594908172578383 -0.3494299558701665 0 0 
-0.7855698345564196 -0.1389201436753283 0 0.1806367521068841 -0.1011980659270615 0.08702022951161216 -0.1103082511006997 -0.05055784277949897 -0.1689870681698252 0.1890560575959653 
-0.7618839002882892 -0.01156970873248529 0.2930974865040883 -0.08094940952486404 -0.006843387001929532 -0.2251864062172522 0.003123383707402475 -0.3586005201486441 0.1166705490629087 -0.1106588529531594 
0 -0.177702101862723 0.3678150363147981 -0.03853460060745002 -0.9792822052195852 0.1784837660242862 -0.2126088392421724 0.03815248329035447 -0.003166759458392152 0.09672937041022969 
-0.2940396170949792 -0.09359054727477421 0.1510988553389999 0.09713487720927441 0 0.1111075143352782 0.008673276998717947 0 -0.07108503527405023 -0.151621285578892 
-0.1143692869534659 0.01947237290428111 0.2533907816762923 -0.0139454127493081 -0.3763175072732145 0.1541762587647317 -0.6991654852707646 0.2457591509724984 -0.03265340505321274 -0.1793951508679009 
-0.04982337052816272 0.09177109381360092 0.2122324764158949 0.09555067628597101 -0.2603751646983978 -0.2223346905850622 -0.3000606941629507 0.51558347737499 0.2440548445525921 -0.1713156098454983 
-0.3782987634422155 0.1401745236364454 -0.6395489622841106 0.05881378787771165 -0.2052959347832803 -0.1118074888767876 -0.6502525322998139 0.4769152231756685 0.3178205824526517 -0.1973357678647306 
-0.2230484433203891 0.1596623023114543 -0.1413820603006853 -0.2977468178940345 -0.06815978818696516 -0.1439461443041158 -0.5992451467314727 0.8188294055651083 -0.5566024787511464 0.05428846107382142 
-0.2788087191809179 0.04935035333085839 -0.02568569899239673 -0.0187558938168439 -0.3084939691284533 0.003475982433457408 -0.4697951747428667 0.492287121821245 0.2030448819743852 -0.06797722115412337 
-0.01118352430161984 -0.05678460239546994 0.04364461325334704 -0.1295363534602099 -0.4663529186527634 0.03308911757582295 -0.2594150735666328 0.4598716503970039 0.3818214115412202 -0.2369266562181682 
-0.06258797749019433 0 0.1513462185951289 -0.1257816935006477 -0.3062898808015468 0.1197535590431969 -0.2345147211282267 -0.02323323327675351 0.1537668102730431 0.003456219479729629 
-0.04070373979045489 -0.2713077227443906 0.07109994793716588 -0.1047605276397792 -0.6268783423955411 -0.05628551008149509 -0.3411650752299719 -0.08863293884401637 0.1238193300321272 -0.1918554905307386 
0.07634855240442001 0.09185997740672174 0.4626196120532243 -0.1449752869672156 -0.4213133725954075 0.07809733829666587 0 -0.09577482082188801 0.02861325815378649 0 
0.08883687174533308 -0.3485773368847082 0.05388102125319826 0.1205976137625021 -0.4065931608434941 0.2034372682412423 0.0007077243314808252 -0.1284303111112776 0 0.1048792827905775 
-0.3945692013211425 -0.3109835472584919 0.01117010686219629 0.276783160139593 -0.1398610777527146 -0.07004648055754856 0.002501163043762875 -0.3030683646583724 -0.1095790753761412 -0.244022472004736 
0.2339358375348058 0 0 -0.9854510131352218 -0.3438661620506134 0.3952005316204146 0.6103060954023393 -0.4234535388159265 0 0.5884538678523661 
-1.841791571845579 -1.222897034177533 0 -0.722141299781126 0 0.613009927505748 -0.6599462850947019 -1.15471953695632 -0.4986103724051892 0.2090225800180956 
-0.66269677148455 0 -1.070663767791273 0 0 1.385712323794892 -0.5701304562640523 -1.691490574008235 -1.734339539438787 -0.7704465664626621 
0 0 0 0 0 -0.04672270396323897 0 0 0 -0.04195169490356398 
0 0 0 0 0 0 0 0 0 0 
0 0 0 0 0 0 0 0 0 0 
0 0 0 0 0 0 0 0 0 0 
0 -1.186980616038054 0 0 0 0 0 0 0 0 
0 0 0.841224624759738 0 0 -0.4056351524168458 0 -2.247736795055671 0 0 
0 0.5385470682640744 0 0.05320429237157537 0 -1.889946342168108 0 0 -0.1146073734690591 0 
0 0 0.04590535126212133 0 -0.2193253846040082 -0.4937347517367573 0 0 -0.3510334830055501 -0.1016792957162192 
-1.430089744268069 -0.01303387077404665 0.3379140509922733 -0.05619614011809408 -0.6721437983185473 -0.04292454699334777 -0.1425563883306198 -0.2094724911825987 0 0.06107007357812804 
0 0 0.7977765996772633 -0.01012258213451239 0.05389562354857732 -0.2903827466394715 0.1965683999135817 -0.5482272202467389 -0.2570583369133443 0.3913612829791959 
-0.9067139029786903 -0.08628117712272196 0.120523797429261 0.006392425954624588 -0.3176735142443469 0.2309182346014569 -0.5522172995503527 -0.1073641225241271 0 -0.1188455764461338 
-0.4481210516701588 -0.03412812483332166 0.2192045322762492 0.001062319651352313 -0.04305318608982234 0.1491003615356327 -0.07398627560815774 -0.3493589828324659 0.02704011696197732 0.2070369474788217 
-0.5516686179056138 -0.01826958146900579 0.1402616765536648 0.2655307458647468 0.1251748519416693 0.05791186378738512 -0.1124927202508775 -0.1950118534270202 -0.0003917461804546878 0.1124522516571644 
-0.2980335052570642 -0.08916715520987238 0.4042186922428406 0.08744471194850602 -0.1681381408511183 0.060761141678281 -0.152150952752674 -0.2930332463437814 -0.0004916382259686979 -0.08530358173391672 
0.07964204514779004 0.09055377487572247 0.1491730418644916 -0.1456482361170984 -0.1985014957486887 -0.01563928403941952 -0.2131697182772643 -0.1922938812538453 0.1627813744281338 0.2366752627686889 
-0.03978855162640263 0.09661853799612526 0.2602385986703441 -0.03500104517666941 -0.3187098745446362 -0.1615313416540517 -0.4201136090317224 0.2243059046559298 -0.2685965694824408 0.1943395681397561 
-0.06042119559166859 -0.01460572479365037 0.08654670837979546 0.2786491961297884 -0.2808523825581448 -0.201580682166491 -0.4803668889386267 0.2310062747951549 0.4314247751977078 -0.2759816046230793 
-0.02876028710920391 0.1644073356922139 0.3382728344670441 0.008408111976452578 -0.6133739854070325 -0.1826658627124086 -0.5315488170013767 0.4699763649764811 0.1416468970572712 -0.06043105036909083 
-0.2610889860215054 -0.1344884871025779 -0.02607068151667492 -0.1648986600890017 -0.3751102167909035 -0.2237976756192775 -0.6156792829263961 0.1186074010033912 0.6238766547211974 0.09514750887796913 
0.01023439386697363 0.2377484568477616 0.203677516272517 -0.02814881590463151 -0.4553879713610009 -0.003731101074616255 -0.3587469080566887 -0.05387041515702498 0.3374091382302633 -0.1203716681293489 
0.02059192077423007 0.2374942831843425 0.1953928219397746 -0.244304126520713 -0.6008902800972319 -0.05152309158390808 0.01837773633273802 -0.01657569221240974 0.2437703190830602 0.06391390469445644 
0.003207707497604352 0.2671189711694119 0.04475088480047684 0.09476450540825994 -0.786326936714342 0.09723161924418745 -0.06118438381491324 -0.1642796431035705 0.1914536123524111 0.1286093374663385 
-0.1239925445674445 0.2029819954237537 0.05178156210068086 0.01989328230436997 -0.9595775819512462 0.2700328108258355 -0.06580288786365958 -0.2008431304993425 0.296193429368004 -0.05115844535552147 
-0.3695051797102551 -0.2001959400735541 0.007429597188889202 -0.1754373275046432 -0.8694548667909616 0.3795931058011054 -0.1133083653003261 0.1382993855239112 0 0.2778037593645676 
-0.08804651168291817 0.002215460331270049 0.3509426506689406 -0.01033805639097092 -1.071619046680187 0.2635045839943077 -0.1351208957466482 -0.0005144860659925709 0 0.2013314875744628 
0 -1.392863677174559 0 0.03439868403008016 -1.841179541465123 0.2413226746816644 0 -0.06324462422505689 0.1473182852450353 0.04317727696411722 
-2.983148841100132 -2.176113456197655 -0.1256613453909105 -1.740792527334308 -2.391030171776271 0.941633821422823 -0.2136610072810436 -0.04764402186603515 -0.7363849234806474 0.08271275861073017 
0 0 -1.272338758860846 -0.1990464486195551 0 0.7175824120181229 0 -0.6593029420051491 -3.436186274449699 -0.4730553344108233 
0 0 0 0 0 0 0 0 0 0 
0 0 0 0 0 0 0 0 0 0 
0 0 0 0 0 0 0 0 0 0 
0 0 0 0 0 0 0 0 0 0 
0 0 0 0 0 0 0 0 0 0 
0 0 0 0 -0.1845634671646514 -0.6280107842766427 0 0 0 0 
0 0.0680476161807381 0.8497531858104264 0 0 -0.5000905333886128 -0.5586786768789113 -1.02528773213862 -1.3388962050672 0 
-0.9265343264774748 0.1427139688703342 -0.001666882654447172 0.4013699250808445 -0.3256962959478343 -0.3488869428602929 0 0 0 -0.06137124785441336 
-0.543065722625786 0.1261721284815716 0.1933330301894395 -0.4241015178327575 -0.3996968578042845 -0.01835047099304747 -0.3886207234129971 0 0 0.1973026940808621 
0 0.05631568459679801 0 0.1097733326480157 0 0.05548312861146174 -0.01371133663125444 -0.1819687839022365 0.04759053238867757 0 
-0.04077467506462433 -0.1761776790498763 0.1980545537660885 -0.06916788589990243 -0.02136556715885437 0.2356903967717276 0 -0.01202159257782899 -0.3085442741192482 0.2051641321061053 
-0.2963927276548549 -0.2350873587887791 0.3469131498178833 0.04016485248593022 -0.3220959461002541 0.006589212620707377 -0.05071170544359416 -0.1144544658530626 0.01307858162181895 0.1993251433371681 
-0.1105448522605335 -0.0995322827496114 -0.08330736787851593 -0.0931470937760747 -0.2840518061686501 0.3123210180281688 -0.3707943980909338 -0.06579337477355701 0.04318012863288954 0 
0.1024503556580457 -0.4671966081050762 0.1725758092361479 0.2226659417686158 -0.03104335557769686 0.2933047597231482 -0.2506657359546192 0.09757539058014485 -0.4011525082481078 0.2450738710016057 
0.04453647844072384 -0.5334415429477145 0.3545034075648341 -0.01215864854406258 -0.01675734362823996 0.3945777298124821 -0.2913684160381254 -0.3193148527558975 0.1448085091462755 0.009125817517732898 
-0.002749958464399412 -0.3266469789254406 0.2432588005046444 0.01887538831934366 -0.4449592461024133 -0.2499495532195683 -0.03283739218240304 0.02729983567383956 0 0.01955021191965569 
0.3128870769540048 0.01709644479145806 0.3599333721975415 -0.3272722261070823 -0.08579888320897819 -0.2408013148418627 -0.7286176699344517 0.3482232434580313 0.005687454163340556 -0.1924807113665589 
0.3453225132944552 0.2619274524244782 0.1824833282364488 0.2840611767649101 -0.4591026226083304 -0.4234082712500262 -0.2516793078905071 0.1147990443625474 0.2621292953704048 -0.4838854046644709 
0.2250036518107833 0.1724630982976427 0.2629023322647796 0.2259285804208445 -0.4319482176995645 -0.3474762163524656 -0.08674601177380775 -0.09805801541461376 -0.5312109761476593 -0.007600698611398875 
0.01084579221206031 0.1197245936780037 0.5808421278100304 -0.008049053704472045 -1.038496966902201 -0.3299622477027698 -0.06279173144167645 -0.2576420868483835 0.6524480009690697 0.04603982393757643 
-0.07161572675225931 0 0.1375127607689626 0.1602260028903172 -0.7073121613563792 -0.4028753705906404 0.01680124408818728 -0.1034656382941086 0.2613765705035687 -0.2862261558573874 
-0.3919003790306788 0.1670619579850783 0.3040472501842327 -0.1258680015526865 -0.969642895356011 -0.1065456479415553 -0.06642939731740795 -0.2516198169202937 0.1339386832206196 0.06469538509173707 
-0.6228762259355686 0.3463286492595418 0.01183457546759522 -0.1736731517574101 -0.1721783127039049 -0.01317958429405729 -0.03243853070109629 0.03049667971632262 0.01297164508943795 -0.007132569520422679 
0 0.5870053283037548 0.07275387252550836 -0.1860710330043211 -0.03513427043192384 0.3175088527922519 0 -0.2369057988484146 0.02585362099302948 0.227597319798472 
-0.2839031448321168 0.8148913462695554 0.0697585973992136 0 -0.6483945109693611 0.3873516708521871 0 -0.1966382438270014 0.04625418292816475 0.2356912729373964 
-0.6794292254375184 -0.3179998498417847 0 0.2942693132434381 0.2464772371102704 0.2422504318959003 0 -0.7488952830134775 0.2788674196053722 -0.01735978407131946 
-1.632342125395407 -4.055937898002595 -0.5430792660758383 -1.946244110834523 -0.8977759839705663 1.955743277544139 -1.151440785373088 -0.335633933333841 -0.5701497952701127 0.1548975909129275 
0 0 -0.8343347134427951 0 -2.288533374293324 0.3762306440093858 -1.053510441132327 -1.013801046050127 -2.572490788701493 -0.07966494945269714 
0 0 0 0 0 1.200743628190878 0 0 0 0 
0 0 0 0 0 0 0 0 0 0 
0 0 0 0 0 0 0 0 0 0 
0 0 0 0 0 0 0 0 0 0 
0 -1.091785495970938 0.2243371965928109 0 0 0 0 0 0 0 
0 0 0 0 -2.029410138621962 0 -1.146862651444299 0 0 -0.4025530454650369 
-0.133264292979072 0.4519813636875321 0.2940289864586055 -0.2347394774730494 0 0 0 -0.7967110985357407 0 0.06183681166024112 
-2.191095922631931 -0.1335612299705161 0.7911551932599098 -0.08679057454183442 0 -0.6771479090642982 -0.4253688113760834 -0.009926444425895454 0 -0.1876262272259905 
0 0.08529728542458559 0 0.4676310726843577 0.01236813673840295 0.133649553080223 -0.3592846410838272 0.05906883857445188 0 0.3415622141911003 
-0.9738765227313714 0.05290443020824691 0.06971482471006354 0.05853593188432352 0 0.2561189269303545 0 -0.05231366211042215 0.1620619403023284 0.1023752822566236 
0 -0.2601735423853092 -0.1330816785406972 0.01519791971040607 0.1931059559033064 -0.1187116506913363 0.01169904980215148 0.1051336602666269 0.0262665792673581 0.1518595168924356 
-0.2726857066697093 -0.2278681255907717 -0.04469714887806531 0.1566126511927205 -0.08700988450729627 0.3800092106446774 0.00715102178769636 -0.04082003655607446 -0.08240353597279372 0.07971097850886945 
-0.2067390803496572 -0.6930934689597449 0 0.1154969593415875 -0.132054089246198 0.2911498604161858 -0.0266547773548079 0.1211851130692706 -0.05955402426401946 0.4843297811650789 
0.1851967604176897 -0.7090384424318253 0.1300799414006586 0.004863346537492414 -0.2941299690701328 0.2920386703869232 -0.1033327953701696 0.03745835345551487 0.06496989673519958 0.1136870143546442 
-0.7377402790801091 -0.03836074479052679 0.02511523868048924 0.005710978100710909 -0.3196435254047512 0.4285446718739774 0.01142028181628321 -0.06472816740471919 -0.007269047364628058 0.2105245988753875 
0.9173929933382007 0.1481418486275236 0.455968246672096 -0.09627853263053103 0 0.323145369965562 -0.2629308732795181 -0.3704399571070153 -0.03392254582539053 -0.06223946472221558 
0.3102888511445765 0.2736274481629432 0.4480208388441576 0.05817723417891342 -0.3661262652839128 -0.006685651942274877 -0.699750424224395 0.06065706788691919 0.07204088856455622 -0.3357597065135265 
0.6903484176069024 0.1778283434542323 0.3794970837620935 -0.3618339064484073 -0.3752190829282145 -0.2378495477797694 -0.2914555476451332 -0.266668368660229 0.1026844296420941 -0.689588883587924 
0.293210059221667 0.3666551614571457 0.5109571932308179 -0.2115012044196332 -0.3962786954577011 -0.2189268114403043 -0.3046268800870778 -0.2075495433674591 0.3749716844312164 -0.3506549341425958 
0.01385439573387649 0.1604557356336485 0.2051568679904311 0.1600331176359054 -0.5081141157491347 -0.5495343465794579 0.01781926818832887 -0.1564724691405477 0.201264458603183 -0.09992825707140841 
-0.1256882459957965 0.1555250492529338 0.2420002169282523 0.1016075610131004 -0.3756466569619489 -0.2470065246818061 -0.100685352566985 -0.02086934100097904 0.2128575445958463 0.338556925338475 
-0.2274862564029042 0.09042821249924388 0.2004272891732227 0 -0.2317287995526561 -0.9514857761373006 -0.03058525998664578 0.05666436764598851 0.1430349421730444 0.3601438646766821 
-0.4318531193108365 0.08118108403840148 0.3076104743172414 -0.01483242008115758 -0.4257783416482199 -0.4177512343953042 0 -0.2888631949950002 0.2666246945340462 0.07885339689741154 
0 0.02794480267325254 0.004027559302152966 0.1787628772336651 -0.6869843176151019 -0.1834026817139071 0 -0.2611490036146383 0.223002186952611 0.4686626289554904 
-0.6857999283053906 0.4911866092639486 0.5918340833041974 -0.3004422294361067 -0.1067276362198836 0.1863572947077885 0 0.08668489008948072 0.3126108165420421 0 
-1.061580220022183 0 0 0 0.2698759939213368 0.8383947882504194 -0.06512666654075445 -0.03943754012067746 0.2451085848929309 0.8447601631170825 
-1.766121708961255 -2.235337513983708 -0.3428927743320839 -1.063949664948348 0.15016378282089 2.549909683912762 0 -1.359425337233785 -0.0822185211643041 -0.3672136146580057 
0 0 0 0 -1.859134683841407 2.263745028787717 0 0 -2.279720034325849 -1.026356942691988 
0 0 0 0 -0.1883244729092462 0 -1.4658305545356 -1.635571387174004 0 0 
0 0 0 0 0 0 0 0 0 0 
0 0 0 0 0 0 0 0 0 0 
0 0 0 0 0 0 0 0 0 0 
0 -0.6990017686429486 2.99595613144615 0 0 0 0 -0.7307757989849019 0 0 
0 1.005036355938372 0 -0.3959273343219188 0 -2.527036529466093 0 -1.086832141190285 0 -2.297737853603287 
-0.179043896419826 0.01837181521236219 0 0 0 -0.03766976292857984 -0.3973058456603884 0 -1.145101541369097 0 
-0.9023212496045966 -0.05454798125904398 0 0.7062923016342273 0 -0.2053072534329322 0 0.07864299567661498 0 0.005517804214675943 
0 -0.2089628516089252 -0.01104028835036214 0.230923591996254 -0.1747242628135883 0.4660098199685294 0 0.03102382330237595 0 0.3549229650955324 
-0.203269872060973 -0.4453782816290773 0.1342731505043794 -0.5138052317851326 -0.1679665334272806 0.1318939044990656 -0.005984482517060834 0.2483749748881979 -0.2133734136327702 0.4504439027995147 
-0.4197159484635329 -0.3634781661796889 -0.05529046928766691 -0.9462759832329785 -0.1869346938387427 0.3102138434240886 -0.0001749792054425939 0.4266894268323626 -0.05003974983787625 0.4209928541131876 
-0.3136139785778621 -0.8165846579542121 0.1449052830082616 -0.6298958126861136 -0.04208779384303633 0.1273162396944902 0.2202967989334795 0.04472509021199797 -0.02718764784328544 0.471425509684914 
-0.3098740163360464 -0.4013764180959521 0.0877323624681613 -1.229936903424851 -0.02077493289941839 0.2004216958176225 0.3132956610699702 0.2860834643719238 -0.1781748196546136 0.1653396928818942 
-0.1363905610543076 -0.03035468634083974 -0.04851429610017765 -0.414407994092262 0.01242762388294715 0.2349372725473077 0.126001800558324 0.2126023088785495 -0.1212612710894367 0.2840681380300791 
-0.02832783854668823 -0.3898560486940985 -0.04346537019591567 -1.126157057046227 0.08606749397009179 0.2496247714236543 0.2127324561168176 -0.00804339558145576 -0.2833489617943648 0.4687500978326098 
-0.08185624417465673 0.2663837558558685 0.2043607919774619 -0.8858785371488583 0.06729291157145206 0.192088816875895 -1.181570500930432 -0.1376577468585943 -0.01634267279435078 0.5157339593634379 
1.061197625954246 0.2176887383954094 0.1437135781425323 -0.6432919220521426 -0.1293252328248514 0.009858204137921687 -1.148359952128039 -0.5156930964869798 -0.8843551495182925 0.288142712054089 
0.5614714555927164 0.1856433428670859 0.3302264411967172 -0.4244428538188826 -0.3315519502728697 -0.1284867353869013 0.4345545312418337 0.0299102160798667 -0.5120755896612335 -0.02293068243332433 
0.2615097942572543 0.08088545537215076 0.4669028924162181 -0.05379167745774712 -0.07385684385388569 -0.2562889301014902 0.3568901757135275 0.005264874146176496 -0.1592617827416529 -0.2132001834347387 
-0.0483209307076088 0.2717524641140843 0.3483849223383162 -0.1630268392152843 -0.4216578090056857 -0.1237858263759986 0.0279122742319203 0.08152183323635941 0 -0.02179018460676357 
-0.008984870731165297 0.2082214464101333 0.4370759496418907 -0.0406018731199313 -0.3256021630316485 -0.5838909256642993 -0.1020793128467668 0.1304557989648383 0.01025480588078489 -0.4217889379285389 
-0.08258096979903913 0.2303227590182826 0.06190965519989905 0.01513512379999322 -0.206752844827532 -0.2121749413125368 0.07662487674875489 0.09342428397309477 0.04374832120225991 0.3221105980378891 
-0.1385227220106731 0.3376551468328299 0.4778061117109517 -0.01666266776675731 -0.1890429913179761 -1.521363365426414 -0.5604875325296547 0.7039467369269511 0.2412763851318883 -0.2265719284635052 
-0.07976066199282895 -0.2841233083338321 0.005041595313545164 -0.1098272128264869 0.6214987619041473 -1.363744025803709 -0.4544692517916724 0.3019571800158943 0.03369857333488938 0.003208444124484888 
-0.4724572961137635 0 0.1217196940770983 -0.02785780178129599 -0.6871043829925981 -1.357283677234585 0 0.3010933688805389 -0.1546598889993405 0.3986504629157573 
-0.09448269266473633 -0.09207759564903617 -0.01752185840041091 0 0.3381979561957763 -0.107358717152961 -0.8040812710851132 -0.4483486624915408 0.4347348255198164 0.3688225328450885 
-0.01605722248376293 -0.5966149674642397 -1.092603141005734 0 -0.02143862618751283 1.207299884776753 -2.16702215516713 0 0.22106749662992 0.665787041296239 
0 0 0 0 -0.8261106923902338 5.456556741469706 -0.02288719775488277 -1.308296331292885 -1.12876985495948 0 
0 0 0 0 -0.1752545956975207 0 0 0 0 0.1488431906139741 
0 0 0 0 0 0 0 0 0 0 
0 0 0 0 0 0 0 0 0 0 
0 0 0 0 0 0 0 0 0 0 
0 -0.1403493275467948 1.387535107350185 0 0 0 -0.7330139633922649 0 0 0 
0 0 1.705399163528901 -2.013777006979686 -1.080832757231551 0 -0.2906697322369954 -1.04884956447142 0 0 
-0.1990842014397489 0 0.4641918671546016 0 0 0 -1.51005413680208 0.2403824504427995 -1.577887882037022 -0.04550581224329083 
0 -0.4401306877645267 -0.03475250064795159 -0.5413167846177631 -0.5390572128375383 -0.0008562906109049612 0 0.4693344900302538 0.1058103437109702 0.7098302161869076 
0 -0.774321858859552 -0.1641735468453278 -1.882624012010819 0.60024949855923 0.6061261344617607 -0.07652175068364143 0.3357617043072851 0.09202616046604262 0.1142377338129796 
0 -0.7303755307476485 0.119501925742754 -1.356744266880228 0.06049034714443519 0.1299001855251946 0 0.1003191462398075 0.07292566311485527 0.1517538907891907 
-0.1612080950522862 -0.5181652774568704 0.004684650370764928 -0.4294009901470426 0.1381761150301815 -0.03374170248757369 0.5328620642306461 0.1776329467174877 0.1150768333711863 -0.1060418973593123 
0.3984395209237817 -0.04660330275364059 -0.3776841928906878 -0.6109785648734769 0.09043531378056539 0.03823268966779159 0.01917885666952056 0.2408373316664505 -0.0560686472448453 0.178058192618609 
-0.4438735466444805 0.02384136065913823 -0.3616400927880386 -0.6455044729806932 0.08980336801116778 0.2374560209577282 0.4041670263808427 0.1147159602046089 0.005367010405138897 -0.1873690269521355 
-0.214244176023149 -0.1978196724900957 -0.2055157573606451 -0.8653936645632936 -0.08526995441858451 0.2724386468526039 0.5316566974416428 0 0.1450357350532406 0.02080645866409182 
0.03336223410360496 0.3379626200559767 -0.3683310589612713 -0.5234805206376846 0.3564121443681968 0.2173782382531694 1.044239209361675 0.01770191609745179 0.2193817947031632 0.2897796624348425 
0.3162198084075065 0.1101528421314681 -0.7426751702624562 -0.4261358213796834 0.2119177773268516 0.3501867479804061 -0.01785787658370969 0.1705993428644683 -0.06748929583629776 0.2825219356761716 
0.8069339184849514 0.2729570216821994 -0.5121959805718594 -0.7864479597071318 -0.3851470168122157 -0.1277359380615645 -0.6457862056533188 0.1904091859412781 -0.5034533650293429 0.1049780912198631 
0.8302801838737468 0.3075494957917547 0.1981599702071505 -0.5857459300424731 -0.4289249733774893 -0.1175223109700421 0.2484807438184063 0.5068723886630638 -1.184864073159962 0.01564285363015865 
0.06957219097543602 0.3753067330682854 0.2789161986681757 -0.2194288199725501 -0.0198261445253901 -0.1739711963963543 0.1477605959720651 0.2370086957027769 -0.4318504699894619 0.09852627348735181 
0 0.03708444630582183 0.11540618212561 -0.3540589426292531 -0.001608971336006897 -0.6551969821492485 0.01172600791091332 0.3153552826071515 -0.008987358047492408 0.1456524038929737 
0.2586234220083841 0.01769557623420316 -0.009164303849273085 -0.04631718249043081 -0.03552267148664798 -0.06822582417080769 0.002756589507620037 0.1407696811018344 -0.1418719429191361 0.05482785694778045 
-0.779309451883698 0.03510005288421914 -0.1496366019425139 0 -0.2589909726840196 -0.6702516684663182 0.04322063955826035 0.4038689843375511 0.3274463961560624 0.2933539701242576 
-0.2982060491872079 0 -0.201055274760697 0.1789245228935081 -0.2160738803577064 -0.2708117467398714 -0.2164061494857141 0.2737164693182402 0.00588043019504896 0.1318555263895803 
0 -0.5777112515398559 0.05010204608612315 -0.003554039870112641 0.08123397356200508 -1.502816369999803 0.03123757772983361 0.1155489895089663 0.2009588554905167 0.5932560615285314 
0 -1.202190249750531 0 0.01224887668788576 0.3949314058016473 -2.715078602139452 0 0.5241505758634312 0.9357317098889539 0.06268282036992429 
0 -3.187042678088132 -1.363047921487281 -1.61657553439951 0.5063303252757432 -4.962634353511715 -0.3395648583820636 1.231402462796171 -0.1356640093737804 0.7813693966513205 
0 -0.1345541245380077 -0.3828551266801437 -0.1471038732542812 0.08874806775364721 -5.637331679404709 0 -1.846353049386296 0.2719309122616482 0.3661266612564392 
0 0 0 0.03880107660303048 0 0 -0.1955480094968094 -3.032953357969996 -0.3919144078720549 0 
0 0 0 1.033578143863484 -3.123892902646578 9.027409916020984 -0.5727511572613441 0 0 0 
0 0 0 0 0 0 0 0 0 0 
0 0 0 0 0 0 0 0 0 0 
0 0 0 0 0 0 0 0 0 0 
0 0 1.180767919387063 0 0 0 0 -1.495133758915402 0 0 
0 0 0 0 0 0 -0.05104146559897167 0 0 0 
0 -0.3059991007357281 0 -3.122273105350354 0 0.1963089465441224 0 0.2094640701567535 0.3466139687396792 -0.004289967888008767 
0 0 -0.005687465219797802 -1.885175932094022 0 0.06470151087606892 0 0.5348391730417449 0 0.1830563117563365 
0.6382755907197488 0.04114518911001418 -0.2906187742915959 -0.9923397076092393 0.470447002134447 0.09584387338330284 0 0.2119182652751936 0.2658862861423077 0 
0 0 0.03562237188652502 -0.7169034884952087 -0.00837615954822887 0.04913033882625631 0.05694753295957956 0.2891721419898522 0 0 
0.1243956130654271 -0.08485291443163888 -0.17598891521537 -0.8307615601899417 0.1280959825861314 0.1484471764306227 0.1483649381551372 0.1592467975307833 0.06985945469190027 0 
-0.5884193015445849 -0.1257919937087012 -0.3268827345112194 -0.2696649035344995 0.1449289420088445 0.02507772002901274 0.3779129648922643 0.2934334088437761 0.2216539027820179 0.06019229340138942 
-0.6483582037234205 -0.3314124566489546 0.01702671871214533 -0.1589362078218191 0.115568398488472 0.09819847301148468 0.3995704435266212 0.2481094556321637 0.06660219453991123 -0.3992204650609916 
-0.6290411692445859 -0.1182834293884131 -0.2690930666083458 -0.1686616850451346 0.1014452486619123 0.3567509351891767 0.7963869897443887 0.01265028804857915 -0.3110996195822628 0.1514440983033446 
-0.2414765594461747 0.3482076841754055 -0.4828873177585837 0.1317303824216928 0.3349832516520691 0.3120229179395219 0.471750546931519 0 0.006515447251399268 0.3565756470023891 
0.07280730907084138 0.1319164686330178 -1.38601811753548 -0.2906190213180083 -0.2003936228275685 0.1430569100500788 -0.4690842120696995 -0.07994516898001754 -0.7858050974828926 0.4101476530755676 
0.555705638993127 0.07832507707735717 -0.5664169460339462 -0.4332104216240867 -0.3500789876782197 -0.2679222610209921 -0.141576216282615 0.2662370754609673 -0.31643042395971 -0.2250001190276777 
0.6851430760662416 -0.1588557310981044 -0.2875519746204127 -0.1467154956612242 0.2950607971250696 -0.2148478352189662 0.1460185214632409 0.2898771001752378 -0.7808143678229286 0.5985356477175187 
0.06754827594422766 0.2022044595715003 0.01321174057367113 -0.2303201849249627 0.09083363496810856 -0.3818166733204269 0.2597390252075626 0.1861962100879178 -0.5116669495473524 0.1821092298603133 
0.03195249859263284 0.01404494215532414 -0.01769564894078821 -0.1357195092435839 -0.09377341668583239 -0.3679742740902546 0.1993466046681829 0.2478041755191262 0 -0.111840079589016 
-0.0692578754181943 0.0415159066140547 -0.1603161649475296 -0.315296092844216 -0.05521208628658511 -0.1570089184849957 -0.01958132415488821 0.4360527642017206 0.01409524220157671 -0.03828768344495977 
-0.2962283424368831 -0.2448059893034366 -0.2909938748037716 -0.04833629978199729 0.03201258867909181 0.05207138638854296 -0.1649344857136648 0.1770861509770515 -0.158368968723398 0 
-1.510026797714554 -0.8489615353771022 0.04726841198484713 -0.3744723025880952 -0.0436344886660401 0.2284222430546715 0.6637527595068682 0.3492171443777985 -0.1727916075310502 0.2313810129623819 
0.3568808848163477 -0.7300048691429427 0.09674006759117093 0 0.492460256708902 -0.4005613972269696 0.4408267139430069 0.3247203237054882 -0.06254426787563477 0 
0 -1.682996590122104 0.3153358204285576 -0.7313052453214961 0.002975416605571395 0 -0.1843936511327948 0 0.1323523097652304 0.2206391295941784 
-0.8293225475934534 0 -0.4357313215175197 -0.07854876877409231 0.8770990114742508 -2.037224404145242 0 -0.2871680023001935 0.3784200413044822 0 
-1.046259895467479 -5.721264994165698e-06 0.08529612797808406 0 0 -4.074781660844842 -1.875268229828351 -0.04831575062390171 0 0 
0 0 0 1.981995839952868 -0.1781883502446557 -5.447292399919011 0 -1.361152408678868 0 0 
0 0 0 1.869178276371087 -2.958426514992004 0 0 0 0 0 
0 0 0 0.5387168843986962 0 0 0 0 0 0 
0 0 0 0 0 0 0 0 0 0 
0 0 0 0 0 0 0 0 0 0 
0 0 0 0 0 0 0 0 0 0 
0 0 0 0 0 0 0 0 0 0 
0 -0.4012279646384841 0 0.04769489016134851 -1.251756767738285 0 0 -0.09202331306017834 -0.459778701931709 -2.17133923928569 
0 -0.6140882510999591 0.3305181961674343 -0.6858134446640148 0 -0.180386230834554 0.4228337784934129 -0.2657475897933361 0.437332366857876 0 
0 -0.6903280580634915 -0.05093825777087164 -0.791932234978825 0.3044121323839081 -0.08852004850100235 0.5019980633326966 0.3375579581661378 0 -0.5082920066664506 
-0.1186701617009026 -0.3398610347259708 -0.5123095194708932 0 0.1510123807961905 -0.1040567986804567 0.4888602910464022 0.09420352356007594 0.6520883969642445 -0.639980511979378 
0.05674533863759751 -0.01680301155118948 -0.02431642389366305 0.1348024662828392 0.216742954925346 -0.07514151627385007 0.2225591149759267 0.05527074829817352 0.1220059129564281 -0.6740824510386326 
0.0975550901318883 0.04436588179057401 0.07284257798110212 -0.217458759810127 0.2250633074657502 0.2186917769458711 0.3040887399672744 0.06938715423484126 0.1409999192877754 -0.4178629199488376 
-1.12722727050541 -0.5111977939309538 -0.2543707307341587 -0.05833204500488282 0.2450302118496937 0.2475798082127906 0.471800571888818 0.1333433925080424 0.08873050987508269 -0.2873594065345131 
-0.424622257543236 0.124313770308597 -0.8210143304959666 -0.09820669911897768 0.3679513409188608 -0.009957900759195362 0.2125532431671654 0.04966923688402031 0.1836485650778686 0.6356996359646254 
-0.008622602008854768 0.4928087385133056 -0.4124013306715212 0.3094224354557021 0.3176659429754773 0.2159801520010268 0.709925787604445 0.2716269386309565 0.03154284493213655 0.2698924071668537 
0.1860001805555521 -0.1945563074493265 -0.9108092337518127 0.006599529904458716 -0.139106396313013 -0.06257603508425082 -0.6713947417366058 0.05297350559484879 -0.006648453498890287 0.2565142132189542 
0.6031933231122064 -0.0303016931161089 -0.193310662752683 -0.1074087903171521 0.009060065420413575 -0.3692435397141123 0 -0.2830658640665307 -1.31595374424495 0.1629853714525551 
0.1761699401996657 0.03270561107347877 -0.07016781588934499 -0.1902874022982426 -0.05414750685898422 -0.2183362504433718 0.1332201755287348 0.3257276252402087 -1.203620397610062 -0.054789841058833 
0.1158249878182283 0.1190628700906384 -0.03776820581012227 0.03962944019407242 0.1392178817345011 -0.06890882501021865 0.3596912449620302 0.1923506741257108 -0.7242510558764105 0.1598525061021247 
-0.1203992878735766 0.1901287021882271 -0.03666687122262642 -0.1597508527593856 -0.2420044145130044 -0.4393314610757051 0.4994023321593464 0.04753552302428837 0 0.002005233255574891 
-0.2221881999801999 -0.2481064075026808 0.2794120794257419 -0.002225815618643068 -0.124437224347896 -0.1182576159378086 0.1531262123526674 -0.180789165454024 -0.4573409462320553 -0.23751865996873 
-0.4906225144733085 -0.2888133978251552 0.5384049413429313 -0.05351720366901276 0 -0.145829031117202 0.3716353326193068 -0.1063100965590237 -0.02415200084373872 -0.399801507933936 
0 -0.294821997997756 0.1205703281596889 -0.1020910677325335 0.05599019882311588 -0.0366176999418869 0.01804779542564117 0.0140370656090703 0.398086807688453 -0.3365861353655289 
0 0.1981864163456739 0.02578022268367114 -0.4262089162663971 0.108889700392423 -0.05574559780746167 -0.0003137895750027712 0.09614916396601021 0.02216596979183204 0.1756471467016012 
0 0.2630258866611723 0.2858788175436438 -0.001689102050250613 0.201177939601949 0.05336655991438081 -0.1804782652209241 0 0.3915071589446554 -1.107826672505379 
0 0 0.17238890987391 -0.341949150256547 0.1300724619830844 0.02871063939812833 0 -0.9738037786625728 0.2700776343548978 -0.7323182448753398 
0 -0.4591559258279162 -1.107255259829661 0.002556363559422845 -0.1134745431607579 1.206682969079471 0 -1.711423169900611 0 -1.097283493219219 
0 0 0 0.2921223356671288 0 -6.820134538722076 0 0 0 0 
0 0 0 3.075705510223822 -1.770178890780336 0 -3.975651207590746 0 0 0 
0 0 0 0 0 0 0 0 0 0 
0 0 0 0 0 0 0 0 0 0 
0 0 0 0 0 0 0 0 0 0 
0 0 0 0 0 0 0 0 0 0 
0 0 0 0 0 0 0 0 -1.991577156643852 0 
0 -0.2132487632033995 -0.3178132114337545 0.5449528414234951 -0.676888911357997 0 1.090646999635698 0.3356189966801957 0 0 
0 0 -0.5279842897747864 1.150840838080631 -0.5232451486139285 -0.4405377246151745 0.02500621004795841 -0.1085302119344294 0.3978823049503971 -1.276084909729697 
-0.3669346287538 0.1293217150869962 -0.09801758112101946 0.4029931413908251 0.08404055430205176 -0.9041737939765855 0.2344817932170803 -0.4187891013647517 -0.05575062314693933 -0.9528033167680775 
-0.02196657886699769 -0.6320284834136195 -0.256820126614234 -0.158665211812457 0.343816772502481 -0.27106170932942 0.2983243483662359 0 0.4317115819792989 -0.1302989578150081 
0.09582837819557477 -0.39014939822662 0.05136974045314247 -0.42284167763284 0.001018876623848059 0.06945639491748679 0.4398455726740755 -0.04540161036985533 0.5683105691027828 -0.4159895267378865 
-0.3108227533968823 -0.2593816515478454 -1.256221835653868 -0.03581736635842063 0.01671191395252985 0.1116597983356243 0.3556288919770795 -0.02237717172187926 0.4238806134491476 -0.05852543171528597 
-1.028049963528078 -0.2879375554450086 -0.02852228227541893 0 0.2956761970932216 0.08130190491092762 0.2661083123148484 0.03986704518297751 0.3094914657035746 -0.04711932616098537 
-0.09010323742715631 0 -0.2342738815119155 0.1989205819937131 0.3282235836837093 0.1487284837280671 0.3045010124894687 0.2895601838516669 0.2208492917848647 0.1890979778866237 
-0.09252744027539726 0.1195529678937145 -0.4998520255047266 -0.3584533698292739 0.04608212042995236 0.3349268565343619 0.1742096560758903 0.07284960353310831 0.1455097446812249 0.06787271285814099 
0.5608166943782982 -0.04358169143734887 -0.6897843704423815 0.2115673088430541 -0.0006075867184744625 -0.1655192097414449 -0.1197255508299597 -0.04073515453370447 -0.7493327360741713 0.4320993937439451 
0.2069073082880243 0.1419083909595816 -0.231995272650771 -0.2867425251221707 0.1623758833811368 -0.3717836195182432 0 -0.2149692526097939 -1.530661907277468 0.1943638655294352 
0.2025213528952563 0.02598904411603014 -0.1141990039324582 0 0.001041278290862679 -0.1736517342592393 0.3075665753530032 -0.03366759242741103 -0.06354422549602073 -0.001755899404352878 
0.3414649573091001 0.01582222654380673 0.07555216121225564 0.2873052080139269 -0.119849585201446 -0.2946210622860833 0.3358100057426326 0.2475028102090305 -0.3568295559044901 0.1327998136057043 
-0.3875943778257201 -0.3777816001788357 0.261141977898743 -0.3424025780050857 -0.1311754407822363 -0.1757401931150838 0.3857534090959931 0.4275792621594974 -0.1449452756213397 -0.1363602535376651 
-0.7843393191195621 -0.07622213847572777 0.4206786397260065 -0.3028226009715443 -0.07322873070908435 -0.02226501581823983 -0.09241177193590654 -0.1165895652102165 0.01547292586149075 -0.3528690789202077 
-0.8878293384562332 -0.01538720857900392 0.2527505638581644 0.005295202297891313 -0.06655322435819062 -0.1338411493405677 0.4189247915895383 -0.004976701388286304 -0.2214359965629607 0.07423479492288107 
-0.0881121852775676 0.3176578680196502 0.4750725409802166 -0.3857758877140491 0.4116386300916904 -0.2837125744510585 0 -0.04971848700189825 0 -0.307466834718909 
-0.1869505094856667 0.1061266027435771 0.266224427537248 -0.1160639858841862 0.0349700726096943 -0.1957314380377612 -0.0688901780014069 -0.2481815260562442 0.1713964326789189 -0.6991194845269106 
-0.3004168943558547 0.5740603211041388 0.6946604226664014 -0.3509944051157627 0.406589997327622 -0.00740657796606442 0.5244432475978372 0 -0.02490109381777491 0.4706993145399065 
-0.6314653498885843 0.7635745790413271 0.01952610827444042 -0.5856499948087021 0.0254543836177638 0.1657794242129421 0.1382792348514158 -0.792284523505333 0.229028850582537 -1.00044396634818 
0 0 -0.004570751356454593 0.005336271945034336 -0.3703959893017963 1.359860604877092 -1.856126463219941 -0.8705669357724043 0.01214513393586608 -0.4149067122246413 
0 -1.056207485794304 -0.4674491736246799 0 0.3716818537982768 -0.3984159527216224 0 0 0 0 
0 0 0 1.794570701413666 -2.403910207870708 0 0 0 0 0 
0 0 0 0 0 0 0 0 0 0 
0 0 0 0 0 0 0 0 0 0 
0 0 0 0 0 0 0 0 0 0 
0 1.352070880769502 0 -1.204656220253156 0 0 0 0 0 0 
0 0 0 0 0 0 -0.1647961687204121 0 0 0 
0 0.7574197015072608 -0.01349511428959698 0.002056094693975878 -0.1770101871704419 0.1983276975084853 -1.122255364592012 0 0 0 
0 0 -0.1440740544309487 0 -0.2536325022212408 0.02968116980413319 -0.04579613871201684 0.2169120724091866 0.4178504063774979 -0.2979456946672555 
0 -0.1875348061972923 0.1196493136454604 0.5962030507528878 0.122834044100377 -0.1403589038810548 -0.00882176885963502 -0.1449015309998818 0.007497251572127052 0 
-0.1951639425627321 -0.11215660639849 0.02892150358751653 0.02598891493095585 0.1006881463186761 -0.5313909172274968 0.2168836139698218 -0.03153161388502978 0.3275326362504039 -0.03942231419271944 
-0.3357186439980819 -0.6082294630954347 -0.03552121388766807 0.3069009923811583 -0.09350860297081312 -0.4303875894664511 0.5056785018778409 0.006896772757889036 0.1648348291218151 -0.2923003776459283 
0 0.1177311145764792 0.1485439707475005 0.08564041981563925 0.5209373569636983 -0.18962441119034 0.07236280363064825 0.06254278763764042 0.2810028359764268 0.03563986251415877 
-0.1500177337997692 -0.08856837886457605 -0.2500264227666031 0.1400221926133433 0.008882314504388629 -0.04640332137654 0.01736487408771792 0.2586103746927183 0.3512920970307046 0.09496254472794088 
-0.1871450617222317 -0.04779770824592815 -0.8965619577139675 0.1357815384705607 0.4025172081099489 0.1173162758034968 -0.1535721561331349 0.3351284367237318 -0.1400116674906977 0.1622624129782873 
-0.03211693235361567 0.1333858385929211 -0.1311942369604575 0.516806973249832 -0.07264646092085672 -0.7758734221302336 0.3386557022827779 0.1297548252542013 -0.156779563183763 0.1943019983466288 
0.1056817067813372 0.5487566498858717 -0.1445259071932423 0.13507102938885 -0.2523895489465234 0.08668542621171954 -0.02717707556421102 -0.2466239503716333 -1.540673088202577 0.23851390227179 
0.4765305064459212 -1.213891997068916 -0.5294636965133097 -0.08661444527430069 0.1643903800098851 -0.422167446687333 0.1111194771905827 -0.216312555689609 -1.04834132281319 -0.151863227630851 
-0.09735262346415163 0.06781783122815145 0.05180783717450704 0.003937049261156665 0.08509113324993982 -0.3836026061939722 0.6139226454948516 -0.2204002337558201 -0.3993907212335456 0.1185496436875004 
-0.04297743328574923 -0.3407584485332251 0 0.1874379344443166 0.1030280466219965 -0.2354553111843087 0.2597401403389833 0.254016175351284 -0.3237923190074271 0.1848463722336126 
-0.4798417321628798 -0.15886598406314 0.1774427890901963 0.1789511312130763 -0.351518954428486 -0.06378991051532229 0.1973547771314456 -0.6894798466593623 -0.01218052453334842 -0.3201888984528551 
-0.9828850817797586 0.2206218465983509 0.3171724408247548 -0.1035358705142059 -0.07627059337519777 0.01341816406019705 0.2354564458140294 0.1300827155325334 -0.02213247332963002 -0.3410010184423997 
-0.9679590918177946 0.3522203283437526 0.152349576236964 0 0.03763556422597862 -0.09879919738676851 0.01910160722087572 -0.3509249332045858 0.1222544606064792 -0.479313368632562 
0 0.3099381393421008 0.2788574488103336 -0.04386098598472717 -0.06572047610519635 0.2709931184929639 0.4005579218650114 -0.1674934881349463 0.145394918368768 -0.2273573880272922 
-0.03251951203315167 0.4580954341387291 0.2780272367374811 0.2994678147188279 0.219333530686274 -0.03748497684475538 0 -0.366693132273189 0.06661042752661259 -0.1837424263727586 
-0.01314446261100439 -0.02454723853936194 -0.1377254037110415 0.04927925766376187 -0.04114018556454357 0 -0.2088561174607559 0 -0.01068612610142462 -1.219996860743899 
-0.8588440803596143 0 0 0.6218943680145266 -0.2703607562483717 0.2400654722628089 -0.0754862224340105 -0.4157204002649536 -0.0509746967446108 1.136737013521105 
0 0.8605642954223452 -0.322878407816956 0.2587943313623814 0 -0.2023797670280087 0 -1.63027619896495 0 -1.295820840920305 
-0.1732075453121895 -2.29933381769132 -2.24777248308668 0.75783563365267 -0.1202867062017758 -2.294514908630836 -1.881711535675506 -0.4602373813741026 -0.4765217827216774 -0.4104235935670193 
0 0 0 3.888571593909418 -2.128239482828617 -0.1560617117271647 0 0 -0.1366731234660504 0 
0 0 0 0 0 0 0 0 0 0 
0 0 0 0 0 0 0 0 0 0 
0 0 0 0 0 0 0 0 0 0 
0 0.02661083613976253 0 0 0 0 0 0 0 0 
0 0.4466076810946349 0 0.3546501206590589 0 -0.09747155548887271 -2.652759747969053 0 0 0 
0 0 0.3153091711550368 0.03139430930039874 -1.309879418557432 0 -0.5581654558318278 -0.1730145255956259 0 0 
-0.2754258279194741 0 0 0.6166152515871665 0 0.1108047113924907 0 -0.2215979602747393 0 -0.0001661882014343595 
0 -0.1951040068094038 0 0.2392949750283143 -0.4301023587403533 0.6473185032927576 -0.07628951609274942 -0.19871644690719 0.3568678914609803 -0.1549662014012655 
0 0.1115132310612345 -0.4999782511386368 0.1768585399653874 0.2690854798630952 -0.361006394828327 0.2473663949527885 0.1831409374817026 -0.02504860634528212 0.2832677312117952 
0 -0.1522564304957894 -0.09288562969369844 0 0.1660417111975502 -0.7409235705515457 0.3024322063944738 0.03386298299509859 0.06871322074609729 0.2724471250394803 
-0.6856618662852467 -0.8398504174590274 -0.4725653128506063 0.315072948964149 0.07954184796373369 -0.3723212533722691 0.2729112419181206 0.07099255825595135 0 0.5601392417624567 
-0.06417243104142534 -1.075655481193024 -0.5662388517999243 -0.04730559234650153 0.6493651845179161 -0.7935463162070353 -0.004947509124078941 0.1082718111958362 0.4021099015860624 -0.1315796922947345 
-0.6864012100415633 -0.7045790354272965 -0.2120370227315875 0.08871213057178898 0.3743845335534073 -0.1956567924795226 -0.1566885546073108 0.05556879152342216 0.1577990904273073 0.2291893615720842 
0.02294895727047656 -0.321918638258329 -0.008457812122246236 0.2198216867850586 0.1534062241768641 -0.4055899058393433 -0.1533640527858452 0.2297767422892489 0.01316520451769211 0.6891986470141753 
0.3257841973530961 -0.36638293466789 -0.1444268336098213 0.1643428269946834 0.2190626336238586 -0.4380478294487019 0.2823031302482291 -0.1897187340162733 -0.964542570130228 0.04716518126786779 
0.5765161218142875 -0.4361066656452566 0.004757146773807397 0.0990668188027124 -0.3146430418344127 -0.3097037731874994 0.4888409307871168 -0.1932468307415853 -0.5525679912800684 0.1187991915917138 
0.06745562351807385 -0.2186647865660991 0.03506109261398456 0.3183122498137547 -0.2368972915490009 -0.08703550300700411 0.3138886182757524 0.01210373544942583 -0.2678863464027261 -0.2847078797381623 
-0.4372519539268371 -0.1360643680399362 -0.217955657007436 0.001763294223676668 -0.2434886927243943 -0.02890628472935602 0.4015817798699244 -0.02750518110258313 -0.8035590848725775 0.0561427443819803 
-0.7906567277881869 0.1974857659076269 0.01563904567630543 -0.0602991763124034 -0.005133385161302228 -0.09182986088234421 0.317681167275443 0.2727974211444719 0.08777549274927444 -0.1861171855484481 
-0.009758633463369623 0.04530670875286378 0.006576145357061716 0.08505747962122276 0.2251392852387923 0.04793236234256601 0.307915178664166 0.009631411148359827 -0.06344399572006934 -0.2400270217067028 
0 0.2903287185379926 -0.03181117592827751 -0.1186295119090713 0.1639577849461634 -0.002600943688948363 -0.009833941390534352 -0.04582870901063168 -0.2402468193496989 0.007663635644315082 
-0.01624192466131308 0.05958317141925586 0.1204802270451678 -0.145202036320414 -0.0003530020292244234 -0.08395005211704806 -0.4534912855815167 0 0.06968170088897396 -0.01513996404757788 
0 -0.1385843159245478 0 -0.09494782478468849 -0.08791222220558909 0.177305800445849 0 0 -0.2431485380045907 -0.1972680831358336 
0 0.6052646961720048 -0.01074406365688781 -0.06857805061331192 0.1609443136355279 -0.04362839488129169 -0.02346867816632867 0 0.2487058452006064 0.006886921072342813 
0 0.2911840196186288 0 0.01089634080510388 0.1720152219768784 0.1877886459847375 0 -0.8827116161803003 0.0577550113361908 0 
0 -0.003815947616458069 0 0.1829854779431882 -0.02743250005298759 0.1566335861008036 -0.8702178117118182 -1.129594064243604 -0.3934482029025408 1.78799762633346 
-2.929674049833183 -2.803351695613902 0 1.881265007937817 -1.314927959554836 -0.6609883150995239 -1.990103079459701 0 0 -5.041425822852017 
0 0 0 0 -0.5425010809010338 0 0 0 0 0 
0 0 0 0 0 0 0 0 0 0 
0 0 0 0 0 0 0 0 0 0 
0 0 0 0 0 0 0 0 0 0 
0 0 0 0 0 0 0 0 0 0 
0 1.607899767137098 0 0 0 -0.3052064499061331 0 -1.098056774901211 -1.810389106942838 0 
0 -0.232420886731766 0 0.2567725991751248 -0.6015001484151673 0.4127939450480032 -0.1221196773466555 0 -0.1356419600883091 -0.7698505964166986 
-0.0624066501223247 0 0 0.3586315645693136 -0.1725391738977878 0 -0.169699378935218 -1.409467356624005 0.107652426113331 -0.04397807338618182 
-2.081900708292622 0.04747044768054354 -0.7476723934260322 0.3721065793531693 -0.1655535638499095 0.3511608552899544 0 0.3484093034337538 0.1740229301983094 -0.1756172009166574 
-0.5527518706574195 -0.4415604242803292 -0.0260132248764068 0.2523572348060063 0.01273903801244754 0.3536049508558231 0.3434270469585217 0 0.1485547865788586 0.03724056693142101 
0 -0.008905846305897072 -0.1811649139795975 0.1104773692354101 0.3181867726450418 0.165394700628547 0.1088634104456067 -0.21816782531747 0.7486679443625606 0.1126917872919834 
0.08126424698117334 -0.4151353635245759 -0.237378024507187 0.05085748596715516 0.2858185287257012 -0.4781185723652148 0.001557001561675576 -0.1568806826343211 0.05650868475628811 0.2885268724936402 
-0.3762699052344486 -0.5423757208614796 -0.7579474720465058 0.3644736301818674 0.2143166190611651 -0.7241250873156257 -0.3381436454807978 0.3965376361896636 0.2468975346047553 0.349376693000777 
-0.1611639440818687 -1.068235912824842 0.08236224381068688 0.09471985818997232 0.4211402992891352 -0.5476183581699606 -0.5250006680463928 0.08303589695981856 0.1167141479330861 0.3291241738375619 
-0.03239421365437785 -0.851942404147418 0.1700222886815489 0.2512273200792612 0.3491646997331687 -0.03090654407053954 0.4101581918714568 -0.1839053085021042 -0.1786474293291996 0.2922013792670852 
-0.04478113528737745 -1.010981272609508 0.08120508160740397 0.1054216144863797 0.2239665597366797 -0.2921249636123984 0.5424110770939637 -0.054750514904388 -0.9694175232049502 0.06981117436959156 
0.05198927717556246 -0.4087933004164644 0.01942732124962199 0.3027592786812228 0.2557949919356724 -0.130969896734895 0.438516550173489 0.02493860514425734 -0.5254284864405224 -0.1131356536215062 
-0.08391391613420696 -0.1493066259426356 -0.1939884089952507 0.1297809324349899 0.05539490894833703 -0.001658330311058835 0.1563482964708527 -0.03696482937824231 -0.1774056077088888 -0.003446580727513573 
-0.6876629146149141 0.4471637923716408 -0.3274551119609989 0.1280894566056151 0.2145001048691081 0.02524248938877461 0.00723866401278579 -0.02358030926991101 -0.1150880529463583 -0.2302894948977846 
-0.4290700670059772 0.3234433785119256 0.002941191846709107 0.2460577200256412 0.08335157838115359 0.1521495005955899 -0.2476978038509309 -0.03852962160925283 -0.09526885283295097 -0.03905961425795743 
0 0.1936291445230889 0.07305629055734589 -0.01145505723439866 0.3379073087690816 -0.06069702599333474 -0.2076607984755097 -0.322614880921257 -0.2705208509140438 -0.1284303996325228 
0.04434414755755482 0.3414904303546543 -0.2620087140990672 -0.008328223729636937 -0.07147248579211612 0.0141339754222851 0.08332333579218781 -0.2504378970792364 -0.06571278040805731 -0.1697065006264084 
0 0.0800386699234707 -0.01120262590963583 0 -0.04388426827647207 0.2397159620050735 0.2282881904939702 0.132441804782504 -0.1935605392597367 0.07748587058941481 
0 0.4641285587366916 0 0.1652408846469735 0.03295846971261893 -0.001215550019446624 0.8749827914902649 0 -0.06315941737165219 -0.2915520673655426 
-0.5666145464750069 0.6308030209180226 -0.490630783459907 0.3526293535517391 -0.06977033876550513 0.01283518787807768 -0.2580031955387454 0 0 0.3978493855523036 
-0.03907498972477959 0 -1.485601160638942 0.2534189577286678 0.2494702493333412 0.06026947672439351 0 -1.105841801589464 -0.09423357460213877 -0.6389092846241717 
0 -1.068080754911486 -0.3103440817984389 0.9710824674237766 -1.024613208268452 0.4902913680885588 -1.23875688454777 -1.225245565233203 0 -0.4114008104461623 
0 -0.8806862034683831 0 0.4766695773025819 0 -1.385112987179183 -1.025106130486817 -0.02112923760063212 0 -0.377676620042725 
0 0 0 0 0 0 0 0 0 0 
0 0 0 0 0 0 0 0 0 0 
0 0 0 0 0 0 0 0 0 0 
0 0 0 0 0 0 0 0 0 0 
0 -0.4043410466551287 0 0 0 0 0 0 0 0 
0 0.4175721057413804 0 -1.135050819706555 0 -0.198882650476549 0.8792425242999211 -0.05558125620816695 -1.31693188421207 -0.3973060722492757 
0 0 0.4947964120608296 0.1879519222391147 0 0.3048008024701533 0 -1.35671881943565 -0.1983437070854703 -0.2565194565905488 
-2.034129767166783 0.5257147692634638 -0.06717344973729886 -0.0915505365730175 -0.4522370985273433 -0.08211991951563399 0 -0.09108563019190488 -0.3485908361185495 -0.02636456229493563 
-0.1132611822242955 0.2017650998942055 -0.1530055745439536 -0.04798287336486413 0 0.2350882027292517 0 0 0 -0.2309600238788228 
0 -0.03425327009524196 -1.437955700673821 0.4634760228823839 0 0.03202994416531451 -0.4063163263726473 0.02374225783838202 0 -0.3396687420768955 
-0.3045677403337873 0 0 0.183827467978482 0.04076628080795406 -0.01356502062108007 -0.1996804087266616 -0.09324816552094232 0.03296480968236296 0.2061015501744378 
-0.001025718116607087 -0.1382175065270269 -0.09855709426792325 0.4336715470143035 0.01571047645048288 0.1996236656510857 -0.687445639734831 -0.4125688446904098 0.08107210020883995 0.2742712571597747 
-0.4777560282545877 -0.07234044094556694 -0.6026768748946736 0.03856781178455757 0.5408279302212946 0.07752710767041267 -0.5320557915223515 0.2451817272476852 0.461838785890362 0.2566818931697568 
-0.08960735039209096 -0.08850233321548411 -0.2247705862038495 0.2061774388430489 0.4401615349989397 -0.04352986644670435 0.02312422664842644 0.005596490933976559 0.0126752380187575 0.2196307350867596 
-0.06264249509379829 -0.2286378697759713 0.2988595512312019 0.1253908724403133 0.465069913692863 0.1677862006542077 -0.3792389843558945 -0.1353666431138174 0.2437679364097211 0.06031746823933502 
0.1198298007203052 -0.3139038095023369 0.04549756396295119 0.3723501191471976 0.04883677610777904 0.03956132936254682 -0.09978887158944709 0.003692907124985502 -0.2342361823018145 -0.4903240911737135 
-0.076375418646784 -0.4027975426078731 -0.04827138125335217 0.0894555953478246 0.01901531197138541 -0.02840794221054774 0.1412793974900431 -0.2150773969711648 -0.4098209533482324 -0.3439515753776789 
-0.0995724379950316 -0.02441327792338464 -0.1121249503566174 0.2398259073141812 0.1586417188363694 -0.02251394149239015 -0.1618224775564815 -0.2394182585530001 -0.1562169467696594 0.04728816167926767 
0.06537335397769321 0.0952943345686557 -0.3751073673587172 0.2124467832979935 0.3606043171759339 -0.02194372168820333 -0.004889404220080731 -0.07240829305797744 -0.1658142562187447 0 
-0.1493759934055808 0.1795142697352763 -0.7565641479715572 -0.3218960263400482 0.1441924257494851 -0.1077440825845402 -0.2248807244676537 -0.2092671433486447 -0.03023501160929307 0.05143256883849402 
0.0221597823425438 0.1048969541726908 -0.2121430056364139 0.2515107669319678 0.2375278374543581 0.1038616347216821 -0.1975479749512789 0.03253133457978512 -0.0940230924291857 0.02237752998380287 
0.1276845668361924 0.09545350085697581 -0.05575451056227533 0.05416161227246842 0.2762629980573065 -0.001812284678896499 -0.2259887882268763 0 -0.2942946389237564 -0.2094259315753765 
0.3129653478086679 -0.1981277692997442 -0.5605612729766029 -0.01568458886743741 0.284821383196377 0.01700009241707347 -0.281780597224904 -0.04237540855907515 -0.06087057689590161 -0.03956370173691584 
0 0.04012786375611248 -0.1314187907242851 0.2561579246960486 0.01383700016636924 0.0497497638004549 0.09299140662591224 -0.4515284341511405 0 -0.2492382400510743 
-0.2159040849220315 -0.1842808588188768 -0.4126912113252419 0 0 0.03407596684491121 -1.960432706983815 -0.1615149197081441 0.07180862262786233 0.4594530235477234 
-0.06761767364014683 -0.3084880954627683 -1.969790237163938 0.4035197121701902 -0.1310047130433483 0.4809253086886021 0 -0.5025164889294084 -0.05815280318214443 0.02254368815486278 
-0.08227544903209884 -0.4654765117530855 0 0 -0.1429846417807544 0 -0.0151477576047274 -0.9452496178164462 -0.7964259138577143 -0.1739301812765376 
0 -1.308747981785519 0 1.709834569158477 -1.596863842463471 -0.6861048622330418 -0.6578588888577049 -0.1043940606736833 0 -3.210154829020301 
0 0 0 0 -0.1298778437393255 -0.1129817828126967 0 0 0 0 
0 0 0 0 0 0 0 0 0 0 
0 0 0 0 0 0 0 0 0 0 
0 0 0 0 0 0 0 0 0 0 
0 0 0 0 0 0 0 0 0 0 
0 1.099831119466677 -0.1098529177254236 0 0 0 0 0 0 -1.375471158248345 
-0.2771208908625372 0.3128487718152744 -1.750424086946993 0.1446735039336256 0 0.01257857294951017 0 0 0 -0.4309812026094077 
-1.693017496690245 0.4327891326655658 -1.078958361158947 0.3173448032819827 -0.0707773760340149 0.2562705152826331 -0.09152242102671995 0.08659240399826998 0.0572430070047456 -0.3404080180871965 
0 0.06660003945042861 -1.181194226780723 0.3985501794487454 -0.3903294992122919 0 -0.4583052343687005 0 0.07281575931775663 0.0009918535279000557 
-0.2985941603256694 0.02179648339398973 -0.9491356569637976 0.4859615683466631 0.02134125309065862 0 -0.2190441100136927 -0.6058535570739501 -0.01082358106497208 0.2987305460719082 
0.1139927545288988 0.07876162405656163 -0.1548407522132574 0.2040532015808642 -0.04448239677107903 0.3023000175290552 -1.299254113969741 -0.1441824267542678 0.1481439391411937 -0.03341779070566906 
0.0211043820650234 0.08495458694998913 -0.2733544081651043 0.2832140928123038 0.2249531834123401 0.146672165151604 -0.09562874023420552 -0.6783669301205206 0.005401353949878031 -0.2472188472991389 
0.4829757444677996 -0.07400694897319109 -0.3061835537844254 0.1841467100985796 0.5060565690183152 0.2256440720009324 -0.5785850374790358 -1.1819128501499 0.3787070167532537 0.04102241183955614 
-0.3002986611517605 -0.04877637195026659 -0.08644895713285843 0.2964328959302837 0.2544519035347891 0.1528772377844222 -0.21026073238294 -0.4195633545929038 0.4794069633073135 -0.4452130357560943 
0.2407401622469528 -0.1162864672921355 0.04823808860762885 -0.08860033870259135 0.4711109819541047 -0.0001911731583279845 -0.3001980467685018 -0.4452022365094689 0.1000010360563089 0.1501449644324051 
-0.03187082835513702 -0.2711652074396322 0.009466876796906646 -0.1361468498545816 0.2574426103050873 0.08634990711241407 -0.3290624257966736 -0.4072237183291823 -0.04691953489786903 0.02047447561317434 
-0.09842534946663409 -0.0002160112391750776 0.003362792258253012 -0.05376758357964583 0.3656339278066184 -0.1772489831341729 0.1417357785911985 -0.2936269596067936 -0.0970214930727952 -0.3298440247544659 
-0.181616450850991 -0.3073267886341996 -0.2179593513985668 -0.1015156390335888 0.4745618094330496 -0.1095185744731016 0.1889369139932542 -0.3722615917578146 -0.2862491734425333 -0.1000776083096883 
0.07595031101413584 -0.0128117624178258 -0.2925197090881745 0.03386768736336788 0.02628996181657364 0.04942075617268487 0.1223932634547007 -0.1932098602778969 -0.1444904749703055 -0.2213409805754395 
0.3450711658532036 0.2110230556520993 -0.3018882682016987 0 0.02316139493900529 -0.01787328805779121 0.2577033242846428 -0.2340043255683184 -0.5152082292783062 -0.3059531268911143 
0.278477397711309 0.2000264678242041 -1.236018796132139 0.0554773842103003 -0.2417962904025387 0.1658729108541435 0.07987157701785022 0 0.01460389721322146 -0.2209060169340938 
0.05795356625479015 -0.003496157055932838 -0.3667828850146018 0.03270823024305718 0.04197463076502743 -0.06420070370108868 -0.5365188152064537 -0.1784612842455345 -0.3144888869449639 -0.006897040244606079 
-0.01697707597101274 0.4750087720101167 -1.142923120310893 0.3016558419253428 -0.0003387877520294818 0 -0.0662305122650744 -0.2429238225668512 -0.03712233389974487 -0.04325225598417061 
-0.1276423640989693 -0.05942075341772066 -1.010731017805268 0.2579190810282222 0 0.01572895605606657 -0.5035275144479652 -0.02790508696502655 0 0.02934480281528248 
-0.3752809704975179 -0.2780486950933378 -0.9161102318167631 0.01351434624729846 -0.1181002163027127 0.5054640376317225 0 -0.8894462802288168 0 0 
0 0 -0.0943445549281976 0 -0.1254295413949124 0.3705503367812959 -0.4595840743632927 -0.1051326721557647 -0.5298755685115339 0 
0 -0.3151651467313829 0 1.305885887121851 -0.9191726738667338 0 -1.309463910846044 0 0 -0.2840020119848835 
0 0 0 0 0 0 0 0 0 -0.0162230155799844 
0 0 0 0 0 0 0 0 0 0 
0 0 0 0 0 0 0 0 0 0 
0 0 0 0 0 0 0 0 0 0 
0 0 0 0 0 0 0 0 0 0 
0 0 0 0 0 0 0 0 0 0 
0 0.4919034486405127 -0.4365284834927772 0 0 -0.5023632171037427 0 -0.1452173469475209 -0.7331730459748871 -0.2038058359879474 
0 0.2444964561126194 0 0.290491924798829 -0.1518796194452456 0.07214745426209138 0 -1.341826837082571 -0.07804130776463496 -0.5163628896418033 
0.5444779737312158 -0.1623388512204471 -0.1805194259346027 -0.1557548939922146 -0.6785693470892793 0.1302982558575375 0 0 0 0.1788872149209337 
0.2703535410453189 0.1631520899997835 -1.248365666896902 -0.05312245184812495 -0.7685054939770406 0 -1.08617354718517 0 0 0.04932707124556134 
0.08486834072692276 0.0152584564872766 -0.4534069269521152 -0.001707550533432326 0.06939208105492234 -0.3159788315741667 -0.9148247312384078 -0.641039630517557 -0.2114491744320475 0.1501165003553342 
0.05851157765417322 0.04527428036589011 -0.1723876156530512 -0.006870200379698482 0.2816881018342188 0.3939919698048148 0.2296422064684895 0 -0.003337867701361218 -0.1313442132716889 
-0.04580416698471696 -0.1117458529469224 0 0.1391421760987562 -0.5168051854795541 0.05151123604370523 -0.3732562148761769 -0.05142873348245478 0.1843721188988549 -0.04349259685453435 
0.2340605320098865 -0.05262465328469434 -0.130806055707093 0.2041997672119824 0.2240505601553699 0.04934292817702106 -0.004567567757634302 0 0.1921081736391775 -0.06154637767996571 
0.1216044443118582 -0.07370813174329549 -0.07151550896507221 0.145978141054018 0.2220400220747773 0.2491677076190946 -0.08650315193338072 -0.3836200885968857 0.2862210881421767 -0.1485332033757233 
-0.5019242159706883 -0.085446629286574 -0.0414612288365435 0 0.3816232992932751 0.02220686982478116 -0.2965211590741758 -0.1700568471450482 0.3505910252158214 -0.2375326221690992 
0.01059139230469937 -0.03337876966721354 -0.03656951862631152 -0.1906445641090161 0.6205629458601973 -0.000908641773193625 -0.2526570059229689 -0.2450344710659008 0 0.02458660322738933 
0.1976773110925117 -0.0652753604334694 -0.05090883724007757 -0.1005262947849804 0.423144628098895 0.01629031526857732 -0.1646000013290529 -0.2028205703999548 -0.2611424463874078 -0.1811716186452279 
0.03513424758649803 -0.08192332904645294 -0.2387600721886958 -0.1907541954096739 0.3878514962640391 -0.01611376773705407 0.1138931141161861 -0.1582334529391451 0 -0.1484720292711388 
0 -0.01130126639820002 -0.0816446492880073 -0.01076150526919794 0.08759448333219302 -0.01095609521738815 -0.2106914341543874 -0.275005632830287 -0.1038444221859034 0.0703292091281711 
-0.2415342020366704 -0.1657192512289659 -0.3939664185281793 0.2855634445854175 0.3522171972930412 -0.05463008680309397 -0.1314603659942618 -0.3104594521676679 -0.1454934143986859 -0.09378540319767757 
0.4750149684708675 0.1397280799632904 -0.2967580142062209 -0.003395022982707007 0.363615803033315 -0.01440489848670923 -0.00259196570082992 -0.2025851820595526 -0.1215133192099597 0.2052577644692806 
-0.06412233213691881 0.2872302439425762 -0.8257808039743653 0.4281127476757807 0.08320851892209294 0.09755179160877271 0 -0.0496176603279182 -0.4038910814351102 -0.001841860765033202 
0.2096057229042921 0.001589571321138039 -0.1007865375525545 0.03641588827292595 -0.2745297197800076 0.3710425497089085 0 -0.1321175611781349 -0.1206233961440374 0.1458014580540735 
0.5699941478013092 -0.1798499466678409 -0.7868750767288331 0.4868236842140014 -0.3007371142215766 0.3719358681531054 0 -0.1530905866321811 -0.2131835680634754 -0.1942776163631507 
-2.036393694829596 -0.02147109920367518 0 0.2480399023816607 0 0.4842291442884409 0 -1.284465938357624 0 0.3080359519488037 
-0.1812091285470679 -0.7343373413579027 -1.799062821757881 1.140122696052268 -0.4838775336881107 0 0 0 -0.6287936207347521 0 
0 -2.329749875632535 0 0 0 0.5438507449227067 0 1.62678925816247 0 -3.150638014607312 
0 0 0 0 0 0 0 0 0 0 
0 0 0 0 0 0 0 0 0 0 
0 0 0 0 0 0 0 0 0 0 
0 0 0 0 0 0 0 0 0 0 
0 0 0 0 0 0 0 0 0 0 
0 0 0 0 0 0 0 0 0 0 
0 0 -0.9525175696990167 0 0 -0.2969921418313414 0 0 0 0 
0 0.2949809606587193 -1.642131676919269 0.1966579242463307 0 0 -2.091065640070099 0 -0.84757356389025 0 
2.653747830442632 -0.06904131362798271 0.7262475972857388 0 0 0.03543784814460604 -0.1099440039435876 -1.034966220577077 0 0 
-0.004584762317905089 0.0142572173447654 -0.06227199291091195 0.3138028674059258 -0.9825176608607642 -0.1485906600864307 -0.4938391888131822 -0.6140159488971253 0.2118849974311292 0.1078891259587646 
-0.04341583434449268 0.2166058617723451 0.3806730381836141 0.02056138251461557 -0.01884521942484987 0.334369876096403 0 -0.1081766589514559 0.03401873571346987 0.0004284358963176698 
0 -0.1259922653545428 0.06627709127982762 0.3040611217885851 0.1970441431478846 -0.07222749242957549 -0.4387251248476491 -0.1221327503236306 0.4025749936141686 -0.1457190112458869 
-0.05242894738974665 0.03439775544034138 -0.1293605295063003 0.1088594124655913 0.2721077484775837 0.01440284190102728 -0.1270388877605799 0.00400418137237238 0.0982156050196272 -0.1496732220685866 
-0.1491595100149032 0.05728568692878643 -0.1104143996225759 -0.0131056941121426 0.1252889595537813 0.08080686121029981 -0.4063403179243845 0.006112891065684648 0.06000854349100247 0.04718089275757338 
-0.2049242477980076 0.04652503319150424 -0.1625191292596015 0.06490006733701838 0.03969771759384629 0.00377725291014289 -0.2098229509193613 -0.1429661385351639 0.1196009390685996 0.2512262799889951 
-0.2568188221859223 -0.02447870994420982 -0.02378263492797877 0.1029939080380566 0.1576111009278281 0.1883501390000969 -0.4543797404829472 -0.06632116273933021 0.1147437486111799 0.1620669080397124 
-0.4509187552107333 -0.005578383433448838 -0.3144704084802429 -0.04344132197939538 0.09378171024374622 0.1234400218727366 -0.2683885259986209 0 0.3118535367374845 0.2466546932432396 
-0.3136054986491026 -0.1291682087789626 -0.09382570383987593 -0.3600399925079592 0 0.03077075504360412 -0.3225715558150792 0.008431729433545379 -0.004321319007305697 0.1427898809223373 
0.1320541359541259 0.1257744209723858 0.001010155704829943 -0.09836843848146168 0.04546316691252394 0 -0.3043096781719818 -0.3939246328476895 0.1899257413184517 0.00114058638717012 
0 -0.05288601887634803 -0.01008778708136067 -0.0744681644384431 0.1328027525350831 -0.005427096623512616 -0.007044889635640545 -0.27317134578181 -0.2702636126655516 -0.2695633250792008 
0.2478902735054466 0.07857278342457645 -0.2092246137309976 -0.07890069572549929 0.1121225034948476 0.1799910207126321 0.1004076875968731 -0.4207041742382602 -0.2436026536062734 -0.1852949391615021 
0.3689945076592575 0.08305788603557718 -0.2749383758663084 0.2757932269354962 -0.02799727602334534 0.0390074771655514 -0.02841576931411877 0 -0.1480358291254447 0.01121764131833572 
0 -0.03886683133776788 0 0.08474657806612748 -0.1080629103355714 0.1843344397374891 0.3708402575431286 -0.908687703897316 -0.01895685352563458 -0.1980994580037429 
0.1655483245315103 0.1584688332111781 -0.1657916056416135 0.1443566927054723 0.1984576887532311 -0.007956346370618839 -0.2069880511402559 0 0 -0.09704275603790359 
0.7400301458658357 0.002315267485202623 -0.2392284334626375 0 0.7480070285472857 0.01360400214198592 0.8115563873224447 -0.1600524062625426 -0.1100830652585413 0 
-0.6493672820919352 0.09326492648932386 -0.9688065665895983 0.6562555324381432 0 0.1885283490951283 0 0.326974235108666 0 0 
-0.05159811672953858 0 -0.3862524575460746 0.5737544360044039 -1.384091038019262 0.1033937984578031 0 0.4577500382711049 0 0 
0 0 0 0 -0.2280934457474575 0 -0.5476558118439961 0 -0.1235503697009616 -0.7984557190909252 
0 0 0 0 0 0 0 0 0 0 
0 0 0 0 0 0 0 0 0 0 
0 0 0 0 0 0 0 0 0 0 
0 0 0 0 0 0 0 0 0 0 
0 0 0 0 0 0 0 0 0 0 
0 0 0 0 0 0 0 0 0 0 
0 0.3212987877857538 -3.096191543982014 0 0 0 0 0 0 0 
-1.320931377083786 0.6420858688080106 0 0 0 0 0 -0.4050002510048807 -1.546363360767887 0 
0 0.5794086915377307 0.2561946566943691 -0.09543647618818883 0 0.3618175502558018 0 -0.3776165809174105 0 -1.053148257059674 
0.2554913972972167 0.4594773553772111 0 0.04486085898868445 0 -0.1947370973960817 0 -0.1394500089094683 0.003588360440539336 0.01955175731239338 
0 0.2446426714814213 0.4497595848859384 0 -0.3712072656185421 -0.4461058364520385 0 -0.6040580314830974 -0.05602664814909212 -0.5374317068751505 
0 -0.02156555908121063 -0.5795364324574795 -0.2709961267567908 -0.7831277366274331 0.02969296691698634 0 0.1873654241339071 -0.05259634951624008 -0.02777872314145214 
-0.2471468609684028 0.196666565134333 -0.07305695746605435 -0.0537703520674218 0.003292250350377272 0.01104252391899029 -0.008915954197601498 -0.4784831516375689 0 0.003330138309064972 
-0.0684760433839733 0.05122733835505398 -0.2163572103619824 -0.1473371881835688 -1.335204260734222 0.2232135918794681 -0.3322971814430453 -0.1594355239453431 0.2411863525924854 -0.09284586504699523 
-0.4506009670844193 0.03369819310331949 -0.3124495122320172 -0.1702196227829106 -0.1880921185267032 0.02300990474856261 0 -0.1007805644690997 0.169734235973771 0.1370527140092454 
0.02115714797498739 -0.01960207151768356 -0.2018430983349619 -0.2073911928505048 -0.5032194627005194 0.06130933297792116 -0.1940608244810589 -0.1390950552160679 0.1432998652420494 0.259912430302116 
-0.1488931565404314 0.08452932830003636 -0.1169791760233095 -0.1023527325581034 -0.2187463318265197 0.07727960335166836 -0.1177370949156022 -0.4350651678356147 0.2514043049009218 0.4522869954019519 
-0.2307176662871508 -0.1819280275607392 -0.2374787696195074 -0.3279818648369141 -0.286238323094293 0.05823763993185296 -0.2288187849946636 -0.1312220065064185 0.2046120868353575 0.392675901156186 
0 -0.1291414238521973 -0.07681611946299424 -0.4996929166787293 -0.01884066865381704 0.04795224512956747 -0.01751442101288181 -0.3780632949711982 -0.1633931798438062 0.3424473034584365 
0.07439468776490221 -0.1603659567851511 -0.391072761621744 0.02166250810366039 -0.3957555648884962 -0.08992152296583864 -0.05735304798451365 -0.07906582096895276 0 0.3372042275206132 
0.6346070491466232 -0.002143922646712868 -0.05788926418747578 -0.3368982119237007 -0.4043513485931324 -0.01827491157192834 0 -0.410436340965767 -0.03660246295699157 0.1465424542637455 
-0.2432191718301987 0.2147859489231146 -0.3425661605029648 0.282403259451086 0 -0.4069102516331584 0 -0.6788099776917151 -0.1395841784290479 0.2368289515202842 
0 0.1347294000810959 -0.6795448822042203 0.4538275766668246 0 0 -0.009303053001906446 0.08202903742346712 -0.9763261905394652 -0.1365353400544159 
0 -0.003661164215614885 -0.3453197196551538 -0.1901024552133269 -0.02553169492741052 -0.03426365016862339 0 0.1293943626678396 -0.2537334154750465 0.003155422549506282 
0 0 -2.130058624668667 0.6607002093104878 -0.7537220389168421 0 0.1927056295166764 0 -1.165584605094954 0.05456504574830933 
0 -0.7888348589038667 -0.1696766190184016 0.9617081475685066 -0.2520484573867807 0 -0.485228173088194 1.167861005074127 0 0 
-1.1992340802308 -1.31867642494811 -1.890003156791766 0 0 0.06635185536548788 -0.7585315992439723 0.3092065202192348 -0.2738509650768254 -0.6302335328854053 
0 0 0 0 0 0 -0.1993158764604635 0 -0.229117553381629 0 
0 0 0 0 0 0 0 0 0 0 
0 0 0 0 0 0 0 0 0 0 
0 0 0 0 0 0 0 0 0 0 
0 0 0 0 0 0 0 0 0 0 
0 0 0 0 0 0 0 0 0 0 
0 0 0 0 0 0 0 0 0 0 
0 0 0 -2.21187276214763 0 0 0 0 0 0 
-1.489343224695706 0.8798775960239232 0 0 0 0 0 0 0 -1.269647637724559 
0 -0.3201385131468786 0.9933056898636723 -1.030982364917461 0 0 0 0.463086560151896 0 -0.8305150767231374 
0 0.4594400838137424 0.7433487869307405 -0.7666061909370392 0 -0.02165746674941775 0.2877111396089545 0 -0.5583996050767651 0 
-0.01728839941859781 0.6777647160196024 0.1479414555799099 -0.2597819867341661 0 0.06236587054350635 -0.0776638208434501 0.04821353628802266 0 -0.1515304454255195 
-0.472673704658954 0.2461945747921825 0 0 0 0 0 -0.1572830856391447 -0.271202416577533 0.1018350494943448 
0 -0.02875380888134889 -0.0245753146745834 -0.1529337326851443 -0.2131038091982536 0.2399127396356787 0.2900887339249898 -0.2036785185328512 -0.01897266713117784 0.1013648247974791 
-0.6158859568084647 0.3044129730206296 -0.2334069329257705 -0.4379555670890012 -0.03617383182530479 0.03470862574820939 -0.4115804719908603 -0.1659815120423044 0 -0.005069771029268599 
-0.3200489225442136 0.0437901447478258 -0.02057071997877715 0 -1.077498771684799 -0.03489642378765744 0.105674648118419 -0.5084295449478818 0 0.004886237420406261 
-0.3469669349308714 -0.04070141951288265 -0.3810070573212987 0 -0.7668385022363815 -0.07897129483446651 0 -0.2155868527983401 -0.1651597003708833 0.01911914258743942 
-0.9515513402205366 0.233646444601863 -0.03601994725144398 -0.4916163823351499 -0.6720657640429953 0.07670550653036995 -0.2815911719726954 -0.2797988489741415 0.01971626646632978 -0.03674484031671523 
-0.4203488332019032 -0.01940793615428144 -0.1037099873163922 0.2747403601712402 -1.102389148513883 0.2431475740795388 0 -0.6408376637940079 -0.3137975371375912 0.01977747382825907 
-0.2934490718976864 -0.08721276822487857 0.1607950039128532 -0.1856773022985578 -0.8152397297245881 -0.03113345185327572 -0.1109389093172061 -0.1740524824636521 -0.04081023846193386 0.01317095979055985 
-1.212886200817455 -0.08839741986217918 0 -0.234249193300706 -0.4596235955276922 0 -0.06950127480503344 -0.1035193335867926 -0.153732561554878 0.4116009681022745 
0 0.1455862968018881 0.12983869163399 -0.05538726858450278 -0.3246712654355435 0 -0.2851516878177122 0.06859930180941504 -0.1010226599772419 -0.1733525597466132 
0 -0.6600639305835208 -0.5038128806459103 0 -0.7160836125494363 0.2281457403972639 -0.1339396504366328 0.1364843691392331 0 0.4107379232399468 
0 -0.3913955674413528 -0.0212887636948051 -0.04028255999361446 -1.115406555589066 -0.01355991879135282 0 0 -0.00340971951976314 1.207602643289849 
0 -0.1827071962901611 0 -0.0362727054273712 -1.042890142854969 0 -0.06365356493978085 0.02275765366580685 -1.016964941798773 0 
0 0 0 0 -0.0565377418762896 -0.5246292720532055 0 0.1889223256471219 -1.155414986861366 0 
0 0 0 0 0 0 -0.4198607968006614 0.5098942915611919 0 -0.2535112432211323 
0 0 -0.4522812861577057 0 0 0 0 0.6402057301248453 0 -0.05391117519331131 
0 0 0 2.56793631920197 0 0 0 -0.7964743921035592 0 0 
0 0 0 0 0 0 0 0 0 0 
0 0 0 0 0 0 0 0 0 0 
0 0 0 0 0 0 0 0 0 0 
0 0 0 0 0 0 0 0 0 0 
0 0 0 0 0 0 0 0 0 0 
0 0 0 0 0 0 0 0 0 0 
0 0 0 0 0 0 0 0 0 0 
0 0 0 0 0 0 0 -0.2307853312287845 0 0 
-0.4650035560623794 0 0 -1.820825200023495 0 0 -0.518475698943337 0 0 -1.455787434815399 
-1.222681757636868 0 -0.1544136008114694 0 0 0 0 -0.02910383249233625 -1.335381226111507 -0.02248914305840935 
-2.058798316007028 0 -0.1657508642541756 -1.498711674558888 0 -0.2040429472367867 -1.227674375188064 -0.3911760563817516 -2.050569724958137 -0.4041474572937361 
-1.197576874327128 0.1478433851433354 0.3666845412122314 -1.877322515409424 0 -0.4740036543276372 -0.3285885141883633 0.040713751743762 -0.3383880820090899 -0.9838639260854006 
-1.425601548993121 0.4048856911702355 0.02410378099917833 -2.145651152898448 0 0.3045096794670729 -0.7676552613364217 -0.1112358661605384 -1.624852904860714 -0.9082394513547203 
-3.538941280974278 0.3020088337815134 0.06504673745579449 -1.35199492356656 0 -0.5402568767750662 0 0.1344601881027506 -1.557096592742556 -0.3562505720977709 
-2.589032732196347 0.3458480824757851 0.3193991428165042 -1.1835678531092 0 0.2588610186683429 -0.7506675905998604 -0.002757704920939458 -1.428880055240048 -0.2567747658127902 
-1.882684929757705 0.4637781507340757 0.1350474703376163 -1.487604782190072 0 0.1775560874753037 -0.7194275275465317 -0.01897038262950357 -2.263985355970004 -0.5400271717765827 
-1.336268984303163 0.08707635505542455 0.3308891662940635 -0.3882521991414351 0 0 -0.6208889013876464 0.2151207754817849 -1.486093215299023 -0.5139695920211871 
-0.9264647502574128 0.2252768702905323 0.143084172697078 -0.7260882541434371 0 -0.15869229302503 -0.5619581465663528 0.01882160798690607 -2.070471238517321 -0.04522523535957688 
-2.714141710837772 -0.006829386470549189 0.2090701638014464 0 -0.7308807221758558 0.0802652361273278 -0.5880508765410641 0.1077165305911803 -2.170048589572526 0 
-2.286402729072984 0.1009279628014268 -0.09543574793437588 -0.7230020222255528 -0.2415890707953738 0 -0.9999666180053598 0.1083873316226481 -0.5465775028552875 -0.1319892229146552 
-1.727542122573421 -0.3993145104080018 -0.04945299246076741 0 0 0 -0.7028045636868679 0.4688250176449478 -2.810744408769495 0 
-1.314885151748895 -0.259398026327339 0 -0.4770006182980741 0 0 -0.3592438228033724 0.3713783999078898 -2.37553598469351 -0.6543974095286209 
-1.078286302302824 0 -0.2844118861452278 -1.092126437639291 0 -0.04970754350291941 -1.515987591121728 0.4398274823699012 -0.160975563399416 -0.1999313128618501 
0 -0.1271459378821884 -0.239422355726688 0 0 -0.4649596273857705 -0.3433221828276765 1.293864253537296 -1.160579932972397 -0.2596542793579764 
0 -1.173019755811479 0 -0.2638898254931085 0 0 -1.884622425915121 0.7112703570341713 -0.04730668645517577 -0.35930272472064 
0 0 0 -2.337502603363708 0 0.6613114962565676 -0.1612051137020276 0.4357910749467083 0 0 
0 0 0 -0.443600242070915 0 1.63025686972109 0 0 0 0 
0 0 0 0 0 0 0 0 0 0 
0 0 0 0 0 0 0 0 0 0 
0 0 0 0 0 0 0 0 0 0 
0 0 0 0 0 0 0 0 0 0 
0 0 0 0 0 0 0 0 0 0 
0 0 0 0 0 0 0 0 0 0 
0 0 0 0 0 0 0 0 0 0 
0 0 0 0 0 0 0 0 0 0 
0 0 0 0 0 0 0 1.300854977569371 0 0 
0 0 0 0 0 0 0 0 0 0 
0 0 0 0 0 0 -0.1291356834760505 0.7807920319652781 0 -1.015633429295501 
0 0 0 0 0 -1.496413926500231 -1.296905945026562 0.5719660267287058 0 0 
0 -0.05454054825190034 0.05798600909563055 0 0 -1.621105670644804 -1.591032873757409 0.4522211933936989 -0.8367639388036068 0 
0 -0.8601981774085368 0.3673064488360152 0 0 0 -1.424022079599485 0.1421222549796125 -0.8919530538371114 -1.241641599374295 
0 -0.8310331429116141 0 0 0 -0.1997728840633514 -1.140716176964014 0.3515336901483769 -0.9164198472358613 -1.529481908488587 
0 -1.04931984656487 0.08714010976515578 -0.8144470007705159 0 -0.3661313945892533 -2.026813294871569 0.008586208508318816 0 -0.6242666613810679 
-2.039109181744829 -1.920319943268365 0 0 0 -0.7967484935624751 -1.380924748693701 0.6623416969607372 -0.2006437389813552 -0.3382927468118304 
-2.035472175663532 -0.6072525431048322 0.05169698668232339 -0.8979247681510207 0 -0.1425923914601419 -1.872584792712426 0 -0.142902880051902 -1.08584199023021 
-1.333013607879526 -1.100010107185209 0.09754245197721445 -1.141186940306422 0 -1.095613799663092 -2.627176517173049 0.90723179395732 -0.4740563272615649 -1.053236822793455 
-0.3640913238020843 -2.15031548709114 0 -0.9434279238518561 0 -0.06141177142201937 -1.572151106624052 0.09747005319576871 -0.961690765436918 -2.211537373663971 
0 -0.1635815871311459 0.4919581163101213 -1.159838509930436 0 -0.1077516552926546 -1.792324625349461 0.4733975344640209 -1.405320320657013 -1.278960981940722 
0 -1.63278779581662 -0.1369895593367084 -0.2885701658879001 0 -0.5113812440656881 -1.877910744196975 0.3015891018260409 0 -0.1302530005178957 
0 -0.1465914330604371 0.5237436900073128 -0.4316165752643898 0 -1.386097388751269 -1.643938380842709 1.16603920338656 0 0 
0 0 0 0 0 -0.1345885970896184 -1.84665289769972 0 0 -1.196269789001662 
0 0 0 0 0 0 -1.407693188573418 0.5072733924024078 0 0 
0 0 0 0 0 -1.169431120430479 -0.978765671823272 0.6688722438222073 0 0 
0 0 0.02285002361217184 0 0 0 -0.1890852158977383 0 0 0 
0 0 0 0 0 0 0 0 0 0 
0 0 0 0 0 0 0 0 0 0 
0 0 0 0 0 0 0 0 0 0 
0 0 0 0 0 0 0 0 0 0 
0 0 0 0 0 0 0 0 0 0 
0 0 0 0 0 0 0 0 0 0 
0 0 0 0 0 0 0 0 0 0 
0 0 0 0 0 0 0 0 0 0 
0 0 0 0 0 0 0 0 0 0 
0 0 0 0 0 0 0 0 0 0 
0 0 0 0 0 0 0 0 0 0 
0 0 0 0 0 0 0 0 0 0 
0 0 0 0 0 0 0 0 0 0 
0 0 0 0 0 0 0 0 0 0 
0 0 0 0 0 0 0 0 0 0 
0 0 0 0 0 0 0 0 0 0 
0 0 0 0 0 0 0 0 0 0 
0 0 0 0 0 0 0 0 0 0 
0 0 0.8212051998406791 0 0 0 0 -1.08829355458984 0 0 
0 0 0.4287618537566002 0 0 0 0 -0.0532105826830385 0 0 
0 0 0 0 0 0 0 -0.4190020790305928 0 0 
0 0 0 0 0 0 0 0 0 0 
0 0 0.7844777464493077 0 0 0 0 -0.9255133067690782 0 0 
0 0 0.3681879365417324 0 0 0 0 0 0 0 
0 0 0 0 0 0 0 0 0 0 
0 0 0 0 0 0 0 0 0 0 
0 0 0.7685716762147382 0 0 0 0 0 0 0 
0 0 1.079452024834819 0 0 0 0 0 0 0 
0 0 0 0 0 0 0 0 0 0 
-0.03283505948438088 -0.2132739003570994 -0.05024912409285083 -0.1271168376464762 -0.1462722200740534 -0.01099307498133012 -0.1257986763391337 -0.2398433482873852 -0.1446363518540065 -0.5341387527116849 
