solver_type L1R_LR
nr_class 10
label 1 3 7 2 6 5 4 9 0 8
nr_feature 780
bias 0
w
0 0 0 0 0 0 0 0 0 0 
0 0 0 0 0 0 0 0 0 0 
0 0 0 0 0 0 0 0 0 0 
0 0 0 0 0 0 0 0 0 0 
0 0 0 0 0 0 0 0 0 0 
0 0 0 0 0 0 0 0 0 0 
0 0 0 0 0 0 0 0 0 0 
0 0 0 0 0 0 0 0 0 0 
0 0 0 0 0 0 0 0 0 0 
0 0 0 0 0 0 0 0 0 0 
0 0 0 0 0 0 0 0 0 0 
0 0 0 0 0 0 0 0 0 0 
0 0 0 0 0 0 0 0 0 0 
0 0 0 0 0 0 0 0 0 0 
0 0 0 0 0 0 0 0 0 0 
0 0 0 0 0 0 0 0 0 0 
0 0 0 0 0 0 0 0 0 0 
0 0 0 0 0 0 0 0 0 0 
0 0 0 0 0 0 0 0 0 0 
0 0 0 0 0 0 0 0 0 0 
0 0 0 0 0 0 0 0 0 0 
0 0 0 0 0 0 0 0 0 0 
0 0 0 0 0 0 0 0 0 0 
0 0 0 0 0 0 0 0 0 0 
0 0 0 0 0 0 0 0 0 0 
0 0 0 0 0 0 0 0 0 0 
0 0 0 0 0 0 0 0 0 0 
0 0 0 0 0 0 0 0 0 0 
0 0 0 0 0 0 0 0 0 0 
0 0 0 0 0 0 0 0 0 0 
0 0 0 0 0 0 0 0 0 0 
0 0 0 0 0 0 0 0 0 0 
0 0 0 0 0 0 0 0 0 0 
0 0 0 0 0 0 0 0 0 0 
0 0 0 0 0 0 0 0 0 0 
0 0 0 0 0 0 0 0 0 0 
0 0 0 0 0 0 0 0 0 0 
0 0 0 0 0 0 0 0 0 0 
0 0 0 0 0 0 0 0 0 0 
0 0 0 0 0 0 0 0 0 0 
0 0 0 -0.5456737180665995 0 0 0 0 0 0 
0 0 0 -0.7671999398244296 0 0 0 0 0 0 
0 0 0 -0.01735471164351804 0 0 0 0 0 0 
0 0 0 0 0 0 0 0 0 0 
0 0 0 0 -0.5895442848801773 0 -0.7811827416232423 0 0 0 
0 0 0 0 0 0 0 0 0 0 
0 0 0 0 0 0 0 0 0 0 
0 0 0 0 0 0 0 0 0 0 
0 0 0 0 0 0 0 0 0 0 
0 0 0 0 0 0 0 0 0 0 
0 0 0 0 0 0 -1.720967881110939 0 0 0 
0 0 0 0 0 0 0 0 0 0 
0 0 0 0 0 0 0 0 0 0 
0 0 0 0 0 0 0 0 0 0 
0 0 0 0 0 0 0 0 0 0 
0 0 0 0 0 0 0 0 0 0 
0 0 0 0 0 0 0 0 0 0 
0 0 0 0 0 0 0 0 0 0 
0 0 0 0 0 0 0 0 0 0 
0 0 0 0 0 0 0 0 0 0 
0 0 0 0 0 0 0 0 0 0 
0 0 0 0 0 0 0 0 0 0 
0 0 0 0 0 0 0 0 0 0 
0 0 0 0 0 0 -3.776623316342751 0 0 0 
0 0 0 0 0.002206762501679463 0 -0.5833765766326928 0 0 0 
0 0 0 0 0.100409046764839 0 0 0 -0.1111381003922913 0 
0 0 0 -1.623841332893152 0.7952112965196582 0 -3.000937285339401 0 -0.03213866833583034 0 
0 0 0 -0.2606978080243257 0 -1.295447427101853 -2.251263201522068 0 0 0 
0 0 0 -0.09053022893503708 0.4009132595656416 -1.301793047613861 -2.174930225283535 0 -1.094495782206554 0 
1.027606377115548 0 0 -0.8021747471816419 0.3050923587475286 -1.347634363986901 -0.5055472408231723 0 -0.8148241626825905 -0.5206413469970141 
0 0 0 -0.8824874431053366 0 -1.480504341408519 -0.7356959449550821 0 -0.6107106475379624 -1.276473701766504 
0.5928271891964858 -0.9309725018974767 0 -0.1954864345212634 0 -1.423578155163615 -0.9181668001543507 0 -2.090215924237822 -1.155924677226085 
0 -0.5353298014173375 0 -0.5104312095491335 0.1578594800255176 -0.3289725628312712 -1.592249926852954 0 -0.496551274079332 -1.410937601887115 
0 -0.03706905634103091 0 -0.8470530251122533 0.413104066168541 -0.4378323806497788 -0.8230004973348082 0 -2.201301433073351 -1.5944880834544 
0 -1.340201090991306 0 -0.5941564670641616 0.3067523572935114 -0.3078053037606663 -1.674415353085786 0 -0.6216757192039594 0 
0 -0.4968243719780708 0 -1.37409916142682 0.3788379757439039 -0.09440911157485395 -1.068027393040868 0 -0.9388434072975338 -0.6912093949468326 
0 0 0 -1.206725366235138 0.3679608297225002 -1.34456747884298 -0.6025864907255867 0 -0.7252967629641307 0 
0 0 0 0 1.514893641320689 -0.2291834726335397 0 0 0 0 
0 0 0 -0.1567381697748608 0 0 -1.886005751259937 0 0 0 
0 0 0 0 1.506641107343789 0 0 0 0 0 
0 0 0 0 0 0 0 0 0 0 
0 0 0 0 0 0 0 0 0 0 
0 0 0 0 0 0 0 0 0 0 
0 0 0 0 0 0 0 0 0 0 
0 0 0 0 0 0 0 0 0 0 
0 0 0 0 0 0 0 0 0 0 
0 0 0 0 0 0 0 0 0 0 
0 0 0 0 0 0 0 0 0 0 
0 0 0 0 0 0 0 0 0 0 
0 0 0 0 0 0 0 0 0 0 
0 0 0 0 0 0 -1.24526790884801 0 0 0 
0 0 0 0 0.352968133156388 0 -0.2671348683102039 0 -0.5178113402960469 0 
0 0 0 -0.19277385116807 0.272952762917186 -0.3551025204850341 -2.999764886263348 0 0 0 
-0.5368077313628142 -0.4278291271635136 0 0.4845119351274689 0 -1.032295987419682 -1.957524377397991 0 -1.881984330833822 -0.8517918055853394 
-0.8984099297055497 -0.3031581477835336 0 0.2843606188505551 -0.1484690559388993 0 -1.573559934113808 0 -1.793232404232075 -0.09431332106077336 
-2.736352569297316 0 0 0 0 -1.078734312050525 -0.8261921459275019 -0.2644624981334603 -0.819848106084229 -1.641910346691657 
-0.3791198421216627 0.1552560629349806 -0.09087732839546432 -0.008279624197492508 -0.2416112230355565 0 -2.239127879722628 -1.00967331805491 -0.6044450875902783 -1.330856304268926 
-0.08438774003889779 -0.1733153332744005 -0.5699350337754037 0.288759642604717 0 0 -2.872625252542529 -1.281110197403813 -0.08125582778217834 0 
-1.487179443935718 0.1742868901443338 0 -0.01575252567233125 -0.07718096842004879 -0.7295454023334804 -1.202073733473545 -0.6052659775314848 -0.5986825030773196 -1.78427209626509 
-0.1272758991795409 0.1785799783867571 0 -0.4135095825668685 0.1203587403979659 -0.02318309746431942 -1.713555564766421 -2.050203001082738 -0.2031959075614422 -0.7196594535199613 
-0.1201761424069461 0 0 0 0.06896436366703465 -0.7786877304620009 -1.093602580635706 -0.2061434124924463 -1.079713378309573 -1.126672635287927 
-0.04876413186989485 0 0 -0.1543587435530799 -0.2060067693525831 -0.3642875124243619 -1.173025764887494 -1.4055867844626 -0.4109789214865134 -2.003350264338211 
-1.238974614068844 0.1624630137810248 0 -0.5796497732292822 0.3055306237956756 -0.2264488940843986 -1.431283823480314 -0.3107970311063247 -0.8171106387924894 -0.6580132697624629 
0 0 0 -0.1253662187721898 0.04689863042609693 -0.3135391645319595 -0.1457015237049271 -0.6176102324473138 -1.373527891833245 -1.933293587794366 
-0.6913031294750664 0.6491590897832872 0 -0.09210366993909991 0.100229486120012 -0.1083837609768873 -0.6317494128673737 0 -0.1131224483251884 -0.3458079905613176 
-0.4523343415345363 0 0 -0.4171905314954441 -0.1217838019178347 -0.1434248418574139 -0.2438735215346279 0 -1.466819942012985 -0.6295619204727712 
-0.05095118950167937 -1.886079722958845 0 0 0 0 -0.7081036858906882 0 -0.8869383473513534 0 
0 0 0 0 0.6007246967410136 -1.111910149600825 0 0 0 0.323011473552342 
0 0 0 0 0.8895748937563057 -0.3295605752488813 -0.3592188485558446 0 0 0 
0 0 0 0 0 0 0 0 0 0 
0 0 0 0 0 0 0 0 0 0 
0 0 0 0 0 0 0 0 0 0 
0 0 0 0 0 0 0 0 0 0 
0 0 0 0 0 0 0 0 0 0 
0 0 0 0 0 0 0 0 0 0 
0 0 0 0 0 0 0 0 0 0 
0 0 0 0 0 0 0 0 0 0 
0 0.7875326040618674 0 0 0 -2.613500575730181 0 0 0 0 
0 0 0 0.4665693849456056 -0.6054321363150273 -0.07577459177548673 -0.8189230541720072 0 -0.4305831466129112 -0.6135147082446706 
0 0.02381402035734748 0 0.2181084021574629 -0.02845160404771651 0 0 0 -1.009154064606611 -0.3044535715853261 
0 0.09345193580589969 -0.8612745266581223 0 0 -0.8986097320305957 0 0 0 0 
0 0.005728286277534286 -0.4287566812667575 0.6122132292097187 -0.5234518843767478 -0.4579819696372817 -0.6963410473446314 -1.589301350186813 0.03618712362500833 -0.1398413721948655 
-0.18855070855698 0.1908510297894598 -1.338973079047511 0.02799417071865569 0 -0.0824317920226678 -0.7104686175840526 -0.3546067947586959 0 -0.0569986245531799 
-0.3705582550014581 0.04643396631191028 -0.5143826547828025 0 -0.6754900507681147 0.07746823954379126 -0.4579287715887772 -1.254894497517057 0.007026704592722401 -0.0567075324353074 
-0.1796729978142524 0.1964502943485608 -0.9700859099868475 0.2382996083297924 -0.5983041103346155 -0.5010797961464284 -0.06361628091743886 -1.230930151181756 -0.2082379081576448 -0.2539113391486505 
0.001916025018341294 -0.1655987185846493 -0.02800428399833491 0 -0.3768628505237802 -0.3574248155343972 -0.1890741781119349 -1.156511485428062 0 -0.1538823224437491 
-0.00180956431966686 0.1108077604133998 -1.054740115860087 0.2274871051760665 -0.4991570990882558 -0.1719139032648009 -0.6014767495805223 -1.188750616349467 -0.5136679629381445 0 
-0.145980853998806 0 -0.8062434648351737 -0.0334668306641444 -0.5489510658386691 0.07727804446764899 -0.4337684544952742 -1.69555147913549 0.1355199776386064 -0.1897942399855111 
-0.2740546826802509 -0.06133447140748182 -1.090417287813809 0.09937685784024135 -0.3035326759441627 -0.09455294524966151 -0.09776984582138307 -1.22516540194995 -0.1394140958010868 0 
-0.09452972195012181 -0.1327062635170349 -0.9601499179562387 -0.2596123710097117 -0.03760071020717919 -0.08213817217914632 -0.2036596007520493 -1.678321867701695 -0.0766530453316614 -0.4987608069057301 
-0.2955895587492225 0.07271436868174422 -1.115545195663528 -0.09448700359869311 -0.3938494269113307 0.1202531655788702 -0.9022353506302214 -0.8752778247261062 -0.01263738541691791 -0.1729698194573464 
0.008841761924583722 -0.2146128401533873 -0.9092727099180931 -0.4425478634343131 0.003552900198036819 -0.1826664042251759 0.03018355246964393 -1.837584089198095 0 -0.2595556002686383 
0 -0.1066066421465373 0 -0.2116190197494916 0.07376746783127353 -0.2794294998157356 0.1335809499796907 -0.746187851914486 -0.1275665649929029 -0.2665928833141664 
-0.01337490360195136 -0.5893281482255105 0 -0.791111752753623 -0.03390106316209498 0.05052621508489967 0.05460262480749331 -1.777876671077305 0.03839431531493084 -0.4066219061673044 
-0.2068987719096629 0.3323192385627588 0 -0.8031375110806117 0.001603090511186679 0.3160100917273451 0.455794118389621 0 -0.1219011778050272 -0.2752041499456974 
0 -2.960842898060079 0 -1.962662689829143 0 0.01691772304863083 0.09842234061239778 0 -0.3430244507103754 -1.037357183597928 
-2.104388097262415 0 0 -0.1846149370855422 -1.161539821794398 0.9186459820033388 0.8634298607519646 0 -0.8643240596674827 0.6029876588314224 
0 0 0 0 0 0 0 0 0 0 
0 0 0 0 0 0 0 0 0 0 
0 0 0 0 0 0 0 0 0 0 
0 0 0 0 0 0 0 0 0 0 
0 0 0 0 0 0 0 0 0 0 
0 0 0 0 0 0 0 0 0 0 
0 0 0 0 0 0 0 0 0 0 
0 0.1128227696429808 0 0 0 -2.514505222333292 0 0 0 0 
0.1989240049342199 0.5821558212304498 0 0 -0.03498479619454003 -0.1106493115138259 0 0 -1.026336643607773 -0.6523111607794049 
0 0.4492748549056736 0 -0.3924579126478091 -0.2370338921476708 -0.7788742468314728 -0.04051219722526585 -0.7802943922548509 0 -0.3235103560745308 
0 0.3088153915577007 0 0 -0.5137074965034065 0 -0.1735858007163856 -1.408716877722903 -0.1347318297425396 0 
-1.04143401427474 0.1951148755384312 0 0.06256528097806925 0.1527868317711943 -0.3101793915217444 0 -0.2539614842795896 -0.27866410278473 -0.5130002553158686 
-0.8062819609310082 0.04946925792641399 0.102137038910177 -0.163157222513693 -0.3012927389275489 0.01267442546376518 -0.004101054012653725 -1.254368656312794 0 -0.188727462601452 
-0.3928844599471733 0.04143171416778146 -0.000239417651816839 0.1562357571569161 0.08681780577196395 -0.1729693724100609 -0.1326870706607877 -0.7635471518330118 0.01657030592726806 -0.3250036906918198 
-1.101828381555012 0.1153114687786708 -0.6577266070805825 0.1433768151664684 -0.4281022629284327 0 -0.3422728513754428 0.05096841785068356 -0.2278982162868631 -0.05054180777019796 
-0.5872277041299202 0.02529201153885388 -0.1488620038943369 0.09970690417844798 -0.1026580925242739 -0.08142903621942391 -0.2159939216855244 -0.1871652870966441 -0.1246240198957369 -0.01248251738602918 
-0.4170486981806613 -0.06802633667157643 -0.157187431181137 0.2506484307875272 -0.5527624254940677 -0.2574505563992833 -0.2034612134328804 -0.07126155093849069 0.03724010491815075 -0.06853974953684001 
-0.2256611960339303 -0.09707357101504996 -0.001959578705417076 0.03769293184623387 -0.2246120294946266 -0.06767198136527794 0.2158274356091272 -0.6102592681631014 0.1097882530115497 0.1026776561067984 
-0.1917513347727091 0.07721181722232881 -0.5514648923151484 -0.005298494031684297 -0.2958025206918005 -0.1896875519672848 -0.0253916122127201 -0.4049848930033103 0.02102111104438445 0.004288948914925947 
-0.2453037668064413 -0.05275272345337975 -0.2157894638855188 0.4457148195486634 -0.2537396244227553 0.02128612456741261 0.181600991295684 -1.014264266520562 -0.1165373050439317 0.0624002982955499 
-0.5435154763843482 -0.3325938361336458 -1.296843009151429 0.04011714486766513 -0.1617084963952928 0.03026241594374685 0.1302534689585036 -0.730777644957612 0.03753260430409547 0.1437429397691283 
-0.1539755115717712 -0.1565408431445877 -0.4827649729600474 0.2641073217158606 0.1925799724330263 -0.03868005980922427 0.372844417065308 -0.9490207533642624 0.02626206139406783 -0.0009712070301791565 
-0.2674305471635073 -0.1371148903560673 -1.724454811877041 -0.1643104980110138 0.06283479840196809 0.1869782295514638 -0.1471263625974835 -0.7212538809687711 -0.1717542039806524 -0.1241059874097136 
-0.04142162608961475 -0.1168326314880411 -1.509772434832947 -0.04749483727144067 0.0541629193229398 0.3324195809387385 0.1870017058553727 -0.7360011312663652 0.1756099079756984 -0.2193532957694392 
0.1326035435710206 -0.5591860351383432 -0.8586754949644306 -0.09089919777527061 0.1183194050205734 0.1727987087432911 -0.05358894432217465 -1.319624961813494 -1.079845588044694 -0.336174353091078 
0.3655448388330789 -0.3641754328823419 -1.492786858623565 0.06768096230763518 -0.1753723129705995 0.3022204227365471 0 -1.759453685153372 0 -0.1673151782218989 
0.446207386529014 -0.3117293225408915 -0.3118008610304857 0 0.6671956426063639 0.4837609457338626 0.05563637010404952 -2.494758712907299 -0.1731108909993159 -0.5047264150558728 
0 -1.012070185562913 0 -1.595560922366041 0 0 -0.1601162593993311 0 -0.8104769873072087 -0.5859859385515275 
-2.054257916341222 0 0 0 -1.104507783614956 0.101799700761233 -0.8676283910355249 0 -0.9286217963632969 0 
0 0 0 0 0 0 0 0 0 0 
0 0 0 0 0 0 0 0 0 0 
0 0 0 0 0 0 0 0 0 0 
0 0 0 0 0 0 0 0 0 0 
0 0 0 0 0 0 0 0 0 0 
0 0.5882085156566758 1.158701446196454 0 0 -0.219412723686609 -0.1334245946417439 0 0 -0.9338834206422502 
0 0 0 0 0 0 0 0 0 -0.4382005001616025 
0 -0.1073011285572524 0 -0.09526706240029756 -0.3365538741868025 0 0.3943857563972172 -1.913014898264977 0 0 
0 0.03771821964807179 0.4729920937043002 -0.01252311606953681 -0.4750267527743359 -0.1758966840478662 -0.07598530180305735 -0.4490627665576943 -0.1167413280617233 0 
-0.4275211157467526 -0.07460544900331861 0 -0.1448149080088307 -0.08733484093086041 -0.311096000168113 -0.02274982298032641 -1.888706893064352 -0.125187837767278 -0.5389837837372505 
-0.2151021049078394 -0.1314925938171908 0.4773266262110266 0.1486115641323437 0 -0.09754797455152009 -0.1065963174559588 -0.5071840140971438 -0.1076664490417526 0 
-0.6967192940865556 0.4293210637188927 0 0.02788373604384464 -0.1387300423537404 -0.04875986812850471 -0.08047988901556605 -0.05528543608123944 -0.6783251329677974 -0.2054875560279608 
-0.2540039470514208 0.03822890508196117 0.2124184656580426 0.1242437080533245 -0.5169139986102873 -0.03678979449863154 -0.2110875927075239 -0.2222283514914845 0 -0.2405670688301315 
0.04975009437414418 0.1297894101301303 0.347584040697233 0.1207660733768963 0 -0.06390935025177384 -0.3831241673895023 0.03522660211644441 -0.07829700958201155 -0.02755858293236767 
-0.3515320821077388 0.04427023257228496 0.4475566905428691 0.04280434838210595 -0.1897865850615647 -0.08674843537163233 -0.4545269582309641 0.3376979946878045 -0.08991392784643858 0.06656456409358735 
-0.3180252345104869 0.1764994411389937 -0.3083024556057269 0.03165139271107795 -0.3239421062436619 -0.0007456961547821039 -0.8210113518770477 0.2551709351984729 -0.06176922001680233 -0.01185050491543181 
-0.3721685232676879 0.09573054302556561 -0.08049752134152634 0.03269455952017124 -0.2836116075304154 -0.1433297389183096 -0.5840382560479326 0.513280418855155 0.2375400730021436 -0.1292165985041533 
-0.1450021421104496 0.2745175428957998 -0.06937430311967835 0.2718754342876947 -0.003653623403123857 0.0008294875579477603 -0.9261296104549747 0.2741022987361216 0.04237239213684925 0.1947310663453196 
-0.8384792759495777 0.06659796970753125 0.07787652260491108 0.01209099717795038 -0.4840901912445877 -0.4402166129822104 -0.3379306443542966 0.4357325969555826 0.1088309452169698 -0.01453079079924725 
-0.3785901047004475 0.008533404408348743 0.07445035681207068 0.002063850217471292 -0.2800635355349029 -0.05655982808314743 -0.9679656314783832 0.3080504691041061 0.207707461433896 0.105746214095174 
-0.01694464837361546 0.0290367663294356 0.02152328622665396 -0.05167517834072162 -0.4696319408704372 0.4069647480590917 -0.2805175263972027 0.236818549113005 0.1119902429643805 -0.2013998293021953 
-0.2792017467483926 -0.1598899013526197 0 -0.1397415470577812 -0.1426118272579792 -0.2819864254257495 -0.3461194836303186 -0.00836472403690559 0.1832563144471872 0.08886641544806149 
0 -0.213746616578639 -0.09156881051346667 -0.307515671184752 -0.02682180589695573 0.3131598607184254 -0.1166917390639892 0.08795771937775951 0 -0.1808465852734887 
-0.02511624888443557 0 0.01010752101070397 -0.02607548803196803 -0.1405503811913838 -0.04330597766409133 0.1053122478166751 -0.08390238947442619 0.4195104848801558 0.1712509725579138 
-0.3059939966224786 -0.227815501108713 0 -0.004920934135454332 -0.07765288151169218 0.1585744648051807 0.1503429097584863 -0.6178381434602177 0.5893429548156761 -0.2376762081384585 
0 -0.6018233629273362 -1.436563348150723 -0.8284325379076337 -0.009655168337533299 0.2939272245834137 0.5069453284083789 -1.391422300354404 -0.5992906850321331 -0.01680393278469823 
-0.4284739530136886 -0.5344510955738204 -0.4483122511912605 -1.231687730352603 -1.257938563752036 1.075476615341169 0.241797444565727 -1.296623633105368 -1.506618226340783 -0.4718377571559273 
-1.988596199653719 -0.224460211132692 0 0 -0.4639770327482478 0 -0.6887834707760356 0 -3.213287541592549 0 
0 0 0 0 0 0.3336562198985866 0 0 -0.9435507667263603 -0.0284765506739466 
0 0 0 0 0 0 0 0 0 0 
0 0 0 0 0 0 0 0 0 0 
0 0 0 0 0 0 0 0 0 0 
0 -0.2175108557005241 0 0 0 0 0 0 0 0 
0 0 0.5583573525431094 0 -2.042922041239178 0 0 0 0 -0.4780606158989879 
0 0.245306670474577 -0.1352895959068472 0 0 -1.976818984014152 0 -0.190497634179478 0 0 
-0.3200716607622666 0.4635146891390992 -0.2492999364961595 0 0 -0.1763934399686202 0.3398902905120995 -2.657975540786332 0 -0.5655479654277167 
-1.163974479749659 0.05361017063716433 0.1987344886169163 0.3489097055776678 -0.5669250270304271 -0.1479082030997211 0 -0.3861113278476188 -0.04365416004783388 -0.05931968790692391 
0 -0.08440145460322926 0.1693047447937361 -0.0004785991927784377 0 -0.03817393794252827 0.002980643091217629 -0.4332213804330386 -0.384856868297793 0 
-1.065719897453671 -0.01102266278927097 0.0201063896128696 0.1723607715842616 -0.2147848510046597 0.007443471496956225 -0.03601313883579442 -0.1942555554969149 -0.3167588723347894 0.264394289591916 
0 -0.09046190581989462 0.3123248302826964 -0.1377390760476513 -0.1559572836211966 -0.01467569746977278 -0.02867370644911894 -0.2246047914124306 -0.1143116508682804 0.000769495307388858 
-0.2335779609208058 -0.06918884818448313 0.3544707107029601 -0.1281678406392129 -0.1225111670967668 0.05262743223357751 -0.283537657072391 -0.2761924517166111 -0.01857941844151325 0.08636260988960646 
-0.4605901517052475 0.04028361525430028 0.2474991994721865 -0.02699204154569377 -0.3411505981088204 0.348833802787456 -0.1520978033794786 0.05911602731434387 -0.02466583911601691 -0.02455285784134409 
0.02339809143220602 0.00554228742918253 0.1622152283816018 0.0182428789613157 -0.2505059025196783 -0.1081696340626506 -0.1916629731405131 -0.04063461345393625 0.08923414203461515 -0.08262508054036294 
-0.1983042419378188 0.08586731739234967 0.07016429502181673 0.0995763710317515 -0.3267009955250209 0.08640055269524267 -0.3875193074972492 0.5195261969677403 0.06961914743561745 -0.1552188749360326 
-0.07482237280991119 0.3641324171140102 -0.1751357424007522 0.2276214604896755 -0.0120790280735807 -0.2215709027201505 -0.4924656737830418 0.4849470415208655 0.1176645086753915 -0.2124459736605941 
-0.3730125680789472 -0.7647149484279718 -0.2423621013740467 -0.3991692210222145 -0.8448067989181125 -0.03585313328425233 -0.5498229969421848 0.6865178422726024 0.1880304561906835 0.1726284806715603 
-0.05534502680649216 0.2713919457720055 -0.09361164193655305 0.1262314981885526 -0.2096177374349328 -0.005890113380005945 -0.7217590264888857 0.5101666150061964 -0.3990946139220609 -0.1144165615591472 
-0.03229385645960004 -0.09907983064392707 0.1894742100440417 -0.2504342963830793 -0.3061841374487848 -0.1075549321909689 -0.08872112127135172 0.2651157131283444 0.5493474113487322 -0.2380258170149489 
-0.2020380619968413 0.008309874307987365 0.01286245180705981 -0.1025641040386458 -0.50081670522029 0.01094298626096259 -0.2282310563535272 0.1680581703687731 0.1374762503301471 -0.004847084856728044 
-0.04466154235780274 -0.04137713361381216 0.03476848363455814 -0.1589210159521041 -0.4007215638736414 0.1327745838043774 0.04253167670730526 -0.0756399230570468 0 -0.2138141889490273 
0.05008696935344322 0.1074271914776277 0.3317526189750979 -0.02266267105007422 -0.6869240694211095 0.09759164073421146 -0.1257632980614332 -0.1904548395891816 -0.04496705924769483 0.1610124081013264 
0 -0.3867981170555826 0.2566994251165731 0 -0.1706463269933745 0.2186588493969966 -0.1262044464475927 0 0.003837446690775771 0.04744109232107933 
-0.0451867548847864 -0.03072698273219734 0.1689677969296432 0.3192929796262038 -0.7485705911129283 0.4574104956587154 0.2142457190748301 -0.6511269626418763 -0.1725300738096402 -0.003198893831068719 
0 -0.9287541695123201 -0.02044133796367166 -1.018636095134042 -0.03063821427701859 0.02117611428959338 0.3757472244061399 -0.1409306038116239 -0.01760288777125508 0.4462712517818136 
-1.569507380524353 -1.546582199925342 0 -0.9041690502927785 0.5489705747683158 0.5839908255304542 -0.6609938264893797 -1.728017683984082 -0.5256657483098419 -0.1355525511603121 
-1.009739406830013 0 -0.9100217820629749 0 0 1.470022391611532 -0.378114230106276 -1.750669306191777 -1.719989251895193 -1.108188126523801 
0 0 0 0 0 -0.5452792015627583 0 0 0 0 
0 0 0 0 0 0 0 0 0 0 
0 0 0 0 0 0 0 0 0 0 
0 0 0 0 0 0 0 0 0 0 
0 -2.037774750344458 0 0 0 0 0 0 0 0 
0 0.1516673771322007 0.9338709584020801 -0.6101421575341236 0 0 0 -2.238930945112802 0 0 
0 0.3484828444260608 0 0 0 -2.23918306977698 -0.1845333383700664 0 -0.8376760943569885 0 
0 -0.005962786988399228 0.0008649361149804985 -0.01488689816830376 -0.3579270766619252 -0.3992254909095538 0.2845107960112075 0.1049768372483026 -0.2351509482578102 0 
-1.139414081275355 -0.06893253061127745 0.2971438583172238 -0.2467371166341687 -0.4124960094641699 -0.1892868837519486 0.1642495967582878 -0.09502246819903104 0 0 
-0.04798264136671093 0.1220505797418841 0.7390068637111493 0.04754265119584469 -0.1145359544941178 -0.1256869297337506 0.08767573444772557 -0.6950677910867943 0.01331951414585261 0.2789216027783196 
-0.4858675588301315 0 0.4935663654314504 0.03831609840059955 -0.07345743531709956 0.04429343810094528 -0.1508236632832331 -0.1321576476740406 0.01126434194504471 -0.1637200355622613 
-1.008581883648564 -0.222438265615774 0.09817326327042321 0 -0.09503531797879562 0.114793906459505 -0.07638236931974624 -0.2659741540013428 0.115520662064272 0.2858592494163537 
0 0.03083766239468902 0.2154670407363872 0.4492980034854298 -0.2423089138240334 0.07808084254868779 -0.08977932099892975 -0.008540013466720727 -0.02412491210356056 0 
-0.3977092067746296 -0.2336859460654717 0.3295868751355949 0.09460125028325567 -0.1194900165059215 0.07372778750479421 -0.1403347576477984 -0.2503521414458236 -0.1212695635464195 -0.004545135602935888 
-0.09132417236792202 0.1496761626195875 0.4309122110510743 -0.04124962215597949 -0.2620683293689812 -0.02215513321844325 -0.3828175383464426 -0.1168996841144294 0.06628584884213233 0.2007968923566867 
-0.006777634897600054 -0.1125227830576255 0.06587897069984631 -0.007949370308699069 -0.4257949535342796 -0.121375759767157 -0.1252505461068962 0.1207400318982096 0.003225925288037596 0.09766172960244138 
-0.1534155308725721 0.05269227088881261 0.1816894009713997 0.008093542156758228 -0.4463745163709718 -0.218778060086502 -0.6898755765556449 0.3056228128455153 0.1091174857227573 -0.06944776545908182 
-0.007002949104677321 0.277405740882479 -0.03819631534333799 0.02128964992311883 -0.1646315201699314 -0.261123487020564 -0.2421628708780324 0.2794831303309787 0.2152925571084739 -0.2666940666253497 
-0.1691194541650236 0.258183001421405 0.2497861561321856 -0.09607459994574073 -0.314059083483357 -0.1758526192061742 -0.5941766082107443 0.116482744475077 0.4710895289880913 0.2177217603274185 
-0.03132508094394758 -0.03269084356091108 0.3647747468000541 -0.0614750491085326 -0.5492153038014426 -0.02380104916655398 -0.0174316116712745 0.04412623574778583 0.3539950988103562 -0.2235004845640842 
0.1112818984264414 0.1536787977852639 0.2338035470981899 -0.2933754191300376 -0.6906709113800142 -0.02639465217797616 -0.2939370022161555 -0.3896708345087279 0.3818019630209677 -0.1270348131264551 
-0.03697190371113398 0.09621826401664681 0.2810923688056485 0.1167550961357458 -0.9402147468892906 0.0249406747995166 -0.08353642085684271 -0.08848459126369088 0.2330138569286966 0.1833218859210771 
-0.0525352457697302 0.08624524961692334 0.05029545976543178 0.01186537189291787 -1.181893704959793 0.2126119513223934 -0.07675110582179204 -0.09767462029484253 0.1817026318038466 -0.03818324684929245 
-0.7994400717349227 0.06156117384820793 -0.08672290338995788 -0.08649038107482747 -0.7817286316347252 0.2583856388567171 -0.005411577362038462 0.1048907887287378 0 0.06767648674430114 
0 0.2626135750817046 0.1811554972532864 0.0796787906590584 -1.051179498191238 0.09286057882030928 -0.1940141717315774 -0.004795396930786174 -0.002483002644522343 0.4267049625612702 
-0.6870261733726 -1.179669590461133 0.3148007564790936 0.2206352424427181 -2.066484143773046 0.6780729188522474 0 -0.2195000918129566 0.20524389202193 0.03902662536365493 
-2.652283292434547 -2.250091575556552 -0.6438699253729027 -2.898896403378652 -2.580937214012333 0.6634031174508063 -0.17228593819848 -0.3732941692824161 -0.806162090218062 -0.1025023804949751 
-0.5528393085554613 0 -1.249250155542672 0 0 0.9340974483423636 -0.4552315170854425 -0.8231798206718092 -3.384817064682434 -0.8402339774737849 
0 0 0 0 0 0 -0.1058844318682762 0 0 0.04223467863086019 
0 0 0 0 0 0 0 0 0 0 
0 0 0 0 0 0 0 0 0 0 
0 0 0 0 0 0 0 0 0 0 
0 0 0 0 0 0 0 0 0 0 
0 0 0.07284452889221764 0 -0.9912248695123647 -0.7098954180898245 -0.6433030932994968 0 0 0 
0 0.09376515106482415 0.7852839222130669 0 0 -0.9080644454309087 -0.1472500166192098 -1.634126717299492 -0.6494787449043627 -0.9931182568706541 
-1.270099473768414 0.1174285546837569 0.1207413746861943 0.780250804749609 -0.4864052536573398 -0.06077916214791483 0 -0.1937562373602336 -0.1969820621607172 0.1344548154989668 
-0.01026278306452175 0.2902462685864859 0 -0.6554133485697148 -0.2433173636931561 -0.07454585877277431 -0.4501898427327227 0.1794715461164527 0.08596343771012305 0.3373759038926488 
0 0.09931187144414783 0.06015849359350127 0 0.02341407473285043 -0.03659444378884167 0.05447237688310625 -0.0373700501625527 -0.2233518144466444 0.1821072642223868 
0 -0.2839651225445677 0.04789163598495744 -0.294195919776485 0.03362377342145676 0.1478375099816138 -0.1083797911753485 -0.02260311655439314 -0.157582480824209 0.08155548339162175 
-0.3204728330724061 0.08176960628601465 0.4560782559635532 0.1420781649488811 -0.352377591225064 0.1304409178743557 -0.06145898633162496 -0.4178038416729318 -0.0914558732495606 0.2159946738907939 
-0.09351905621399728 -0.2241222552120581 -0.03016118166920677 -0.1448690629999815 -0.254030280581435 0.1204723910179181 -0.1019890736098836 -0.06682869758417406 0 0.08256004824858755 
0 -0.1694214097385817 0.04883317906774856 0.06621804832130586 -0.1093174700533305 0.439422546591495 -0.4371640661094673 -0.09760578800497488 0.008107543141067469 0.1327915519979281 
0.1966118512519598 -0.4163069830878539 0.4313965962456906 -0.03342412348501093 -0.2042120601438827 0.1465485868254323 -0.3480374813581748 -0.04762272338920504 -0.04666088827616362 -0.06593821960732359 
0.008037582039995321 -0.3155094068629439 0.2396668528297207 -0.1015609036509463 -0.1618424679760732 0.009160673696475828 -0.13264151853804 -0.04992706623649346 0.01999866515949298 -0.04576668039178488 
0.2642620213797673 0.1356394254494237 0.2729996170171049 -0.02679695299533946 -0.3118149292965723 -0.2836953429818873 -0.6372595764915707 0.2840546235404497 0.08907372865432979 -0.2596506551699078 
0.3595189200685764 -0.04812076355894481 0.5365523342735666 -0.0329586046461472 -0.5737883455777276 -0.4518168163956997 -0.5612230709785729 0.1887662211986822 0.1012201291336994 -0.3659685807715808 
0.2134967544518392 0.03762276363566417 0.1381651273337548 0.1182909719965019 -0.7187560084070039 -0.3417634000823271 -0.1540416361881228 -0.2486234394315295 0.2412749738302131 -0.2986167880966782 
-0.3231136795675137 0.2530204014455006 0.4135360746438934 -0.009270563743371592 -0.8273095752780901 -0.3493010233613794 -0.1565576571039415 -0.1319921524387266 0.4060846047210024 0.05752861643529902 
-0.01708212944558693 0.1129890982901176 0.04654597660327889 0.1383339713349035 -1.133685415755933 -0.2002960027153369 -0.0333441290536564 0.004509971011588565 -0.2807443071849411 -0.08632755531798793 
-0.2569420477882297 0.1760529139848624 0.336222419260653 -0.0869702831610228 -0.6900422339222984 -0.3441575463892337 -0.03072562826519794 -0.1999816286316256 0.2835284070919055 0.04288602768863256 
-0.2684609157388528 0.299413699790992 0.1097008194516139 -0.01163624179160325 -0.364849229850074 0.02789876663218128 -0.07175497631936495 -0.09364752967804918 0.10418096964162 0.02662994055274327 
0 0.2978210755081637 0.1175410003731158 -0.1952780238896338 -0.177354575205417 0.2400884806519026 -0.004422361112749514 -0.2774615071215764 0.02573056215274652 0.3971552686198539 
-0.0304841111906307 0.2575175663376246 0.1315972317188966 0.03857380985847624 -0.03986194294341401 0.2131488556452448 -0.02948643454083658 -0.2329888308410572 -0.02190568176811063 0.2579519489013241 
-0.9880866154137224 -0.3023945802182 0 0 0.005068286782674543 0.8126294555087921 0.02195006247892799 -0.5660045865829235 0.2271198643669704 0.09674730918914531 
-0.7366070181046775 -4.916537389395724 -0.2102844620720649 -2.432340328073262 -1.017282194671646 1.679986258349979 -0.877913265073951 -0.4492149695705284 -0.5735082574601578 -0.004676743963481274 
-1.752940681075633 0 -0.6615945508680444 0 -2.882919832380012 0.6597632312520545 -1.178359995415633 -1.728271163803264 -2.564884409991544 -0.4363398853519916 
0 0 0 0 0 0.7593995159149636 -0.7047038274450728 0 -1.297211904704559 0.443323930153831 
0 0 0 0 0 0 0 0 0 -0.1128883997742947 
0 0 0 0 0 0 0 0 0 0 
0 0 0 0 0 0 0 0 0 0 
0 -0.7071628868131691 0.80086267863126 0 0 0 0 -0.8027512107883543 0 0 
0 0.04459315249365296 0 0 -2.182429026861697 -0.09109418771198548 -0.8863073488543125 0 -0.1812237686573092 -1.583142283455623 
0 0 0.2899050362335624 -0.5109602797404832 0 0 -0.04843313130307483 -0.05028723060179997 0 1.464568501720398 
-1.787252038425855 0.0140764110870286 0.7202723088187196 0 0 -0.5038446208506311 -0.4298720860862767 0 0 -0.3915101690474589 
-0.9505503297719171 0 0.01390660479102939 0.6421007979817666 -0.3889693403469204 -0.0497927183732761 -0.2093889887157273 0 0.09173848751976781 0.3292039556584151 
-0.1985136441575627 -0.1304270743468258 0.1777499730816272 -0.0007016234339639404 0 0.1907255608608366 -0.08751789728452991 -0.1842086651578702 0.08304289774041823 0.1954534585062331 
0 -0.1709049125666942 -0.2436500860270952 0.005591842435739834 0.02841068934990367 0.4813205383786198 -0.07541298117536614 0.2621655369691607 0.005894175463155155 0.3952130062609714 
-0.06738374542163234 -0.5351521504574135 -0.001162893777707293 0.06032773834782618 -0.1951740292185741 0.1388978471120604 -0.04600034946332214 0.03291314741395149 0.06131071865059395 0.175357495435824 
-0.2406137754894718 -0.9857109145703384 -0.07545153495685709 0.1367060156175862 -0.1481501430103354 0.4134169399500017 0.01797238051620127 0.0372751347287751 -0.2335095848162725 0.3616295393262566 
0.1269313448226511 -0.6864611118081677 0.2417996876179525 0.3241256378531763 -0.1622459944624248 0.2486552163099586 0.03052354839341804 0.114866314109862 0 0.1304630750686561 
-0.6178824132678641 -0.4351728469997307 -0.0781777716553418 -0.01963961164552659 -0.3053697123044466 0.308811528737052 0.1813823126768554 -0.1541500308515728 0.03505444331170944 0.3144020069118071 
0.6802713519893616 -0.0313603792180779 0.5616825921164047 -0.1170672376133193 -0.2234401437348005 0.2975749721986405 -0.264673765036846 -0.1163778009969269 -0.1980131541390718 -0.0302508775612389 
0.6308358685163725 0.1555044262972419 0.2180603012671699 0.1565023235396204 -0.2687701212634541 -0.128297275984347 -0.7336354136982794 -0.2006162195704566 0.03950608977120933 -0.5621953929928502 
0.5263384872032949 0.2169459842188615 0.5376641797007694 -0.2789503193113411 -0.2690771711964176 -0.07938000928949658 -0.06358308835526535 -0.1861863746558419 -0.1218828871049697 -0.8023635210693913 
0.3586048632530948 0.1564543222177067 0.3243380869650338 -0.253669481790501 -0.4881592943314859 -0.459608401380888 -0.1046503304278852 -0.1873738955628222 0.2045166009249331 -0.3893469755572884 
0.1366284368652064 0.05270167677332586 0.3525007500730776 0.2296856876599255 -0.5992511383246074 -0.465897528599131 -0.02937931778969083 -0.2293228399579884 0.3348142298399719 -0.1775952235721054 
-0.1991769403030072 0.05545661387026482 0.4869435920366174 0.1613979239573613 -0.2664894737208139 -0.4123110216258903 -0.1353638685164933 -0.0278370092743389 0.3323878011776183 0.02707805923170159 
-0.1584511805482949 0.2274097095050708 -0.1990180308601156 -0.1457034863040367 -0.4996652081899152 -0.5069166182453979 -0.04745676880927939 -0.07493336253588992 0 0.1916950818451452 
-0.2596039593888147 0.202057828833687 0.4292177368336728 -0.1129691626089944 -0.1222132743166142 -0.6306856898897335 -0.04606802304412924 -0.056969218341415 0.09205473164326039 0.03534766841462245 
0 0.5488338313576059 0.07148518289622223 -0.01475768245943724 -0.5886100578814498 0 -0.008438778725927165 -0.1865594840227125 0.159398589495897 0.3535602742847304 
-0.6886673174964817 0.7624510358180876 0.5681829278173085 -0.02431483213296395 -0.6543732782851003 -0.1141594740287792 0.05628538313472532 -0.07047275511862269 0.4850940738644401 0.3890296032753649 
-0.08396530670879841 0.2858779083570825 0 0 0.1312899280904393 0.531910574642419 -0.3125298017781331 0 0.4924866173846756 0.7980336597639982 
-3.252905902862288 -2.215886850036492 -0.3242792699673329 -1.343119872244981 0 2.287959372165862 0 -1.495210667126094 -0.1055095065589186 -0.6311691311204786 
0 0 0 0 -1.845698451123272 2.758759030313085 -0.7317020224161214 0 -2.299382634016434 -1.379716627583272 
0 0 0 0 -0.5778283381735575 0.2068739592691315 -1.430723772974696 -1.41369794483037 -0.3322084502116901 -1.102062801869422 
0 0 0 0 0 0 0 0 0 0 
0 0 0 0 0 0 0 0 0 0 
0 0 0 0 0 0 0 0 0 0 
0 -1.425444263484848 2.72754377047294 0 0 0 -1.409636226115146 -1.044133799632448 0 0 
0 0.9680089622438789 0 -0.5933342039262758 0 -3.032703741752775 0 -0.8617463709978305 0 -1.152076447005162 
0 0.0652036322607243 0 0 0 0 -0.01095543163359683 -0.1791088977309468 -1.034883531777855 -1.012130232669075 
0 -0.04161657821858604 0.07134657032637759 0.5579748275744988 0.685933182383291 -0.1790130758612845 -0.08126634579008898 0.0317809542266571 -0.4090328359004805 0 
-0.8654160202613552 -0.1339898599497161 -0.1619221557767981 0.2977739956704964 0 0.4088348119116236 -0.1474532533580676 0.1818001104510543 0 0.3044161900083119 
-0.3354933924797803 -0.4498926490549218 0.4738974112009572 0.03267301343650913 -0.002296141050382788 0.1106861553186717 -0.1286736936879645 0.2272018081260681 0 0.4865843407557024 
-0.4026810152921517 -0.5471372188357487 -0.1693353788059552 -0.5215578123786079 -0.1838402251908211 -0.05171975682651793 -0.02005224701200482 0.3177184310583833 0.01761081367190641 0.2944892362957777 
-0.6549321860443833 -0.5432279473625273 0 -0.9007581082307734 0.008842490777346911 0.3767738555301428 0.09184390246707344 0.2050887940620939 -0.1507311810152714 0.3470886351985594 
-0.1874355340830405 -0.1569392831531812 -0.0235648915284067 -0.9441759854567651 -0.00846664319090764 0.1973829495688613 0.100833934112883 0.1400342513265735 -0.07210182328151367 0.2298052049849502 
-0.08669679317210298 -0.3379907032701195 -0.03450175869382699 -0.9647973929008948 -0.1940640913542694 0.3661872578664943 0.185222389055946 0.1649681487942246 -0.01558393954381227 0.3180253911631034 
0.0583281543131149 0.01916779925963666 -0.09260738129772035 -1.010235541172565 0.1595529891013959 0.1962184632430695 0.08956722304248417 -0.1834115437698794 -0.1172747808580931 0.1108843073619351 
-0.07206836616259839 0.2690585354542306 0.5215624385171966 -0.8426819632125158 0.3024660942758304 0.3672559181358214 -0.8280434753527847 -0.1348911111404938 -0.1173121579953838 0.4566734577646618 
0.822378545084729 0.123109242780544 0.08676775027774973 -1.064780328464698 -0.3463750260716766 -0.05083661877672844 -0.8226153650286979 -0.5661551813113018 -0.1742503395758718 0.08124530641801314 
0.6957061191389191 0.2014092968994855 0.3907184354832387 -0.254643106388965 -0.6617726553894837 0 0.06082384322601092 0.02961907352439827 -1.071338941310563 -0.1220669223968282 
0.3307328348741574 0.3778653927026697 0.4636225067596291 -0.1977098166786425 0.05204909252399417 -0.2771861437695463 0.2132798227399406 0.02782433776113879 -0.279126912063595 -0.1607354487878397 
-0.07075917935625312 0.1134014758691433 0.1311241027131156 -0.2427739318890623 -0.489623445108519 -0.07838724278261421 0.06927325535819528 0.02567494695720438 0.3815622536296092 -0.2531153164558242 
-0.2539185309101156 0.2638173380958474 0.2409649654268244 -0.1191968581138895 -0.2488262066294962 -0.9510518170262353 -0.03148572530688264 0.1216530324093174 0 0.08938979993902359 
-0.2027235710337258 0.0593641776794094 0.4394080868242711 0.2327108321730088 -0.2421814536999966 -0.1669786573790702 -0.1473932712627367 0.1012074609281467 0.407362893635708 0.03608640503466702 
-0.288257562359809 0.1352439405574066 0.2383187340058651 -0.1342293895144707 -0.432931145400199 -1.520521812440815 -0.2444260312893564 0.5043850651781073 0.2643765306860278 -0.1005075048962557 
-0.0003508731988733102 -0.556114535731812 0.08437031708882772 -0.1469607790581114 -0.04905366760203697 -1.538633765382334 -0.1512577360426822 0.4389500765389555 -0.1621906268522017 -0.03939987882068221 
-0.2177771410752032 -0.602835094527133 0.2791434528600949 -0.1791778300225372 -0.1241421183714151 -1.424632454489975 -0.5813979118449536 0.03459722773093793 -0.02523541065152674 0.2927925913216985 
0 -0.3318458179044044 -0.006865764522543311 0 0.1910178933045745 -0.06570566806510225 -0.3798955693347804 -0.442007554995113 0.06748630764084329 0 
-1.486313684317375 -0.9636143847573909 -0.6988528060020825 -0.2220533624351567 -0.4166221320116881 1.122609935928754 -2.157206921547691 -0.5830387961805616 0 1.779091314270664 
0 0 -0.6275283613151684 0 -1.235437784889334 6.112988550703713 -0.540290041620853 -1.613261903546624 -2.658864981477547 -1.252057658931795 
0 0 0 0 -1.436833737272579 0 0 0 -0.1244556236101974 0.1982431890337626 
0 0 0 0 0 0 0 0 0 0 
0 0 0 0 0 0 0 0 0 0 
0 0 0 0 0 0 0 0 0 0 
0 0 2.027961765347167 0 0 0 -0.6094843754101641 -1.076250430576532 0 0 
0 0 1.655288858312138 -2.911921558153591 -2.441942318269625 0 -0.9897900137955604 -1.15808281136155 0 0 
0 0 0.4297738413327989 0.2455950665159141 -0.8033548461872573 0 -0.7977385969370562 0.05524322891178854 -0.9942423410937068 -0.3615989092039174 
-0.1775384132541605 -0.90006579835115 0 0.004663245573916276 -0.5154137526811525 -0.08280683599305275 -0.2713005877782901 0.2702946172232807 0.329830418114711 0.301399358226456 
0 -0.5614200737950905 -0.08760685990216383 -2.083032525562452 0.04077797211053825 0.8670108584997872 -0.006886500887294346 0.2384779793483949 0.04182064873961756 0.3132155542139911 
0.2576321433234521 -0.7270087772556207 -0.3923986158749095 -2.385053698949602 -0.01059721687564909 0.1727131971218346 0.2396477578507737 0.1861022301241573 0.06414012770318879 0.1352404722760203 
-0.345503895627213 -0.5917378162303001 0.1481295617705358 -0.5554656765850254 0.1153470163675484 0.2285687335322635 0.1830319238180917 0.1094667751897585 -0.05877655614450027 -0.1300575368295908 
0 0.08535322628578518 0.1416227882136208 -0.9099404041946931 0.2896618537746837 -0.01355670823043085 0.6181030936781734 0.298648482288976 0.1697643482388841 -0.01658576861571646 
-0.08515726694439536 -0.4260453593606311 -0.3359622420806069 -0.7637909763837941 -0.03473577599695347 0.09551106095380439 0.08071681908474987 0.1426520745418028 -0.03586391711104066 -0.1630822503633725 
-0.3250155813227941 0.003507769387284667 -0.007158896996711551 -0.8283887555270847 0.174093261679953 0.320159526624185 0.5391031600355306 0.0116526099563155 -0.1095132317544814 -0.3277608494819571 
-0.08978760227345804 0.1010610886514143 -0.6637033194733962 -0.876171436404317 0.1587749156134996 0.3313834888586898 0.6624588995228016 0.1111123495967028 0.08865133724693618 0.2907635302640567 
0.1302927620736889 0.07369664230125164 -0.6067388262514033 -0.1966251426568115 0.01804149947074037 0.2760173331935439 0.007717168372553325 -0.05215914274588976 -0.144489660240162 0.3511908583908044 
0.8660199629551396 0.1376773130134761 -0.8014481316735229 -1.005321756104946 -0.3007993792004023 -0.1789099427192819 -0.5222912346758247 0.1806981643824589 -0.611218436896823 -0.1275755365612587 
0.5538474078679643 0.226441963198719 0.3034597657381363 -0.5162946065927929 -0.2685641846539798 0 0.3396117459787977 0.2713649994270053 -0.5299203218890608 0.07411050568764491 
0.135138778715673 0.2552927950323049 0.3899652485436164 -0.2169200412235452 -0.05152990563521491 -0.3457209180928911 0.2930809526160856 0.1955920938920086 -0.3374710767558994 0.185727356695115 
0.04571363376003211 0 0.1784740018395603 -0.341862417566931 0 -0.2755859388454066 0.1362456333827977 0.2246391067832575 -0.7019980697367307 -0.04645978151927958 
0.02878128513620046 0.1006767923202949 0.1206100583305935 -0.1669872818729086 0.08430532698964635 -0.03007822222546242 0 0.247747890789014 0.1856713566921984 0.007623052137232625 
-0.5111635777606012 -0.1444518182557714 -0.1950756160826459 0.1217908896418062 -0.2871472350961756 -0.3756761018207264 0.08290312137663261 0.4233729829449348 -0.0226016838896303 0.4284718104828408 
0 0.03403425640548866 -0.1203123141530869 0.01990002740506714 -0.09617418770661672 -0.4148310184813444 -0.1008844543210069 0.1088673990701034 -0.007871041235253437 0.2717451649047142 
0 -0.7627440705633334 -0.3181347345810495 0.1895584183557777 0.2986930850113333 -1.378091547504853 -0.01839763078803685 0.3935990243167458 0.8604111848397349 0.5687762914854563 
0 -1.130776827276816 0.09441981137324625 -0.2410971861679129 0.3233868355677454 -2.399421000240165 -0.02572346744298313 0.6724598136006791 0.4123447133366535 0.2339442763795785 
0 -1.796113536519829 -1.383449479710035 -2.101090580984548 0.4562800312907865 -4.398705791611551 -0.6074965150553384 0.9441923949689239 0.276720092971618 0.6300548442282052 
0 -0.1305759166647426 -1.059557742947002 0 0.03345137914600606 -6.688230158307796 0 -1.637748537143528 0.1872492028180562 0.4762055070657786 
-0.06961036675751613 0 0 1.987675877439771 -0.04182706463621347 0 -0.4424920044507314 -4.636520096288618 0 0 
0 0 0 0 -2.694874243433341 9.026277831752466 -2.21370618799942 0 0 0 
0 0 0 0 0 0 0 0 0 0 
0 0 0 0 0 0 0 0 0 0 
0 0 0 0 0 0 0 0 0 0 
0 0 1.094705260411003 0 0 0 0 -0.7757534406851815 0 0 
0 0 0.4511484191709842 -0.05916438835878331 0 0 -0.6345344153233884 -0.1378373166714386 0 0 
0 -1.186727516273728 0.02854250330537512 -3.401738915385687 -0.7104868507388166 0.1201320759423457 -0.7117907882053877 0.1138002737772114 0 0 
0 0 0.08003688427497602 -1.916124827587568 0 0.3456583093517942 0 0.5702490702660949 -0.02257339275384174 0 
0.4230105307196493 0.007198897959490698 0.01362429034795404 -1.135573235010906 0.6927395680550784 -0.4326923031851152 0.2537858216594359 0.2744368332977724 0.3381662854872086 0.02821888776721175 
0 -0.07056423205218981 0.2459806201220184 -0.471156462581006 -0.08001030609938643 0.05308833532545745 0.1552429528872203 0.2990461745970827 0.2072238583032129 0.06806705406365701 
0 -0.03042001321233785 -0.09378574868962161 -0.8402974891204072 0.1978166057724084 6.357625703506064e-05 0.1312903062203519 0.2059503556883297 0.0109804909748162 0.001967812614868933 
0.09009747323554775 -0.2110253187187269 -0.8568243191040837 -0.08315572098973482 0.02256142311156695 -0.08198825440518633 0.06724630331734302 0.1479057158498466 -0.1222607174888586 0.05980005626329366 
-1.599435859635162 -0.05414468063502107 -0.04113442429573012 -0.2377971032512319 0.1123775665698222 0.2610276589731622 0.687690636689422 0.1855838667718176 0.02344803252594642 -0.4827017912483602 
-0.6080953441424065 -0.2422809536745914 -0.2030656298896501 -0.002010743733929025 0.1022827070907506 0.1187596518446029 0.7142492675739701 0.06905398114530548 0.004368941693225797 -0.003604421489269946 
-0.08218364611137931 0.4371415245884389 -0.6101741054325511 0 0.3021229356078932 0.3791658530593906 0.4202308120505309 0.1193169573587071 0.04737075124147807 0.6129299206440371 
0.2867189888768156 0.2452941926225476 -1.388219309952939 -0.3362172509451522 -0.008054406098883075 0.1064111396698222 -0.1313255274753717 0.07850869673410664 -0.4773301308953744 0.2122294232111034 
0.6648953967183203 -0.0584154979458146 -0.5337509876538066 -0.3095223236341963 -0.4531801863388241 -0.3984044321711522 -0.3945130896830212 0.02666887150104943 -0.8810408319063207 -0.4182815067523905 
0.4364032750308579 -0.2464822590185552 -0.1005152861399141 -0.41597752617276 0.1971413458755981 -0.1191295793052093 -0.04558693025628214 0.2870236331197584 -0.8342316280624743 0.1872147984519535 
0.07430273517094099 0.2534391066293452 -0.08360250686511959 -0.1098194962631246 -0.03607337337008006 -0.3644734613758936 0.1372993323649593 0.2118398285240562 -0.5565424866901524 0.2623761129817739 
0.3447948948701575 0.02439838987533895 -0.005289176424152414 -0.2427129573560159 -0.2910033882408039 -0.5147250916119627 0.1311241015914048 0.1135670251526118 0.1357853108911675 -0.1827988162191566 
-0.2935942202572506 -0.09810742952090187 -0.2480780169874892 -0.05842982898657527 -0.03185799130777328 -0.3616981054928002 -0.001135551843883368 0.2452641720987787 -0.5210222201427156 0.003527625925763729 
-0.3109565020254574 -0.1824846127010566 -0.4401310893534398 -0.2177771289586024 0.001214834149109239 0.07259827899967437 0.08973335715737574 0.2785354863842364 0.2816249594762628 0.009839068489494717 
-0.8887952653995466 -0.5961246543098373 0.1018353054980362 -0.3079689125689602 0.006856600974468697 0.06652432410076235 0.1363173597623403 0.368144904504268 -0.5552299058840723 0.1939419692008473 
0 -0.6365381735846611 0.1384324932512032 -0.1556795978332973 0.3075771498029731 0.01903244459508689 0.4830808344898984 0.1993444685998224 -0.06231131829972995 -0.159570010626069 
0 -1.205607866270841 0.01869381576972074 -0.3054036747155153 0.109853214686655 -0.4579175012011942 0 0.1256717899444165 0.1020818935688891 0.1282455126147404 
-0.8341432602538679 -0.8691318854695177 -0.3207897936089235 -0.2456319385331595 0.9187760872959623 -2.343371478175583 -0.455027055051303 -0.5878933332998262 0.1642118936460856 0.1351508647551585 
-0.7933228858400373 -0.5567447508011397 0 0.230015843818539 0.0295800756898409 -3.836752918537502 -1.013488210904261 -0.443922883883407 0.001711658098209237 -0.02640922952853547 
-1.146612010934031 0 0 0.8582139295614457 -0.7354970248100184 -8.247448579850619 0 -1.355323056110635 0 0 
0 0 0 3.652476085193884 -3.848313337607656 0 0 0 0 0 
0 0 0 0 0 0 0 0 0 0 
0 0 0 0 0 0 0 0 0 0 
0 0 0 0 0 0 0 0 0 0 
0 0 0 0 0 0 0 0 0 0 
0 0 0 0 0 0 -0.1029409882741326 0 -0.9804758307159839 0 
0 -0.357355631077331 0 0 0 0.2091749089462277 0.6637027997437013 0 -0.1021810975407477 -1.752168747391831 
0 0 0.01163110020635269 -1.475599315759137 -0.3008252341663982 0.2568330021520002 0.01851719545609126 -0.1331155214145268 0.1756487462614217 0 
0 -1.397310604321375 -0.3011937642312523 -0.4001930247070358 0.6557441398830335 -0.0539777509539481 0.4047059602007736 0.05049779685080694 0.2609592215119598 -0.683058312109518 
-0.04600828798761123 -0.2041099636537559 -0.4411954281113655 0.06941349278958296 0.2138493734210118 0 0.311273728462534 -0.0988744836924957 0.5100027414606755 -0.7791772822896761 
0.05796028929468183 -0.02204371005855794 -0.06135788337795117 0 0.1308690580025991 0.007954766147686084 0.4838672544435292 0.1827302326899975 0.4065097062627823 -0.7561777383982724 
-0.4315631543792513 -0.2179495708635048 -0.07535360965878343 -0.3655434310508064 0.01320903295566637 0.1882202892957322 0.3003791050695975 0.007955509563924539 0.2560470755911644 -0.5690423182487235 
-0.3622881077451158 -0.3298055341505495 -0.09544122204389534 -0.1157810612473189 0.3992986036954651 0.3028263856772528 0.2492613358207627 0.07817062230859412 0.1540560588260688 -0.3884021274402789 
-0.5986873262509955 -0.02770069036743386 -0.7130205180169588 -0.1595778734632835 0.3592234401798648 0.07567958930839966 0.3537309670715513 0.1493151824763624 0.4128141461468172 0.4738153346647818 
-0.1024551573535081 0.3891859015906168 -0.4954541460834784 0.2644886628811595 0.07456098005950207 0.3090828451684935 0.102973655077948 0.2265940221238031 -0.7902660957637997 0.4378564172342111 
0.185436499038141 -0.08981362283037526 -0.8093959460655695 0.08213880231536283 -0.006306143817701839 -0.06799578473135565 -0.1372833091682243 -0.05234733921898076 0 0.04279257740668713 
0.4990243193496188 -0.2503595809891428 -0.4033799441163175 -0.1512355263004527 -0.113192812890659 -0.1433363774997083 -0.103829378841334 -0.05675544432326706 -0.9727182339937489 -0.1424383690941294 
0.2416472896039949 0.009058671108065498 -0.1171088673176933 -0.280708970566687 0.01466346420126165 -0.2118850402369553 0.05187561882747665 0.1808998658192088 -0.3441638870694656 -0.02572619522997782 
-0.003845387194495234 0.1751012955918101 -0.004377632327676659 0.08987878074889626 0.05631657662519708 -0.3277037385634784 0.5904993165315485 0.1489720871989539 -0.5371403967913915 0.2138340096990136 
-0.04069034189883199 -0.08321118649365797 -0.0215405495846703 -0.170504931270354 -0.1385226545294878 -0.1292813550937562 0.1792936693519705 0.003583384880586386 -0.1844676701804225 -0.1667417467683206 
-0.8916656077382344 -0.1916383188092219 0.3400883529791024 -0.07752257923142784 -0.1926210503997025 -0.1527846363808009 0.2303705136323028 -0.05698516461239671 -0.052198711292311 -0.2720144152657753 
0 -0.2567220788797326 0.659921451142737 -0.1954925501825253 0 -0.2389837831373949 0.2602982250573343 -0.1464330014579481 -0.04047836652129506 -0.4350178126851687 
0 -0.3942163407488466 0.2339503631719978 0 0 -0.04277168947175483 0.09310541085202033 -0.009426969146886652 0.009021030063706449 -0.3173820520491564 
0 0.04956239694758816 -0.04323984714820109 -0.4999026675877648 -0.006058114377512819 -0.4235091294548504 0.0546809453662291 0.01791193508937498 0.5221335623167433 0 
0 -0.3225831433740867 0.3198594107607141 -0.291523042195559 0.5618929704885209 0 0 -0.03296718122476449 0 -0.9820694122776105 
-0.1302897279647284 0.03208063855935391 0.5068331633082208 -0.1723098220054696 0.01213825127569586 0.2937616676401618 -0.3791769717221097 -0.8698780142017959 0.3447829924454231 -1.126426567318719 
0 -0.2598950408377957 -0.5963238141979185 0 -0.04972659213558582 0.7224378521611921 -0.2426671487657731 -2.586745770171208 0 -1.517394400922659 
0 0 0 0 0.407564339689911 -4.38690658432041 0 0 0 0 
0 0 0 2.879745334866969 -1.871325277295785 0 -3.893230604777961 0 0 0 
0 0 0 0 0 0 0 0 0 0 
0 0 0 0 0 0 0 0 0 0 
0 0 0 0 0 0 0 0 0 0 
0 0 0 0 0 0 0 -1.391891714404784 0 0 
0 0 0 0 0 0 0 -0.4017392388615882 -1.426932875711698 0 
0 -0.2185647075996361 -0.2056463441499053 0.4002149861631517 -2.277950670188145 0 0.6586514366726166 0 0 0 
-0.2195252830692753 0 -0.3048059738027043 1.367120324944007 -0.7200540402878257 -0.5781030165194719 -0.04114502613559502 -0.155525066065202 0 -1.758200478569893 
-0.1552726329830624 0.05615871461813556 -0.02942879353345019 0.3493892337632867 -0.006537286965916914 -0.6398152567302249 0.2003549332056886 -0.1229555549739595 0.06551642859472111 -1.237269490305714 
0 -0.2700018061068779 -0.1962161423958505 -0.2949349716462366 0.1465359144312839 -0.414468856381553 0.1125426593077737 0.2499383917880386 0.1394391734195886 -0.6982114072913208 
0 -0.4471253717775883 -0.5046303574008163 -0.1812531350059322 0.3719257616620091 0.1120545797892772 0.670954605029615 -0.3833762661886931 0.5130264362720119 -0.4959513006398033 
-0.4186405517569991 -0.01029406498172552 -0.2481010534028669 0.02585906261114208 0.2498138660695712 0.1095837056628534 0.1951039647911347 0.1640135930003069 0.231609183931697 -0.1170831410505263 
-0.8125330985903808 -0.2771465796651234 -0.5066921582306124 0.1000144451052165 0.2293272885386554 0.1685126906709718 0.6129253612373271 0.02330372306603574 0.05342671087193782 -0.02624999419269269 
-0.168618236261621 0.03323650947438744 -0.1435063571881714 0.06604833446890147 0.3059019050184984 0.03675507620056047 0.3683191239058985 0.2281048507011072 -0.03285372617649437 0.08620862685979609 
0.05789208969388214 0.2085412596234956 -0.5822667461900025 0.2592024110302725 0.2712346250943442 0.1990521743614398 -0.01490872962759613 0.2218607283201091 0.5048775514823813 0.2837812734598223 
0.3324167153124921 -0.1393788516219963 -0.5383574254322894 -0.6707344039949991 -0.3007571615306137 -0.3366081596296526 -0.1538340926865375 -0.1502317224418211 -0.7764104114115995 0.09638310826135502 
0.2222038030285966 -0.1128886668456141 -0.4436897386626622 0.02603416848391042 0.2053439913850043 -0.4999853918552811 0.0523680754560546 -0.3987245371925929 -0.8182260993268833 -0.1713182176186757 
0.1666717789266477 0.1508545339622253 -0.1221409977172174 -0.07543679120160612 0.1447840549656364 -0.2256564213684148 0.05001106620057139 -0.007417388505778311 -1.829518987943325 0.07198591373583263 
0.4755166135289569 0.007331525431892137 -0.07046496969307418 0.1701717842216886 -0.02068004683715237 -0.1880387822375303 0.3335603624021917 0.1084388299020439 -0.213848159842645 0.1131270566084641 
-0.1573582350673085 -0.2421544307718842 0.2234223778865576 -0.2118054317705361 -0.209024374232914 -0.3481285583840337 0.3032023082962067 0.02425834573756288 -0.08709970307663847 -0.555574426882718 
-0.8431542936963742 -0.1057448061168375 0.3266504140523327 -0.3071593856961886 -0.2189092441975337 -0.01114399592350011 -0.1280329026208346 -0.06267159709535342 -0.1189715733620972 -0.1741749467627343 
-0.3993202903540202 0.1553351105439375 0.1025570312830138 0.02931310117297333 -0.1082471768216637 -0.1192068870540288 0.5362959480296308 -0.0667065212410196 -0.2372557345129286 -0.1519162622747557 
-0.7220494896421354 0.2729408578035345 0.4167996681257842 -0.2699342713452408 0.2677424554045115 -0.1478609615311789 0.0641076942644703 -0.2226239999389487 0.1593067579695333 -0.4821737980826201 
0 0.1719559674515038 0.558688554799074 -0.03272163706705711 0.220825500839173 -0.06033670519872562 -0.2314838144904086 -0.007651851479957572 -0.03720522082562608 -0.7660766810557041 
-0.2034288723238745 0.6926244439803876 0.6183768368589121 -0.4514511284951946 0.06577003804620689 0.09931431654610184 0.5611717289899754 -0.1272718697561279 -0.1079263955899512 0.002492115129935031 
-0.1102935589910408 0.5049622789978047 0.04633208456687906 -0.4875672593848259 -0.05697137617482601 0.1419590700377688 0.2139457473350471 -0.07540477772836997 0.2303011974654674 -1.109091880384509 
0 0 -0.3531022378245 0.2853349282972174 -0.4469859146143041 1.496812171844945 -1.479747558514535 -1.90633853792333 0.02397560183688784 -0.6004111571611775 
0 -1.938350110841045 -0.9367143991032971 0.1260028173089521 0 -1.196809227563365 -0.5900319561774388 -0.3637815773351943 0 0 
0 0 0 2.020506918054905 -2.212852154365391 0 0 0 0 0 
0 0 0 0 0 0 0 0 0 0 
0 0 0 0 0 0 0 0 0 0 
0 0 0 0 0 0 0 0 0 0 
0 0.1111684386996378 0 -0.5092765562083973 0 0 0 0 0 0 
0 0 0 0.7240433098285587 0 0 -0.3930509251561975 0 -0.8791744945509357 0 
0 0.2142247155819917 0 0 0 -0.06050760221399002 -0.7563549189929251 0.5770393146723179 0.01269375842313342 -0.4285858126752169 
-0.140197552200353 0.1519020345249342 -0.4607124014122866 -0.1669871606174393 -0.08242957695069202 -0.098075548837747 -0.01071283890103411 0.1199645254135966 0.371646217256418 -0.137196740060779 
-0.07531891066209404 -0.2823768700951064 0.02126928730667933 0.6592669790118079 0.1921145663191313 -0.1995658890098905 0.6190041940665618 -0.4755104303389734 -0.1668378107478546 0 
-0.5489532721169375 -0.234287490151526 0.1678455575075524 0.03248013569578981 0.2484840343850598 -0.6837784454267943 0.122663820366202 -0.200620546262134 0.3952092068690687 -0.00999333189470907 
-0.07592840688248255 -0.4389965233700235 -0.07398285699160667 -0.03880893939033588 -0.1844825416601155 -0.5498687622956467 0.3073194566711891 0.2237195342442572 0.05902948969672847 -0.2089513212773806 
0 -0.06619269693388344 -0.0699871917620719 0.1878136935273705 0.2639852884413791 -0.1739713004062063 0.1511493543839605 0.08629494609854911 0.4287465682250181 -0.02679454584049318 
-0.1454334549495837 -0.31661510149866 -0.4576455809030263 0.04111113944841833 -0.03428902364600704 -0.08023389279264817 -0.7607599765736958 0.1815374820331291 0.520674675501056 0.1009795226646736 
-0.08879682440497677 0.02338654368311833 -0.7504560721203515 -0.001327097623308137 0.5131749294409176 -0.1117580297088167 0.3585174677331504 0.3404373514954701 -0.2516026755676218 0.09767255370422086 
-0.233804965330448 0.1768663302165112 0 0.494888161919651 -0.1132643716230632 0.08858916757522567 0.2650085807062049 0.07248867073779221 -0.3319769045178984 0.2696250055707903 
0.2785454999436798 -0.1255155945823885 -0.2818572330708726 0.2965998070052623 -0.2191906840733051 -0.3357611036480191 -0.1073968340872111 -0.2260694297887918 -1.449230847366416 0.01503977563162973 
0.3677389301735123 -0.1555880802815252 -0.2756370858093493 -0.266680968385732 -0.005269063415092103 -0.3276519327611123 0.2375979828344859 -0.3146980537091733 -0.6451338729027531 -0.3540901910832421 
-0.08465920809523017 -0.7353003935805836 0.09483653890373715 0.07098620436534098 -0.07637296255336247 0.04418984664882413 0.3762333426746075 -0.2117103629692159 -0.01322573285090161 0.0829932266911818 
-0.2490827801141153 -0.1533674503388718 -0.04482590399149607 0.09629262845761055 -0.2303541242715294 -0.2005285437044674 0.140441638140463 0.100890444245384 -0.7283892056753888 -0.003422102093424122 
-1.017735172444223 -0.1953795490668296 0.2665055414120494 0.08719338941538544 -0.1819360254739741 -0.1874565302436749 0.3064060976535923 -0.09889046051288916 -0.1669790541143642 -0.2318286060584726 
-0.9955246083906315 0.2224614664511549 0.07246507440209843 -0.0813218474724882 -0.01598665205811415 -0.05507958346983974 0.1227571271108661 -0.178295876150808 -0.3010296530856508 -0.433656841314925 
-0.4426256923510397 0.0376108961288761 0.2588923430768849 0 0.109786789008489 0.07382331403070359 0.08893137223944086 -0.1557444574287485 0.09893089741987257 -0.5034426152653418 
0 0.2621178356883695 0 -0.2320254772227331 0.1143846105534325 0.002510472645953766 0.04846913503565661 0 0.1066792853643731 -0.3749788066483687 
-0.3193500841159774 0.2060889989522515 0.3661804743393736 0.3087152748879087 0 -0.0495489310114505 0.3106513355087608 -0.8601009268781223 0.03116172544260537 -0.2834985264624898 
-0.02189291062832764 0.164143193634885 -0.1284538964121319 0.2016287084102002 0 0.08012308749914958 -0.1673519585528467 0 0.02712751776491498 -0.8958118749016875 
-0.9606125229423781 0.1380320357867522 -0.153185622139256 0.2976023769449732 -0.1225218731449319 0 0 -0.1031194115805463 -0.18893978078969 0.6575430307347523 
0 0.2883081725339243 0 0 0 0.0344134664808954 -0.4442974686881585 -1.854471982781728 0.07299890658105776 -0.2938045678522624 
-0.1356285838863276 -1.822920622352456 -2.187224739405789 0.9356019942345047 -0.2145414859479272 -1.2354410924268 -1.833257350655522 -1.141232214030794 -1.707828637239039 -1.42554367807978 
0 0 0 3.521625879369221 -3.338230152718161 -1.33031055398649 0 0 -0.02654470056035339 0 
0 0 0 0 0 0 0 0 0 0 
0 0 0 0 0 0 0 0 0 0 
0 0 0 0 0 0 0 0 0 0 
0 0.3316752640748136 0 0 0 0 0 0 0 0 
0 1.165227059803022 0 0 0 0 -0.9641736833183955 0 -0.02230612073026003 0 
0 0.3414612449661083 0 0 -1.434622397839634 -0.00620133285343849 -0.3152806683414433 -0.6242023482941841 0 0 
-0.02064915455054613 -0.451115015663073 0.2257410551061896 0.3821717009666982 0.04259995592186631 0.3405363420054537 -0.6742856038858142 -0.1913375477768584 -0.1264421049154752 -0.9665388262430399 
-0.4297334309016997 0.1588068461503072 0 0.3100805882373786 -0.2517311914751775 0.5177915796692708 -0.3239056004869353 0.02246852997368898 0.7346324699585152 -0.3860741673235163 
0 -0.235256544783629 -0.18264973742409 0.2143687887568675 0.1426243520435984 -0.2924789461853073 0.4559661199982645 0.1277333579960795 -0.02366238585250773 0.2506419928563088 
-0.01054020838896316 -0.190876032727407 -0.516609613488289 0.1272611898525822 0.3003199787121147 -0.2814418899462204 0.2704072425581667 0.08370479188497978 0.117747623506882 0.2533272062054259 
-0.3279848289217511 -0.8960886823365608 -0.1307779512850163 0.09471167265634636 0 -0.6243672929311908 0.3877412023536841 0.03903463859271669 0.2486312150141824 0.3850034339611459 
-0.3003419683856685 -0.7891939327973405 -0.5946578673674854 0.1358051649865334 0.8558312585464547 -0.5678079007064336 0.06162179974103924 0.1747173948471292 0.07779567614702226 -0.04161857862359467 
-0.4680055031073696 -0.8206391721822481 -0.2360444417544149 0.01866107645036766 0.3749591291263476 -0.4981560639877346 -0.09120369804514566 0.2451125280216793 0.3851542953228052 0.1692717010958991 
-0.105189003365945 -0.08054145882799191 0.02219042678704582 0.3179396034376367 0.06038918708541338 -0.4549131960213613 -0.04202709505315792 0.0372996038615215 -0.3191893398939023 0.5889344517166851 
0.305868552456423 -0.9279823135312582 -0.1178006286065193 0.03519317823514746 0.04528636663350065 -0.4923546001291882 0.2706320356686386 -0.22462529710641 -0.8045697016161523 -0.01921388538375784 
0.540933884098426 -0.2839886264623502 -0.2982781268003605 -0.06238004757619312 -0.01762439242799606 -0.142364634903812 0.1979646988127882 -0.2402939390008665 -0.4855823740761852 -0.06555050324319719 
-0.01592593196979524 -0.07166593209077171 0.004452047195713262 0.3805675210221708 -0.3063222634316789 -1.017088095621087 0.4931942507940194 0.06895970033952484 -0.4562313310653113 -0.1745050834163561 
-0.2108533098281608 -0.05625455638051346 -0.006604980205895711 0.0135454647287279 -0.1619473013141969 0.05753693910050987 0.138939650557653 -0.09784128213490006 -0.1516546330582491 -0.0851921811224363 
-0.6166779584660868 0.1004853689483078 -0.1012887378529063 -0.008388136502214398 -0.03301867851237265 0.005374790036299426 0.3089519356793206 -0.1240125688794041 -0.01525364408092577 -0.272752211945984 
-0.03407916468291303 0.1193510830517037 0.2490545976611442 -0.002600980527527741 0.1358830142521206 -0.04969070587899611 0.1578364026163325 -0.003670746305353361 0.006265555842163258 -0.2967212871477907 
0 0.1943982054916886 -0.02257802956103004 -0.2737140889055437 0.05519137342595513 -0.1930535553655921 -0.04119334051711561 -0.2684943762196619 -0.1449265669322057 -0.2031463932824982 
-0.005367890503596713 0.2236656142672422 0.2487468103490557 -0.08234773658688331 0.04685683932473041 0.07791360826356361 0.09845695777124458 -0.05286235531180708 0.03376276864083227 -0.1055308105002875 
-0.3425562151970377 0.1032953203248987 -0.5567137917179124 -0.08021008075544958 0 0.1144461073112731 0.09569664526035365 0 -0.08183939504749216 0 
0 0.4910768848591445 -0.02748206568833659 -0.07118151658354918 0.01829778409588661 0 -0.2175411206580743 -8.318285901448373e-07 0.1253334892494912 0 
0 0.5037582041509259 0 0.1194801474013202 0.113978485382359 0.1894204628433932 0.05844391856867961 -0.695491396807245 0.01610471213240583 0 
0 -0.05926979155424759 0 -0.08858400292274494 0 0.2427763233006293 -0.6929075629764657 -1.93273555917825 -0.3890139848619797 0.9866334294563613 
-1.826174243962448 -3.937110661553707 0 1.842486073922728 -0.9738564860145205 -1.376756017629238 -1.620062780789445 0 0 -3.958459136179336 
0 0 0 0.002805033878921756 -0.8933266816352232 0 0 0 0 0 
0 0 0 0 0 0 0 0 0 0 
0 0 0 0 0 0 0 0 0 0 
0 0 0 0 0 0 0 0 0 0 
0 0 0 -0.6650291918784251 0 0 0 0 0 0 
0 0.6073856687780391 0 0 0 -0.1819014397467302 0 -0.9723531583566956 -2.079295592401256 -1.221208703962825 
0 -0.1263123336501286 0 0.01684636572495301 -0.1875717671683373 0.08449396522332267 -0.5513440608602926 -0.247060194660241 -0.05584131407216329 -0.5192277228299418 
-0.2020823905607362 0.2450191467496796 0.1084763137805165 0.6380075981876664 -0.5253013701457718 0.1299703837213252 0.04585483338011538 -1.246317963643615 -0.1659070710643237 -0.5734723838402216 
-1.952513271010629 0.1399856032135219 -0.8838189383268428 0.4182907444619796 -0.1048315439985651 0.6750975368229439 0.0522107221964476 0.02926923954483861 -0.2177269439198692 -0.007172848901084012 
-0.5115061363893265 -0.01154774762992856 -0.1943019838043619 0.2433800675144408 0.07517306516329735 0.2196715357538075 0.009179368884818809 0 0.4226132556716858 -0.0002697119144975619 
-0.03623081455905428 0 -0.02305333571995897 0.2474828524935815 0.2153425116602465 -0.08820001838350339 -0.170711452773527 -0.06604845365110065 0.08683154426618345 0.08142537295851004 
-0.1319014296478122 -0.2993349005604855 -0.4308430585555525 0.1773099606184546 0.4735597408499043 -0.4856455844873384 0.07615148825469406 0.01319079763405868 0.07477977640224617 0.3419532105992679 
-0.4050825201709193 -0.6098837183300523 -0.4784995216668579 0.1529881720970652 0.1886716648019763 -0.677173035994068 -0.3206158889986109 0.2944811463675742 0.3296127376081099 0.2811065227570285 
-0.4238766619436699 -0.8662011054940352 0.001160195512474868 0.06970913818115829 0.2470567977992904 -0.6436728342989393 -0.4390231511527568 0.1280140025126522 0.05969923974098958 0.4237071742086366 
0.2317909079784937 -1.14138811057133 -0.113083425231823 0.1518649988060262 0.5063388792411413 -0.1540774381517841 0.315864062283382 -0.07729768447973172 -0.336755322940941 0.2128692856411235 
0 -0.5917175560455282 0.1597152616314544 0.3379107252521244 0.04575962723762189 -0.2424642758508314 0.3213905871300212 -0.2082562575250203 -0.6726106742939574 -0.1802699818930857 
0.3280749975583092 -1.050953086513175 0.01829973958063598 0.2212424181364568 0.03463817740251489 0.08088409389661422 0.3265998656734034 -0.09237031118137465 -0.7834503885023258 -0.2717100592885348 
-0.2521188861716971 -0.3251025210634157 -0.1761886795911057 0.09719887798243732 0.1309679900960322 0.2975325410388103 0.1733486729108734 -0.1925438313837093 -0.4574221654583666 -0.1651683042562537 
-0.6002782390927419 0.234520385905729 -0.4571692832435751 0.1818713389169869 0.08917766189005343 0.0482937220382912 0.0155516455665792 -0.1448541384123861 -0.162240548403019 -0.3153788966844648 
-0.0832947005526177 0.1432246354869226 -0.05158619445314093 -0.06951888147254634 0.1542058887983203 0.1473103070069177 -0.467458151237398 0.03239976209112407 -0.2523097104395171 -0.1501151016921741 
-0.3237322853621707 0.191811820643526 -0.01767544490895192 0.1521291103083821 0.2935563563706574 0.02654286846716512 -0.0634369652513383 -0.1924556404465446 -0.138913964661961 -0.0647274253464282 
-0.05170514661172247 0.2711223449509675 -0.3163253174888741 0.0603588329174666 0.006292363619288994 0.1147863339791108 -0.1331959735303672 -0.1303269084045639 -0.1906876960971423 0.01274993218566561 
0.0585179788217428 0.03355676401935515 -0.02560723694265816 0.08554411755312169 0.005715056085592995 0.09473473101185004 -0.09803692596251035 0 -0.2218395959979239 -0.06027079293036338 
0 0.2542631677277252 -0.00406676915960444 0.114338730284365 0.05985097529039344 0.09653100688627922 0.03460452305336235 -0.08952913659843872 -0.1462462710081207 -0.1806706671330088 
0 0.1894192780576723 0 0.2621063334444518 -0.02001591533115337 0.1517070424461602 -0.1704744633377089 -0.2323018092323197 0.1877873860846794 0.2214258397593679 
-0.9871869974983912 0.06490759642972932 -1.579366344425683 0.4133047877115238 0.005083429207674212 -0.1056934931675091 0 -0.6375700186962892 -0.2223604971047221 -0.6498930323413321 
0 -1.528635314540144 -0.5154864700146227 1.304066505716695 -1.084519889027036 0.1927951287530683 -0.1595885402775431 -1.832292961229057 0 -0.7317336060281652 
0 -0.9831045410267059 0 0.5691649886747605 0 -1.138378121541715 -2.875404140026801 -0.2486463097366288 -0.4237247880879315 -1.301954273614329 
0 0 0 0 0 0 0 0 0 0 
0 0 0 0 0 0 0 0 0 0 
0 0 0 0 0 0 0 0 0 0 
0 0 0 0 0 0 0 0 0 0 
0 -0.3395083717657019 0 -0.3148221209886426 0 0 0 0 0 0 
0 1.676535193636265 0 -0.8407686594983835 -0.2317159182403207 -0.4273054364421998 0 0 -1.254440135564961 -0.5370999855763258 
0 -0.0002587019021333491 0.6862567737121261 0 0 0.3532062446698532 0 -1.581926131102469 -0.134779933497103 -0.4086391005661136 
-2.992873764040453 0.4344143852551707 -0.5302535623873998 -0.1202303148905432 -0.2275005672966286 -0.1458174223052797 0.1644069586599418 -0.07029536946233171 -0.3766066882338076 -0.006288449067700498 
0 -0.03079685242212815 -0.07716787512760656 -0.07664681802860859 -0.1092439500081952 0.04524125022392608 -0.2166994926293232 0 0.275748131236623 -0.4076741099498979 
-0.09343493484955026 -0.08942143415481203 -1.43719204707191 0.3693691596860911 0 0.00857450205597819 -0.1111406973176372 0.3013109407694185 -0.08224779924300947 -0.1299991216934234 
-0.3585797341820788 0.02375634570372184 0 0.1106473524495149 0.05751941102084702 0.2723311087362725 -0.262274208014469 -0.003669208244923366 0.1823066797324382 0.1082849403120033 
0.3530614430954385 -0.06735038340174213 -0.3847809959817574 0.3065657180847714 0.1427467214453201 0.2362642868733611 -0.335584520649476 -0.4278744264829078 0.3634257395677983 0.2944387064651348 
-0.0762624059337786 -0.2718235945423129 -0.5123364526408346 0.292607682993389 0.4737547974155518 0.1102704580683976 -0.4258815595914518 -0.1544557790022096 0.1901287748161277 0.309034850969285 
-0.2072374407425548 -0.1550818429870763 0 0.1445436218667092 0.6421171697979308 0.2094639966924332 -0.4305555125317479 0.3761555692808769 0.02455920144955761 0.0001775023388420891 
-0.1469732195414397 -0.111168621292628 0.1451264907324163 0.1545894391010442 0.5958157805306604 0.01846296221240314 -0.2175205004456087 -0.1113960652711685 0.2089934742929074 -0.04604330705880805 
0.1392228059329368 -0.3106204801944715 -0.03016606517464175 0.1877450485137768 0.07871663299571958 0.09288472768045158 0.0676287992200772 -0.2890819434912822 -0.08292336445383759 -0.4287697474049441 
-0.009146082982559074 -0.09275700567671442 -0.0138149479291172 0.2135954239669126 0.03596917021105511 -0.1168533056719023 0.05280650909097205 -0.2192008277315994 -0.1418009611833547 -0.5647289164722155 
-0.1460265666580144 -0.03079127606421828 -0.254461730844546 0.134664061689816 0.2678899303397936 0.06260997206844901 -0.1383028559106485 -0.212842134229572 -0.2760622088611556 -0.145513434073533 
0.05707759634313546 0.134664298352223 -0.1083594308448305 0.1713707660374025 0.2919088121423626 0.03035964670155059 -0.0310745148283682 -0.1027980968159005 -0.04476506348379179 0.0263712363404645 
-0.5912460003269002 0.1809280653827925 -0.2746893652606974 0.1664715687950971 0.03816328266632046 -0.1923670518207271 -0.05851640790330502 -0.227123392605852 0.03618433378814605 0.01415558791736039 
0.3821094801850615 0.2684947724168818 -0.4454453459306534 0.113021204710898 0.163067054086983 0.3192533218252113 -0.1658339239070761 -0.0417676009238719 -0.05709774136265382 -0.07922688030153906 
0.1279278467179594 0.1954349051072714 -0.1339142358159333 -0.3058599477760542 0.05709433328182626 0.2191036072196928 -0.1754346303147074 -0.1697337474812042 -0.1041486811685828 -0.1150156964150413 
0.0773591767626748 0.03029876323192793 -0.2449990868301959 0.2304933313194826 0.04854588700084858 -0.1223459509175008 -0.04678282650409545 -0.03342346878051446 -0.08704974111356069 0.00488050782699135 
0 0.5136770071504851 -0.4596832005843005 0.04648843911313599 0.02422036297602244 0 0 -0.1040255815005286 0.04280745940851475 -0.3638746898412024 
-0.7662212902944989 -0.09996696358765006 0 0.3152808539777469 0.03023310971444568 0.2109348180322206 -1.506261080540316 -0.2878692753796928 0.1873513709667557 0.2051662081108351 
0 -0.02697172525681121 -2.233887636576042 0 -0.06479168850336986 0.2875647251364385 -0.4328905010625068 -0.6296261330365912 -0.2646068199773225 0.5156487273966106 
0 -0.7069271553519909 0 0 -0.2128573271304277 0.275554125488168 -0.4760038851958657 -1.062620812170227 -0.4525532767792567 -0.889987303341474 
0 -1.338719206926824 0 1.506784596505024 -2.324992091141767 -1.153291396917993 -1.220973277027384 0 -1.210631770780464 -3.295635219388827 
0 0 0 0 -0.06791235579005293 -0.1289679865105766 0 0 0 0 
0 0 0 0 0 0 0 0 0 0 
0 0 0 0 0 0 0 0 0 0 
0 0 0 0 0 0 0 0 0 0 
0 0 0 0 0 0 0 0 0 0 
0 0.5928700779503522 0 -0.0442416704126399 0 0 0 -0.4541025586241814 -0.5178934961017944 -0.2574314100927368 
0 0.1801937060004765 -2.129789287819455 0.456004029797177 -0.06909884805405894 0.01071022681819227 -0.2838950611373669 -0.1351911738511727 0 -0.6292660151700697 
-1.519314177457635 0.2161375472948004 -0.438645979902336 0.2534659836495745 -0.07918882936277723 0.2960368103788918 -0.2475387911688009 0.2535820786098991 0 -0.2672360079684918 
0 0.4477146970722509 -1.156950460779071 0.4509098583634582 -0.05314574457805497 0.1922861238841313 -0.5457132851620656 0 -0.06143564631113865 -0.07040927054557117 
-0.03355461666974786 0.08491242949259947 -1.158052798573888 0.5308239075355519 0.007838442025980217 -0.1110136165387815 -0.413370043620304 -1.173282312319893 0 0.4533046743220445 
0.09136676667467537 0.006482454554858574 0 0.2345240367041685 -0.1389086282324559 0.07647446593600478 -0.6989499278897974 -0.2962089952916847 0.03541165863583091 -0.07694557257545701 
-0.2556687938492869 0.1127707320820311 -0.5034616134935636 0.2352373564814372 0.2824325658335459 0.2217261998822964 -0.4652138522961973 -0.8493780787359717 -0.05305102410892128 -0.2957282796146079 
0.1240295064679747 -0.06415121487993233 -0.2543447449053451 0.1755679027689306 0.3652470047502414 -0.01377360022624245 -0.5514793559567009 -0.587474499515608 0.2703538019351412 -0.1057071382480602 
0.274081504737947 0.02415241119430763 -0.08545077194353362 0.3383864627710655 0.2840646763745739 0.2659222735712651 -0.08217007978920371 -1.241594281867092 0.4236634756724987 -0.3854929817806868 
0.01340060272831794 -0.2920069803480372 0.07876336317749602 -0.07025400111469955 0.5293803790883759 0 -0.3670381022359692 -0.2256854697730514 0.2260086887984895 0.1409856719057867 
-0.2005176009508417 -0.2145659320235475 -0.08868084602565096 -0.09080275202995711 0.08795635062163099 0 -0.2664697551767595 -0.2111961829298656 -0.03613798453086073 -0.3046312328853629 
-0.1210965885775388 -0.2649594571577702 -0.05850380040355514 -0.1644532171935383 0.5513285646877407 -0.07334403459989187 -0.07761827194162559 -0.3248795229926597 -0.1362345469769948 -0.2030973304681762 
-0.1032694235191188 -0.1091616610867701 -0.2731970724604573 -0.006650015368146658 0.215220213571733 -0.2663494951980863 0.04248551702665211 -0.2764457594656959 0.1142133831688713 -0.01690399186040149 
0.1096145013993644 0.03591272398167393 -0.9979977125122771 -0.02107759460203942 0.2098051120933837 -0.082610633546291 0.1598634012284507 -0.2797408661378261 -1.068427723831301 -0.2167758192518821 
0.3120697916890076 -0.01422547978919251 -0.4769592081990437 -0.1976254425740666 -0.001810653634860224 0.2755049787940892 -0.02651345585425838 -0.3776363642831074 -0.09002193020816369 -0.1853756960518412 
0.4532284084402619 0.138153752121524 -0.8563418783830509 0.07269818809880899 0.06149607418014289 -1.099329054844063 -0.1470139299100761 -0.1095805174158742 -0.4148348015852429 -0.0186028488495421 
0.1258145472028052 0 -0.5113002807124079 0.343404056749215 0.1209523186241122 0.419607804853336 -0.3090286280242 0.1711867454011304 -0.1473266374959253 -0.01069955410062577 
0 -0.03646119862406923 -1.321645661252856 0.1792996968104519 0.003548583224795896 -0.06963011956867844 -0.4315001865168179 -0.2254689051087763 -0.1103439216611807 -0.0004653484083333898 
-0.1421616827543867 -0.06457824426115147 -0.2312981641019945 0.2763325048793682 0.01891551975446087 -0.08460001645485667 -0.03759081710557872 -0.5226142081556757 -0.5014020913440672 0.1170811530309243 
0 -0.2205910104616401 -1.554860306372181 -0.0953878443634834 -0.3258235480224666 0.3433509787777116 0 -0.3463528041145985 0 0.2397766630822186 
0 0 0 0.1810138024240405 0 0.2350564443193083 -0.7196687237537649 -0.3757446542815334 -0.3774559414080311 0 
0 -1.088783621396751 0 1.136928255747824 -0.6390149100099982 0 -0.4028880403597819 0 -0.26956516014968 -0.7354799485892293 
0 0 0 0 0 0 -0.6766689467093657 0.07032650583767502 0 -1.279038536603635 
0 0 0 0 0 0 0 0 0 0 
0 0 0 0 0 0 0 0 0 0 
0 0 0 0 0 0 0 0 0 0 
0 0 0 0 0 0 0 0 0 0 
0 0 0 0 0 0 0 0 0 0 
0 0 -0.5759375662898476 0 0 -0.2605833861070294 0 -1.67952329873152 -0.167757248046931 -1.720817790924353 
0 0.4222854791753378 0 -0.1568480198141589 0 0 -0.06293392095177427 0 0 -0.8138231327345207 
0.492675029324706 -0.04007777398670227 0 -0.05195678658171507 -0.6595496210221401 -0.05029382981232677 -0.05606956967592425 -0.09691510371897002 -0.1697514175587649 0.003773031975875191 
0.1420001808613865 -0.08679699125101972 -1.18789550369204 0 -1.005444000949769 -0.0914906251688155 -0.4236482040640879 -0.2252670257954328 0.1106188274469461 -0.02555738425896222 
0.2135318698013454 0.002237941030815423 -0.4030344320075558 0.006200538587185792 0.3458347284262577 0.2072436616434474 -0.7148247433105099 -0.3229923918394305 0.05143441793616214 -0.0795533486346022 
0.07950734108700966 0.00221141219245153 -0.3017789350372792 -0.1115634263638025 0.007019962826526166 0.1436146455431344 -0.08115677227981277 -0.02052684130328424 0.0650100655729462 -0.1152194539447339 
0.1460167342130368 0.008128254644328946 -0.2474399811506708 0.3979043162795861 0.07646027492251896 0.03525232738134865 -0.1565371294828619 -0.2054231806004888 0.03254713127422486 0.01243425923820241 
0.3005576017555663 -0.05240979604857867 -0.0144956505036246 0.01207214862972835 0.070415163747395 0.1145369801317826 -0.588203946126136 -0.1036847883889668 0.2453654314913222 -0.1166777644256167 
-0.08269551745513216 -0.1956880840100263 -0.06863969508763025 0.01911039404826712 0.2167254843720608 0.2610814477830262 -0.06731351754154861 -0.02725113574707348 0.1192963382812016 -0.1051612173571815 
0.02113368056569222 0.07677978551360684 -0.06484042727561051 -0.01909788912139796 0.4168145517545357 0.005979976078238386 -0.231982680420554 -0.2791587692597599 0.1761465073484225 -0.05459051254233793 
-0.06473720996008674 -0.05747087796582358 -0.04410512410487331 -0.06834930463381748 0.5896392619324617 0.08090457457893314 -0.3015817043715889 -0.281008641127088 0 0.2153011783863039 
0.04898900868930947 -0.07483327031349303 -0.1763476935378566 -0.182922625607709 0.4335186292957601 -0.1153585718540617 -0.06086424955258016 -0.186214195792152 -0.1098124942467477 -0.2059398926384385 
0.005773470544541085 -0.1121322691985051 0.1217112493582834 -0.2649414517270184 0.2371319372071998 0.06242906206982997 -0.04978400868411702 -0.1898587261603263 0.0008314396245044142 -0.07798001194432376 
0.1020046244849621 0.03384780734347895 0.003004775196559957 0.02151555614536227 0.1956730419358603 -0.02045296929268376 -0.2196946985119615 -0.1567852308982277 0.2519797592727884 -0.08548785765569049 
-0.2017749561467267 0.03413179278055651 -0.4647280733493492 0.1771615079886504 0.3801136920031605 0.5178408222754173 0.1418445556647846 -0.2817410162718824 -0.09042620872074629 -0.06358984721878908 
0.3492250720941515 0.1008385191788577 -0.4591849730428512 0.05298260738612147 0.1136173733678488 0.1374508615075905 0.03941530175385969 -0.4442403018025556 -0.4778921155810126 -0.01938349575095416 
-0.1222829791709286 0.3467329091231143 -0.4999830737860778 0.3810853063367465 0.0004362737698759106 0.08754409845521599 0.0235330385285666 -0.1195226884886683 -0.2746530720529718 0 
0.1607765461729188 0.01237665131410896 -0.5845758691856927 0.1576902107365697 0.04404608260094871 0.1228104880636573 0.1261957173209486 -0.01015569453914017 0 0.2299735025714331 
0.6925583637311967 -0.2645216742613893 -0.4144242817934782 0.2218669185828812 -0.4675357655265842 0.7641308044750353 -0.1484041770614802 0 0 -0.03919992982804716 
-1.469110170706275 -0.04272400476906453 -0.002857355747271669 0.6328403924837565 0 0.5335291308667034 0 -0.7527149359402943 -0.000707939945032042 0.4833457005614914 
-1.123281585811998 -0.5827373074512435 -1.767750202386988 1.186493491286936 -0.460033188025806 0.02820558482685507 0 0 -0.4141654376818558 -0.08162749062341883 
2.030219112533997 -2.636508026914386 0 0 0 0 -0.143280542792412 1.060220697106171 -0.1508816889516972 -2.366612743599478 
0 0 0 0.684550143675061 0 0 0 0 0 0 
0 0 0 0 0 0 0 0 0 0 
0 0 0 0 0 0 0 0 0 0 
0 0 0 0 0 0 0 0 0 0 
0 0 0 0 0 0 0 0 0 0 
0 0 0 0 0 0 0 0 0 0 
0 0.3530874598568576 -1.828916201361881 0 0 -1.040646168519398 -0.5067653711223671 0 0 0 
0 0.3836867727268666 -1.398739485362193 0.1800362263250345 0 0.2295719619374602 -0.4333008928489531 0 -1.092909452416729 -0.2315689667071306 
2.220928935460559 -0.2023718676823362 0.3524532141455389 0 0 -0.06800857364879612 -0.485922075191897 -0.6988398749541356 0.02998794188494683 0.1220285118312132 
0 0.6256520140591104 -0.4381091680331355 0.3597121867208128 -1.726790510152239 -0.1357118370548525 -0.9003037376165133 -0.830064798054731 0.280227067102855 0.2963008748091297 
-0.2028874335575476 -0.003200314156322319 0.2841877264014031 0.1598595623464107 0.0803906964692896 -0.1133623057581652 -0.3376749250450796 -0.1499259191610852 -0.04873859932244844 0.145877146530666 
0.164573902977053 0.155636286756852 0.2131246516011243 0.1559828585315004 0 0.0248558409043376 -0.2366141805350785 -0.02111072346171079 -0.03754680666055774 -0.1846900703722343 
-0.07773738107338718 -0.000680646857707988 -0.2412359331545194 0.1546089158978708 0.208713111565126 0.09962602464277152 0 0.0248006932684821 0.1634459400506923 -0.2270001744495933 
-0.1489358382110742 -0.04517202792923108 0.01041324027220492 -0.004334847126068505 0.1340916926640368 0.1821490487433389 0 0.01465097782136262 0.07504428140304437 0.02449006259255641 
-0.4758327209398292 0.121314010732957 -0.4129194975080074 0.1377665827988184 -0.06914271678015632 0.005496589487938916 -0.0372270434366037 -0.02001925201497809 0.1869450177691384 0.05293593436320273 
-0.3788071791568925 -0.03368502826164607 0 0.05731147350063213 0.0312292941488883 0.1782595239862086 -0.2058986101068952 -0.050605167775537 0.244339458601996 0.1329163996244065 
-0.532018298934009 -0.01428146481621957 -0.1495067603827275 -0.09230513705580734 0 0.02653437277963609 -0.09644963543072316 -0.02318864015230295 0.1342074283182614 0.1740356055794649 
-0.06189817074304416 -0.06678352968387158 -0.3657054222473263 -0.105382658857141 -0.1312215048467605 0.2117878166053506 -0.1542369390097544 -0.1859086336762294 0.02860609484693256 0.2028407299153379 
0.09643174398983141 -0.1686734022590541 -0.026058550177199 -0.3332920164773635 0.3010898722718358 -0.1843297535593285 -0.2170753419978345 -0.3279717304603629 -0.09369497371591186 -0.1251375891906355 
-0.096860109907591 -0.0237962460266656 -0.02711589057620815 -0.06667143176817224 -0.1487344001332142 -0.08914451549161188 0.01214537053458751 -0.203820370583415 -0.3017067420798044 -0.2100573023435256 
0.2739735096748374 0.007696214947396595 -0.2601105077329466 -0.0836096703269928 0.2492611116470002 -0.09196984865302238 -0.163511969623676 -0.2495390044131842 -0.1162973677707887 -0.169050497914874 
0.5291577000565011 0.0006306620405558093 -0.3874904943011706 0.3081742968877378 -0.08641472022889114 0.2072259049494233 -0.006923410802366472 0.0142547002701061 -0.2221405374306633 0.07181737157292924 
0.02331344373483162 0.09789123307157245 0 0.05453363333238929 -0.02362983134101687 0.1718132061884165 0.1471120522388214 -0.5712986471421097 -0.1986934077642697 -0.2363286825210679 
0.6208093694803613 0.2153729042574689 -0.2025459700606136 0.1424237419095084 0 0.0577062965894171 -0.04347098331230567 -0.1232575238082052 0 -0.1240889431451949 
0.1691412873779859 -0.02028552046076391 -0.6674084161301093 0.1649489269021097 0.5147465459131813 0 0.4024448791652391 -0.02330039202152999 -0.03789980456778297 0 
-1.398533789931644 0.1011256353989333 -1.103117598801713 0.3119622538369695 0 0.104200053420252 0.3811240813705969 0 0 0 
0 0 -0.3297856065837184 0 -2.127590155018626 0.654597472060924 -0.1594639350875309 0.05051074955916255 -0.1818132121797788 -0.7118280163549328 
0 -0.8055151622947122 0 0.3004885816461373 -0.8384176851666396 0 -0.1206514723327148 0 -0.590273131880924 -0.6257080399132188 
0 0 0 0 0 0 0 0 0 0 
0 0 0 0 0 0 0 0 0 0 
0 0 0 0 0 0 0 0 0 0 
0 0 0 0 0 0 0 0 0 0 
0 0 0 0 0 0 0 0 0 0 
0 0 0 0 0 0 0 0 0 0 
0 0.2092453926582065 -2.886599695107474 0 0 0 0 0 0 0 
-1.863692266504853 0.7625485111644051 0.1972509137449016 0 0 0 0 -0.8994219963299016 -1.965318279216454 -0.07045288381694313 
0 0.4273062871039751 0 0 0 0.6616869183394205 -0.5798402201838611 -0.1252591382195613 0 -1.047128457509496 
0.3614123666412651 0.4434894496292506 0 0.06552317746827888 0 -0.06118707085648886 0.07600267111947115 -0.2573773757948409 -0.07258749267863358 -0.5045341682375178 
-0.03033201219784715 0.09223806183858821 0.4676402084331439 -0.2700758621097576 -0.8496871449370642 -0.3277646497616351 0.04843204359393151 -0.3649483509659824 0.0002028663541188241 -0.7039779951353499 
-0.01602590466234514 0.0443812190157978 -0.4892480267352594 -0.141154192632457 -0.4889319262799061 0.06051639111148452 0 0 0 -0.04219747640161053 
-0.1925272230572103 0.2473650336540988 -0.2189126482225941 -0.1660529401584119 -0.7738874754960142 0.005590895251714443 -0.571948269999467 -0.2796869118665365 0.01624868286309828 -0.1341645213647077 
-0.1446381252048372 -0.2666779227057802 -0.1001660024675381 -0.1883639402297549 -0.5456197567863673 0.07723187415174224 0.2740348391351407 -0.1462071448202021 0.04509874938768735 0.005090895190122387 
-0.2390551502856104 0.2399945630772704 -0.2070474439293521 -0.1913941172093098 -0.5611656374008578 0.01944490040139436 -1.144263623444476 -0.3792865411469835 0.03843824537381729 -0.03567502553394942 
-0.01497955878424423 -0.09111377059136865 -0.4566708478236245 -0.0889214442848998 -0.3614910534462744 0.1053057329028335 0.05895496089173583 -0.04242917058027484 0.08147029915029957 0.1448294814802998 
-0.1520494906295691 -0.1638823106649449 -0.1349020497659429 -0.4308369938655497 -0.2272418540947379 0.0364479756996318 -0.6299796932077552 -0.2912821287432162 0.1144001719634524 0.3692126378800284 
-0.3062700777379192 0.1604092929872003 -0.211782931396409 -0.2019924041468961 -0.2795176114053587 0.04384706635167432 -0.05531944507454872 -0.1768469497154669 0.1628527131868959 -0.00195796412263328 
-0.02359174993727093 -0.2648870923837203 -0.2611754912779056 -0.4027833997116502 -0.01882564077316576 0.02602875339816491 -0.09450924439547183 -0.3676212178034774 -0.2169329541167963 0.204256315381461 
0.3549834261531321 -0.09370425530645621 -0.09571303397927279 -0.04942604810438906 -0.2976664398579544 -0.0798376584107299 -0.1937157574170236 -0.3632994701293176 -0.008616542847431137 0.2661208283298441 
0.3465228010528417 -0.1904408415303571 -0.09147293065514392 -0.2486495566676966 -0.641141052018686 -0.007668441256223396 -0.0298634407926462 -0.2102419899428866 0.09082252319288886 0.0006828127262704757 
-0.2709367759761253 0.3540101200782879 -0.326503916841802 0.1931204584151284 0.02285887113036189 -0.3389254675880238 0.1481233991488851 -0.5716465559774506 -0.2633279574394881 0.1637723252896493 
-0.002164111528300269 0.009089768091167141 -0.5876995962410615 0.4302100022698539 0 -0.06765947289064485 0 -0.1250214921075243 -0.4228344215670125 -0.1781851660202876 
0 0 -0.5224305364199675 0 -0.4056683497770791 0.0939333695302032 -0.04002690259729587 -0.1478161031976773 -1.470303880465156 -0.1251756414777128 
-0.6668082449664765 0 -1.850618653548027 0.712380121667305 -0.9303045468815141 -0.04409174910791509 0.1360812062217057 -0.07927620439756634 0 0.1833366279725509 
0 -0.9049990417996162 0 0.8097339727789109 -0.503192981837065 0 -0.8971243209144427 1.013018375361541 0 0 
-0.08844915680537507 -0.649274232489832 -2.01720941587618 0.06098453620490762 0 0 -0.5123776210076263 0.4954851191580818 -0.6080321055142744 0 
0 0 0 0.6369907304763278 0 0 -0.5275670996816797 0.4623323396800484 -0.1626099366552395 0 
0 0 0 0 0 0 0 0 0 0 
0 0 0 0 0 0 0 0 0 0 
0 0 0 0 0 0 0 0 0 0 
0 0 0 0 0 0 0 0 0 0 
0 0 0 0 0 0 0 0 0 0 
0 0 0 0 0 0 0 0 0 0 
0 0.4679123596445687 0 -1.961423210057007 0 0 0 0 0 0 
-0.7566768988821972 0.9633260753875934 0 -0.8229117726885332 0 -0.3823042800966898 0 0 0 -2.60606202727929 
0 -0.1953192771229355 0.8061019827205499 -1.087437013490937 0 0 0 0 -0.1058722116375973 -1.270716993704059 
0 0.4240269734690866 1.036207366285677 -0.59307215980371 0 -0.1539288493383542 0.3247615288082069 -0.005554319764373525 -0.5154794854184425 -0.3029445633985501 
0 0.9318773015231864 0 -0.6278329080781039 0 0 -0.1962650956126835 0.1003931824633494 -0.06846300697811548 0 
-0.5672147084781455 -0.4463603615428007 -0.07712832590381352 0 -0.4140439525850917 -0.02890576786861965 0.1295165165456397 0.006270766629868029 -0.1932001257742795 0 
-0.04782217599652552 0.5921430661260368 -0.2417301576822278 -0.2942891043294918 -0.4195909054313817 0.3365714183226666 0.4208567463866913 -0.1650541345833663 0 0.1593371407604399 
-0.4244961373118694 0.07327060398674322 -0.1503222455069625 -0.2471571961771052 -0.517707410315935 0 -0.6203945471685073 -0.1918084692249011 -0.1507970225448332 -0.1552604987568415 
-0.4196621049927874 0.1260335564652905 -0.3077454647912579 -0.31157068921666 -0.8148933159260244 0.006852599646902626 0.7123986527062525 -0.3353530323019255 -0.1871583515421796 0.1027830296399472 
-0.4664288240452235 -0.07684556883483031 -0.3397929041141131 -0.06168294695188969 -0.8475379119599106 -0.02429048593395295 -0.2803727057032044 -0.3781966577915591 0.01585054737815755 -0.2285188174601654 
-0.6580960415284622 0.04926851798319142 0.07558821097241883 -0.09205121367411706 -0.8443011002430038 0.05354999188762206 -0.0006124264710335621 -0.5293122081101477 -0.1933566010530703 0.09608847231845292 
-0.709701740163015 0 0.01479571928679199 0.05543979995187224 -1.158111336917298 0.1817737999100843 -0.1234466731205891 -0.4942205496510191 0 0.04048664895254064 
-0.1170429963354709 -0.172949330890536 0.005002405752566843 -0.2194089041452749 -1.546718874164511 0.1466107937909427 -0.1253026806394796 -0.2229482387909484 0 -0.1017351518395818 
-1.32610615028907 0.01621556350588019 -0.2368386892888922 -0.5272273942205068 -0.5033906919907279 -0.1659056991714838 0.06352704374953143 -0.1782760635450444 -0.6684198538018147 0.3061811944782397 
0.02857023582251844 0.03776559852506083 0.02652446809539578 0 -0.8629739372218663 -0.03310681689353753 -0.01469634351411131 -0.07066886089999373 -0.2349997442368075 -0.3550160641399847 
0 -0.7463622978388188 -0.4745899502989917 0 -0.8615604331940772 0.0700989538587853 -0.3229395971014168 -0.04789815685796417 -0.07117999061059604 0.1929160332443302 
0 -0.5246421047465998 -0.5407767747515896 0 -2.641083016794525 -0.1151089371999957 0 0.04048233775827708 -0.4027084623563455 0.8592101563483353 
0 -0.3600194563669546 0 0.03192495303313445 -0.4078637309165612 0 -0.04239183121134021 0.07616796320151954 -0.7273513095959037 -0.09698454920359693 
0 0 0 0.03878329562495824 -0.833765571566555 -0.3511975583405696 -0.01257515910632946 0.2493523254784527 -1.680678257585624 0 
0 0 0 0 0 0 0 0.1438818181357983 -0.7358217691439137 -0.8598586552612824 
0 0 -1.631917561270643 0 0 -0.7113933308303337 -0.04054011059172025 0.9625747966498341 -0.3720591292989611 0 
0 0 0 2.661544946708642 0 0 0 -1.132542695047871 0 -1.783883799377898 
0 0 0 0 0 0 0 0 0 0 
0 0 0 0 0 0 0 0 0 0 
0 0 0 0 0 0 0 0 0 0 
0 0 0 0 0 0 0 0 0 0 
0 0 0 0 0 0 0 0 0 0 
0 0 0 0 0 0 0 0 0 0 
0 0 0 0 0 0 0 0 0 0 
0 -0.5542625466354052 0 0 0 0 0 -0.4009103841895174 0 0 
-1.411418408947702 0 -0.07545223796767404 -2.148475254388384 0 0 -0.1224960908398454 0.5706772405094533 -0.1484947257204604 -2.125967414601022 
-0.409519142608201 0 -0.6353468117411792 0 0 -0.1359907742395965 -0.7817837578945983 -0.1488118596960392 -1.162826707902143 0 
-3.036049278657458 -0.1352367102828549 -0.006068129573165642 -2.271708543504203 0 0 -0.8213440974645967 -0.525353766021886 -2.322843546129401 -1.520697212568717 
-0.809866584267413 0.6275168090728676 0.1283868227860459 -1.300186481269086 0 -0.2712546322088208 -0.9318959494141533 -0.2322489263742682 -1.571032148757984 -0.5876726167541237 
-2.109651182471023 0.07268904532060606 0.3104264032259929 -3.065075501375847 0 0.01774363326063968 -0.4725105711306556 -0.1234257562939757 -0.8348066970407626 -1.126472079227659 
-2.723756790769023 0.102018410992833 -0.2016831011406887 -1.485312999835815 0 -0.1568660850518762 -0.3268466719362407 -0.1191215585149148 -1.971137157610626 -0.447593189217003 
-3.180693833388496 0.1562343501853435 0.6584013752030136 -1.73982363802961 0 0.1733222872068196 -0.7044702884357439 0 -0.5582057516025944 -0.6342914791987971 
-1.023291804012864 0.3427810666125495 0.2668744893245127 -1.381668294234929 0 0 -0.996902551533261 0.07868355431538396 -2.104168671750694 -0.593626437204929 
-1.827401222652175 0.05034761757892819 -0.05367880024204887 -1.337327671011337 -0.05776743954780485 0.1882122676185022 -0.4614111776394471 0.2599307697229175 -2.119985864068855 -0.7847172692639031 
-0.6749133865316864 0.07062112602163387 0.2190833410780348 -0.499316889043401 -0.225776043983449 -0.2249690499960054 -0.8139825605788299 -0.06402044418847384 -1.069236244639435 -0.3856939874709855 
-2.475919261852038 -0.01756388943246575 0.06006133487319489 -0.04633496479613088 -0.5867189108656461 0.1187955810317501 -0.6302765498976445 0.04504364367934249 -2.726299920266467 -0.1029419910946858 
-2.379593857951695 -0.2679646280509598 0.03135075731167018 -0.6182425889257741 -0.3122594815464136 0 -0.9354916697714027 0.2107418419063507 -1.652672860484061 -0.7402424615317481 
-1.4287729485845 -0.4800240804459368 0 0 0 0 -1.103939212647413 0.2638290982392085 -0.8628685361426632 0 
-1.920225968977689 -0.2142895563257643 0 -1.288344375265437 0 0 -0.4111030374634408 0.5757303309516023 -4.243367205431461 -0.9625397644668371 
-1.907561276303344 0 0 -1.364649619454529 0 -0.02314923360739267 -1.499732202613495 0.1557828497547609 -0.3875535802097801 -0.6248426190235471 
0 -0.3572446853072535 -0.3756134945271211 0 0 -0.8543004785489395 -0.4921266109979177 1.444739140328358 -1.071347697659604 0 
0 -1.044965027088508 0 -1.357203693256019 0 0 -1.86373471271793 0.8841510441030356 -1.389150494217489 -2.74012757322566 
0 0 0 -1.145976290236395 0 0.6570342155895097 0 0 0 0 
0 0 0 -1.895909816346501 0 1.406350914138585 0 0 0 0 
0 0 0 0 0 0 0 0 0 0 
0 0 0 0 0 0 0 0 0 0 
0 0 0 0 0 0 0 0 0 0 
0 0 0 0 0 0 0 0 0 0 
0 0 0 0 0 0 0 0 0 0 
0 0 0 0 0 0 0 0 0 0 
0 0 0 0 0 0 0 0 0 0 
0 0 0 0 0 0 0 0 0 0 
0 0 0 0 0 0 0 0.5956620950797639 0 0 
0 0 -1.912657598866639 0 0 0 0 0 0 0 
0 0 0 0 0 0 0 0.4725994677287873 0 -1.82845610818536 
0 -0.1128838968495682 0 0 0 -1.290293177104023 -1.776603282205532 0.2868477108750498 0 -0.3233543303266177 
0 -0.9686467919147892 0.1168556662391439 0 0 -2.330360442487065 -1.190539093150206 0.1039584906264731 0 -1.272154148295526 
-0.006483443167870109 -1.203709136493754 0 0 0 0 -2.149839848310369 0.1997685247073946 -2.360445840051919 -1.116262649981473 
0 -0.7622209848792327 0.1065237616157639 0 0 -0.7026494733962135 -1.202772135625363 0 -0.259544989260699 -2.025549431612571 
0 -1.232692474470533 0 -1.269350520927384 0 -0.1341036850258337 -2.30506908924786 -0.07667512218501871 -1.700593797701119 -1.335697419859406 
-2.956054137708101 -1.66722150981473 -0.317677401897333 0 0 -0.5221176157109734 -1.400692513724735 0.1982059690422906 0 -1.582076474405112 
-1.7229872861924 -1.673912411238702 0.2048863057096047 -1.436572749801582 0 -0.3572068826002527 -2.223739652195178 -0.0758172653795634 -0.6548717786672147 -1.962252411734923 
-1.713798444096909 -1.361743497555744 -0.1078543473687328 -1.168730803687415 0 -1.009237958786719 -2.576173779734179 0.7111717162001546 -1.387879523630448 -1.339197629811375 
0 -2.313131027610992 0.3215119823087014 -1.99113050936356 0 -0.2046252370169366 -1.840059284297941 -0.12518583548428 -0.1210949662132018 -3.638784645515878 
0 -0.6888485528682022 0.04001189284796299 -1.317901578444165 0 -0.6175658083531573 -1.978474848008059 0.321694043264847 -1.099824213002798 -1.732927766546912 
0 -1.01148832861635 0.04986304392557923 -1.766937763024043 0 -0.251650590250807 -2.078074459993354 0.002772971692537176 -0.5856066606729028 -1.848646096658636 
0 -0.6587240663195413 0.3149088984546519 0 0 -1.375929590182224 -1.941369394834392 0.7509692794837097 0 -0.5849260822994006 
0 -0.004364018207747747 0.1447408017819094 0 0 0 -1.570259299651832 -0.2333808465495153 0 -2.175703298516241 
0 0 -0.4055049859314218 0 0 0 -1.832601696695302 0.7140048066592238 0 -0.0280180548416664 
0 0 0 0 0 -0.7825174125581171 -1.539411721928748 0 0 0 
0 0 0.131596057268955 0 0 0 -1.098548632607308 0 0 0 
0 0 0 0 0 0 0 0 0 0 
0 0 0 0 0 0 0 0 0 0 
0 0 0 0 0 0 0 0 0 0 
0 0 0 0 0 0 0 0 0 0 
0 0 0 0 0 0 0 0 0 0 
0 0 0 0 0 0 0 0 0 0 
0 0 0 0 0 0 0 0 0 0 
0 0 0 0 0 0 0 0 0 0 
0 0 0 0 0 0 0 0 0 0 
0 0 0 0 0 0 0 0 0 0 
0 0 0 0 0 0 0 0 0 0 
0 0 0 0 0 0 0 0 0 0 
0 0 0 0 0 0 0 0 0 0 
0 0 0 0 0 0 0 0 0 0 
0 0 0 0 0 0 0 0 0 0 
0 0 0 0 0 0 0 0 0 0 
0 0 0 0 0 0 0 -0.552003476058728 0 0 
0 0 0 0 0 0 0 0 0 0 
0 0 1.235468667712678 0 0 0 0 -1.881602213793245 0 0 
0 0 0.07966021007073672 0 0 0 0 0 0 0 
0 0 0.02768246452682277 0 0 0 0 -1.336173774862059 0 0 
0 0 0 0 0 0 0 0 0 0 
0 0 1.072564153662006 0 0 0 0 -1.70359103661779 0 0 
0 0 0 0 0 0 0 -0.4974818028652011 0 0 
0 0 0 0 0 0 0 0 0 0 
0 0 0 0 0 0 0 0 0 0 
0 0 0 0 0 0 0 0 0 0 
0 0 0.826843423453838 0 0 0 0 0 0 0 
0 0 0 0 0 0 0 0 0 0 
0 0 0 0 0 0 0 0 0 0 
